<?xml version="1.0"?>
<MethodSetup Method="BDT::Grad_3">
  <GeneralInfo>
    <Info name="TMVA Release" value="4.2.1 [262657]"/>
    <Info name="ROOT Release" value="6.10/08 [395784]"/>
    <Info name="Creator" value="angelagiraldi"/>
    <Info name="Date" value="Thu Jan  4 11:28:36 2018"/>
    <Info name="Host" value="Darwin AngelaGiraldi.local 17.2.0 Darwin Kernel Version 17.2.0: Fri Sep 29 18:27:05 PDT 2017; root:xnu-4570.20.62~3/RELEASE_X86_64 x86_64"/>
    <Info name="Dir" value="/Users/angelagiraldi/workspace/hh-analysis"/>
    <Info name="Training events" value="507479"/>
    <Info name="TrainingTime" value="8.16148622e+02"/>
    <Info name="AnalysisType" value="Classification"/>
  </GeneralInfo>
  <Options>
    <Option name="V" modified="Yes">True</Option>
    <Option name="VerbosityLevel" modified="No">Verbose</Option>
    <Option name="VarTransform" modified="No">None</Option>
    <Option name="H" modified="No">False</Option>
    <Option name="CreateMVAPdfs" modified="No">False</Option>
    <Option name="IgnoreNegWeightsInTraining" modified="No">False</Option>
    <Option name="NTrees" modified="Yes">700</Option>
    <Option name="MaxDepth" modified="Yes">3</Option>
    <Option name="MinNodeSize" modified="Yes">0.03</Option>
    <Option name="nCuts" modified="Yes">500</Option>
    <Option name="BoostType" modified="Yes">Grad</Option>
    <Option name="AdaBoostR2Loss" modified="No">quadratic</Option>
    <Option name="UseBaggedBoost" modified="Yes">True</Option>
    <Option name="Shrinkage" modified="Yes">5.000000e-02</Option>
    <Option name="AdaBoostBeta" modified="No">5.000000e-01</Option>
    <Option name="UseRandomisedTrees" modified="No">False</Option>
    <Option name="UseNvars" modified="No">5</Option>
    <Option name="UsePoissonNvars" modified="No">True</Option>
    <Option name="BaggedSampleFraction" modified="Yes">5.000000e-01</Option>
    <Option name="UseYesNoLeaf" modified="No">True</Option>
    <Option name="NegWeightTreatment" modified="No">pray</Option>
    <Option name="Css" modified="No">1.000000e+00</Option>
    <Option name="Cts_sb" modified="No">1.000000e+00</Option>
    <Option name="Ctb_ss" modified="No">1.000000e+00</Option>
    <Option name="Cbb" modified="No">1.000000e+00</Option>
    <Option name="NodePurityLimit" modified="No">5.000000e-01</Option>
    <Option name="SeparationType" modified="No">giniindex</Option>
    <Option name="RegressionLossFunctionBDTG" modified="No">huber</Option>
    <Option name="HuberQuantile" modified="No">7.000000e-01</Option>
    <Option name="DoBoostMonitor" modified="No">False</Option>
    <Option name="UseFisherCuts" modified="No">False</Option>
    <Option name="MinLinCorrForFisher" modified="No">8.000000e-01</Option>
    <Option name="UseExclusiveVars" modified="No">False</Option>
    <Option name="DoPreselection" modified="No">False</Option>
    <Option name="SigToBkgFraction" modified="No">1.000000e+00</Option>
    <Option name="PruneMethod" modified="No">nopruning</Option>
    <Option name="PruneStrength" modified="No">0.000000e+00</Option>
    <Option name="PruningValFraction" modified="No">5.000000e-01</Option>
    <Option name="SkipNormalization" modified="No">False</Option>
    <Option name="nEventsMin" modified="No">0</Option>
    <Option name="UseBaggedGrad" modified="No">False</Option>
    <Option name="GradBaggingFraction" modified="No">5.000000e-01</Option>
    <Option name="UseNTrainEvents" modified="No">0</Option>
    <Option name="NNodesMax" modified="No">0</Option>
  </Options>
  <Variables NVar="23">
    <Variable VarIndex="0" Expression="pt_b2" Label="pt_b2" Title="pt_b2" Unit="" Internal="pt_b2" Type="F" Min="2.00001907e+01" Max="1.87923584e+03"/>
    <Variable VarIndex="1" Expression="pt_hbb" Label="pt_hbb" Title="pt_hbb" Unit="" Internal="pt_hbb" Type="F" Min="1.34700090e-02" Max="1.68641724e+03"/>
    <Variable VarIndex="2" Expression="pt_htautau" Label="pt_htautau" Title="pt_htautau" Unit="" Internal="pt_htautau" Type="F" Min="1.72537819e-01" Max="1.27544214e+03"/>
    <Variable VarIndex="3" Expression="pt_htautau_sv" Label="pt_htautau_sv" Title="pt_htautau_sv" Unit="" Internal="pt_htautau_sv" Type="F" Min="0.00000000e+00" Max="9.69682617e+02"/>
    <Variable VarIndex="4" Expression="HT_otherjets" Label="HT_otherjets" Title="HT_otherjets" Unit="" Internal="HT_otherjets" Type="F" Min="0.00000000e+00" Max="2.62764966e+03"/>
    <Variable VarIndex="5" Expression="p_zeta" Label="p_zeta" Title="p_zeta" Unit="" Internal="p_zeta" Type="F" Min="-3.64937286e+02" Max="1.24928284e+03"/>
    <Variable VarIndex="6" Expression="p_zetavisible" Label="p_zetavisible" Title="p_zetavisible" Unit="" Internal="p_zetavisible" Type="F" Min="4.71170861e-05" Max="9.17323914e+02"/>
    <Variable VarIndex="7" Expression="dphi_l1l2" Label="dphi_l1l2" Title="dphi_l1l2" Unit="" Internal="dphi_l1l2" Type="F" Min="-3.14159107e+00" Max="3.14159179e+00"/>
    <Variable VarIndex="8" Expression="dR_l1l2Pt_htautau" Label="dR_l1l2Pt_htautau" Title="dR_l1l2Pt_htautau" Unit="" Internal="dR_l1l2Pt_htautau" Type="F" Min="2.86058187e-01" Max="2.89958154e+03"/>
    <Variable VarIndex="9" Expression="dR_l1l2Pt_htautau_sv" Label="dR_l1l2Pt_htautau_sv" Title="dR_l1l2Pt_htautau_sv" Unit="" Internal="dR_l1l2Pt_htautau_sv" Type="F" Min="0.00000000e+00" Max="2.86881616e+03"/>
    <Variable VarIndex="10" Expression="mass_l1l2MET" Label="mass_l1l2MET" Title="mass_l1l2MET" Unit="" Internal="mass_l1l2MET" Type="F" Min="1.51824217e+01" Max="1.25724548e+03"/>
    <Variable VarIndex="11" Expression="mass_htautau_vis" Label="mass_htautau_vis" Title="mass_htautau_vis" Unit="" Internal="mass_htautau_vis" Type="F" Min="9.27007961e+00" Max="1.01220984e+03"/>
    <Variable VarIndex="12" Expression="mass_htautau_sv" Label="mass_htautau_sv" Title="mass_htautau_sv" Unit="" Internal="mass_htautau_sv" Type="F" Min="1.14995232e+01" Max="9.86155469e+03"/>
    <Variable VarIndex="13" Expression="mass_hbb" Label="mass_hbb" Title="mass_hbb" Unit="" Internal="mass_hbb" Type="F" Min="1.17506380e+01" Max="3.30257227e+03"/>
    <Variable VarIndex="14" Expression="MT_tot" Label="MT_tot" Title="MT_tot" Unit="" Internal="MT_tot" Type="F" Min="9.23834220e-02" Max="1.15397070e+03"/>
    <Variable VarIndex="15" Expression="mass_X" Label="mass_X" Title="mass_X" Unit="" Internal="mass_X" Type="F" Min="2.50007339e+02" Max="2.35942798e+03"/>
    <Variable VarIndex="16" Expression="mass_H_sv" Label="mass_H_sv" Title="mass_H_sv" Unit="" Internal="mass_H_sv" Type="F" Min="-2.26697422e+04" Max="1.03648076e+04"/>
    <Variable VarIndex="17" Expression="mass_H_kinfit" Label="mass_H_kinfit" Title="mass_H_kinfit" Unit="" Internal="mass_H_kinfit" Type="F" Min="0.00000000e+00" Max="2.81656592e+03"/>
    <Variable VarIndex="18" Expression="mass_H_kinfit_chi2" Label="mass_H_kinfit_chi2" Title="mass_H_kinfit_chi2" Unit="" Internal="mass_H_kinfit_chi2" Type="F" Min="0.00000000e+00" Max="3.83475244e+03"/>
    <Variable VarIndex="19" Expression="costheta_METhbb" Label="costheta_METhbb" Title="costheta_METhbb" Unit="" Internal="costheta_METhbb" Type="F" Min="-9.99999881e-01" Max="9.99865890e-01"/>
    <Variable VarIndex="20" Expression="mass" Label="mass" Title="mass" Unit="" Internal="mass" Type="F" Min="4.50000000e+02" Max="9.00000000e+02"/>
    <Variable VarIndex="21" Expression="channel" Label="channel" Title="channel" Unit="" Internal="channel" Type="I" Min="0.00000000e+00" Max="2.00000000e+00"/>
    <Variable VarIndex="22" Expression="spin" Label="spin" Title="spin" Unit="" Internal="spin" Type="I" Min="0.00000000e+00" Max="2.00000000e+00"/>
  </Variables>
  <Spectators NSpec="0"/>
  <Classes NClass="2">
    <Class Name="Background" Index="0"/>
    <Class Name="Signal" Index="1"/>
  </Classes>
  <Transformations NTransformations="0"/>
  <MVAPdfs/>
  <Weights NTrees="700" AnalysisType="1">
    <BinaryTree type="DecisionTree" boostWeight="1.0000000000000000e+00" itree="0">
      <Node pos="s" depth="0" NCoef="0" IVar="5" Cut="1.3539732360839844e+02" cType="1" res="-2.6903848629444838e-04" rms="4.9999994039535522e-01" purity="4.9973097443580627e-01" nType="0">
        <Node pos="l" depth="1" NCoef="0" IVar="17" Cut="4.1710803222656250e+02" cType="1" res="-3.9438080787658691e-01" rms="3.0734962224960327e-01" purity="1.0561919212341309e-01" nType="0">
          <Node pos="l" depth="2" NCoef="0" IVar="20" Cut="4.5089819335937500e+02" cType="1" res="-4.7217512130737305e-01" rms="1.6447079181671143e-01" purity="2.7824865654110909e-02" nType="0">
            <Node pos="l" depth="3" NCoef="0" IVar="-1" Cut="0.0000000000000000e+00" cType="1" res="-9.2909205704927444e-03" rms="3.0200314521789551e-01" purity="1.0151023417711258e-01" nType="-99"/>
            <Node pos="r" depth="3" NCoef="0" IVar="-1" Cut="0.0000000000000000e+00" cType="1" res="-1.1779012158513069e-02" rms="1.2268655002117157e-01" purity="1.5285641886293888e-02" nType="-99"/>
          </Node>
          <Node pos="r" depth="2" NCoef="0" IVar="18" Cut="3.0125005722045898e+01" cType="1" res="-1.1211742460727692e-01" rms="4.8726758360862732e-01" purity="3.8788259029388428e-01" nType="0">
            <Node pos="l" depth="3" NCoef="0" IVar="-1" Cut="0.0000000000000000e+00" cType="1" res="3.8965072017163038e-03" rms="4.2570897936820984e-01" purity="7.6224392652511597e-01" nType="-99"/>
            <Node pos="r" depth="3" NCoef="0" IVar="-1" Cut="0.0000000000000000e+00" cType="1" res="-1.0957430116832256e-02" rms="3.6890053749084473e-01" purity="1.6249088943004608e-01" nType="-99"/>
          </Node>
        </Node>
        <Node pos="r" depth="1" NCoef="0" IVar="12" Cut="1.5700590515136719e+02" cType="1" res="3.8219410181045532e-01" rms="3.2237815856933594e-01" purity="8.8219410181045532e-01" nType="0">
          <Node pos="l" depth="2" NCoef="0" IVar="12" Cut="6.9414253234863281e+01" cType="1" res="4.4279545545578003e-01" rms="2.3223301768302917e-01" purity="9.4279551506042480e-01" nType="0">
            <Node pos="l" depth="3" NCoef="0" IVar="-1" Cut="0.0000000000000000e+00" cType="1" res="-3.8564756978303194e-03" rms="4.4697999954223633e-01" purity="2.7592661976814270e-01" nType="-99"/>
            <Node pos="r" depth="3" NCoef="0" IVar="-1" Cut="0.0000000000000000e+00" cType="1" res="7.3826382867991924e-03" rms="2.1016705036163330e-01" purity="9.5368474721908569e-01" nType="-99"/>
          </Node>
          <Node pos="r" depth="2" NCoef="0" IVar="17" Cut="4.7162924194335938e+02" cType="1" res="-3.8245415687561035e-01" rms="3.2206958532333374e-01" purity="1.1754583567380905e-01" nType="0">
            <Node pos="l" depth="3" NCoef="0" IVar="-1" Cut="0.0000000000000000e+00" cType="1" res="-1.0273092426359653e-02" rms="2.0259742438793182e-01" purity="4.2884822934865952e-02" nType="-99"/>
            <Node pos="r" depth="3" NCoef="0" IVar="-1" Cut="0.0000000000000000e+00" cType="1" res="4.5748532284051180e-04" rms="4.9953302741050720e-01" purity="5.2160483598709106e-01" nType="-99"/>
          </Node>
        </Node>
      </Node>
    </BinaryTree>
    <BinaryTree type="DecisionTree" boostWeight="1.0000000000000000e+00" itree="1">
      <Node pos="s" depth="0" NCoef="0" IVar="5" Cut="1.3501754760742188e+02" cType="1" res="2.1215699962340295e-04" rms="4.9593317508697510e-01" purity="4.9924674630165100e-01" nType="0">
        <Node pos="l" depth="1" NCoef="0" IVar="17" Cut="4.1697265625000000e+02" cType="1" res="-3.9026582241058350e-01" rms="3.0483832955360413e-01" purity="1.0469566285610199e-01" nType="0">
          <Node pos="l" depth="2" NCoef="0" IVar="20" Cut="4.5089819335937500e+02" cType="1" res="-4.6882462501525879e-01" rms="1.5745812654495239e-01" purity="2.5464119389653206e-02" nType="0">
            <Node pos="l" depth="3" NCoef="0" IVar="-1" Cut="0.0000000000000000e+00" cType="1" res="-9.2236213386058807e-03" rms="2.8558290004730225e-01" purity="8.9582644402980804e-02" nType="-99"/>
            <Node pos="r" depth="3" NCoef="0" IVar="-1" Cut="0.0000000000000000e+00" cType="1" res="-1.2163179926574230e-02" rms="1.2058001011610031e-01" purity="1.4757316559553146e-02" nType="-99"/>
          </Node>
          <Node pos="r" depth="2" NCoef="0" IVar="18" Cut="2.4204742431640625e+01" cType="1" res="-1.1739310622215271e-01" rms="4.8341527581214905e-01" purity="3.7990504503250122e-01" nType="0">
            <Node pos="l" depth="3" NCoef="0" IVar="-1" Cut="0.0000000000000000e+00" cType="1" res="3.0607222579419613e-03" rms="4.3320775032043457e-01" purity="7.4965018033981323e-01" nType="-99"/>
            <Node pos="r" depth="3" NCoef="0" IVar="-1" Cut="0.0000000000000000e+00" cType="1" res="-7.8205047175288200e-03" rms="3.9274922013282776e-01" purity="1.9090953469276428e-01" nType="-99"/>
          </Node>
        </Node>
        <Node pos="r" depth="1" NCoef="0" IVar="12" Cut="1.5676127624511719e+02" cType="1" res="3.8494789600372314e-01" rms="3.1379979848861694e-01" purity="8.8799566030502319e-01" nType="0">
          <Node pos="l" depth="2" NCoef="0" IVar="16" Cut="3.7770913696289062e+02" cType="1" res="4.4064211845397949e-01" rms="2.2919435799121857e-01" purity="9.4422543048858643e-01" nType="0">
            <Node pos="l" depth="3" NCoef="0" IVar="-1" Cut="0.0000000000000000e+00" cType="1" res="2.6055832859128714e-03" rms="4.7086954116821289e-01" purity="6.6617494821548462e-01" nType="-99"/>
            <Node pos="r" depth="3" NCoef="0" IVar="-1" Cut="0.0000000000000000e+00" cType="1" res="7.6744928956031799e-03" rms="1.6939613223075867e-01" purity="9.7037255764007568e-01" nType="-99"/>
          </Node>
          <Node pos="r" depth="2" NCoef="0" IVar="17" Cut="4.6246279907226562e+02" cType="1" res="-3.6735349893569946e-01" rms="3.3340924978256226e-01" purity="1.2846098840236664e-01" nType="0">
            <Node pos="l" depth="3" NCoef="0" IVar="-1" Cut="0.0000000000000000e+00" cType="1" res="-1.0334806516766548e-02" rms="1.8438412249088287e-01" purity="3.5239130258560181e-02" nType="-99"/>
            <Node pos="r" depth="3" NCoef="0" IVar="-1" Cut="0.0000000000000000e+00" cType="1" res="8.9837011182680726e-04" rms="4.9809271097183228e-01" purity="5.4270875453948975e-01" nType="-99"/>
          </Node>
        </Node>
      </Node>
    </BinaryTree>
    <BinaryTree type="DecisionTree" boostWeight="1.0000000000000000e+00" itree="2">
      <Node pos="s" depth="0" NCoef="0" IVar="5" Cut="1.3725265502929688e+02" cType="1" res="-8.7715929839760065e-04" rms="4.9183571338653564e-01" purity="4.9721807241439819e-01" nType="0">
        <Node pos="l" depth="1" NCoef="0" IVar="17" Cut="4.1925201416015625e+02" cType="1" res="-3.8494893908500671e-01" rms="3.0384162068367004e-01" purity="1.0508479177951813e-01" nType="0">
          <Node pos="l" depth="2" NCoef="0" IVar="6" Cut="1.1543695831298828e+02" cType="1" res="-4.6413740515708923e-01" rms="1.5386931598186493e-01" purity="2.4346008896827698e-02" nType="0">
            <Node pos="l" depth="3" NCoef="0" IVar="-1" Cut="0.0000000000000000e+00" cType="1" res="-1.1405875906348228e-02" rms="1.4152479171752930e-01" purity="2.0503647625446320e-02" nType="-99"/>
            <Node pos="r" depth="3" NCoef="0" IVar="-1" Cut="0.0000000000000000e+00" cType="1" res="-4.0688696317374706e-03" rms="4.0553027391433716e-01" purity="2.0911017060279846e-01" nType="-99"/>
          </Node>
          <Node pos="r" depth="2" NCoef="0" IVar="18" Cut="3.0254928588867188e+01" cType="1" res="-1.0794363915920258e-01" rms="4.8350006341934204e-01" purity="3.8751325011253357e-01" nType="0">
            <Node pos="l" depth="3" NCoef="0" IVar="-1" Cut="0.0000000000000000e+00" cType="1" res="3.5911360755562782e-03" rms="4.2962989211082458e-01" purity="7.5532281398773193e-01" nType="-99"/>
            <Node pos="r" depth="3" NCoef="0" IVar="-1" Cut="0.0000000000000000e+00" cType="1" res="-9.1655952855944633e-03" rms="3.7033021450042725e-01" purity="1.6436570882797241e-01" nType="-99"/>
          </Node>
        </Node>
        <Node pos="r" depth="1" NCoef="0" IVar="12" Cut="1.5905967712402344e+02" cType="1" res="3.8395470380783081e-01" rms="3.0964881181716919e-01" purity="8.9012736082077026e-01" nType="0">
          <Node pos="l" depth="2" NCoef="0" IVar="16" Cut="3.4965679931640625e+02" cType="1" res="4.3766045570373535e-01" rms="2.2770084440708160e-01" purity="9.4485867023468018e-01" nType="0">
            <Node pos="l" depth="3" NCoef="0" IVar="-1" Cut="0.0000000000000000e+00" cType="1" res="1.3184170238673687e-03" rms="4.9115908145904541e-01" purity="5.8936238288879395e-01" nType="-99"/>
            <Node pos="r" depth="3" NCoef="0" IVar="-1" Cut="0.0000000000000000e+00" cType="1" res="7.4854786507785320e-03" rms="1.8140286207199097e-01" purity="9.6583521366119385e-01" nType="-99"/>
          </Node>
          <Node pos="r" depth="2" NCoef="0" IVar="17" Cut="4.9383020019531250e+02" cType="1" res="-3.9010867476463318e-01" rms="2.9968422651290894e-01" purity="1.0128202289342880e-01" nType="0">
            <Node pos="l" depth="3" NCoef="0" IVar="-1" Cut="0.0000000000000000e+00" cType="1" res="-1.0376971215009689e-02" rms="1.9391871988773346e-01" purity="3.9229225367307663e-02" nType="-99"/>
            <Node pos="r" depth="3" NCoef="0" IVar="-1" Cut="0.0000000000000000e+00" cType="1" res="-5.5137523304438218e-05" rms="4.9999660253524780e-01" purity="4.9815356731414795e-01" nType="-99"/>
          </Node>
        </Node>
      </Node>
    </BinaryTree>
    <BinaryTree type="DecisionTree" boostWeight="1.0000000000000000e+00" itree="3">
      <Node pos="s" depth="0" NCoef="0" IVar="5" Cut="1.3907316589355469e+02" cType="1" res="3.0865282751619816e-03" rms="4.8793470859527588e-01" purity="5.0030708312988281e-01" nType="0">
        <Node pos="l" depth="1" NCoef="0" IVar="17" Cut="4.3087173461914062e+02" cType="1" res="-3.7355968356132507e-01" rms="3.1087818741798401e-01" purity="1.1174225062131882e-01" nType="0">
          <Node pos="l" depth="2" NCoef="0" IVar="20" Cut="4.5089819335937500e+02" cType="1" res="-4.5084837079048157e-01" rms="1.7601636052131653e-01" purity="3.2299906015396118e-02" nType="0">
            <Node pos="l" depth="3" NCoef="0" IVar="-1" Cut="0.0000000000000000e+00" cType="1" res="-7.6261931098997593e-03" rms="3.2045376300811768e-01" purity="1.1737516522407532e-01" nType="-99"/>
            <Node pos="r" depth="3" NCoef="0" IVar="-1" Cut="0.0000000000000000e+00" cType="1" res="-1.1571997776627541e-02" rms="1.3028568029403687e-01" purity="1.7348794266581535e-02" nType="-99"/>
          </Node>
          <Node pos="r" depth="2" NCoef="0" IVar="18" Cut="3.0625165939331055e+01" cType="1" res="-7.9600468277931213e-02" rms="4.8709085583686829e-01" purity="4.1389265656471252e-01" nType="0">
            <Node pos="l" depth="3" NCoef="0" IVar="-1" Cut="0.0000000000000000e+00" cType="1" res="3.9638248272240162e-03" rms="4.1660064458847046e-01" purity="7.7583009004592896e-01" nType="-99"/>
            <Node pos="r" depth="3" NCoef="0" IVar="-1" Cut="0.0000000000000000e+00" cType="1" res="-8.1530883908271790e-03" rms="3.9305752515792847e-01" purity="1.9142843782901764e-01" nType="-99"/>
          </Node>
        </Node>
        <Node pos="r" depth="1" NCoef="0" IVar="12" Cut="1.5928427124023438e+02" cType="1" res="3.8347649574279785e-01" rms="3.0488058924674988e-01" purity="8.9273416996002197e-01" nType="0">
          <Node pos="l" depth="2" NCoef="0" IVar="16" Cut="3.5391964721679688e+02" cType="1" res="4.3561705946922302e-01" rms="2.2441937029361725e-01" purity="9.4639909267425537e-01" nType="0">
            <Node pos="l" depth="3" NCoef="0" IVar="-1" Cut="0.0000000000000000e+00" cType="1" res="1.5233553713187575e-03" rms="4.8843413591384888e-01" purity="6.0304850339889526e-01" nType="-99"/>
            <Node pos="r" depth="3" NCoef="0" IVar="-1" Cut="0.0000000000000000e+00" cType="1" res="7.4683269485831261e-03" rms="1.7701463401317596e-01" purity="9.6752405166625977e-01" nType="-99"/>
          </Node>
          <Node pos="r" depth="2" NCoef="0" IVar="17" Cut="4.6598489379882812e+02" cType="1" res="-3.7744587659835815e-01" rms="3.0950152873992920e-01" purity="1.0956616699695587e-01" nType="0">
            <Node pos="l" depth="3" NCoef="0" IVar="-1" Cut="0.0000000000000000e+00" cType="1" res="-1.1123050004243851e-02" rms="1.9521442055702209e-01" purity="3.9691004902124405e-02" nType="-99"/>
            <Node pos="r" depth="3" NCoef="0" IVar="-1" Cut="0.0000000000000000e+00" cType="1" res="-5.9729191707447171e-04" rms="4.9913060665130615e-01" purity="4.7105357050895691e-01" nType="-99"/>
          </Node>
        </Node>
      </Node>
    </BinaryTree>
    <BinaryTree type="DecisionTree" boostWeight="1.0000000000000000e+00" itree="4">
      <Node pos="s" depth="0" NCoef="0" IVar="15" Cut="3.9116934204101562e+02" cType="1" res="5.1384591497480869e-03" rms="4.8402211070060730e-01" purity="5.0161170959472656e-01" nType="0">
        <Node pos="l" depth="1" NCoef="0" IVar="6" Cut="1.0972322845458984e+02" cType="1" res="-3.7638527154922485e-01" rms="2.9972025752067566e-01" purity="1.0511428862810135e-01" nType="0">
          <Node pos="l" depth="2" NCoef="0" IVar="5" Cut="1.2186615753173828e+02" cType="1" res="-4.2502894997596741e-01" rms="2.2307515144348145e-01" purity="5.4574202746152878e-02" nType="0">
            <Node pos="l" depth="3" NCoef="0" IVar="-1" Cut="0.0000000000000000e+00" cType="1" res="-1.1355414986610413e-02" rms="1.7457991838455200e-01" purity="3.2234303653240204e-02" nType="-99"/>
            <Node pos="r" depth="3" NCoef="0" IVar="-1" Cut="0.0000000000000000e+00" cType="1" res="-4.9654729664325714e-03" rms="4.2333519458770752e-01" purity="2.4744136631488800e-01" nType="-99"/>
          </Node>
          <Node pos="r" depth="2" NCoef="0" IVar="12" Cut="1.4449157714843750e+02" cType="1" res="5.3255118429660797e-02" rms="4.8811233043670654e-01" purity="5.5150437355041504e-01" nType="0">
            <Node pos="l" depth="3" NCoef="0" IVar="-1" Cut="0.0000000000000000e+00" cType="1" res="2.4943291209638119e-03" rms="4.6464049816131592e-01" purity="6.6616672277450562e-01" nType="-99"/>
            <Node pos="r" depth="3" NCoef="0" IVar="-1" Cut="0.0000000000000000e+00" cType="1" res="-1.2976250611245632e-02" rms="1.8027597665786743e-01" purity="3.4278184175491333e-02" nType="-99"/>
          </Node>
        </Node>
        <Node pos="r" depth="1" NCoef="0" IVar="12" Cut="1.5158557128906250e+02" cType="1" res="3.7429934740066528e-01" rms="3.1131753325462341e-01" purity="8.8526117801666260e-01" nType="0">
          <Node pos="l" depth="2" NCoef="0" IVar="9" Cut="1.5258296203613281e+02" cType="1" res="4.2588058114051819e-01" rms="2.3614597320556641e-01" purity="9.3879848718643188e-01" nType="0">
            <Node pos="l" depth="3" NCoef="0" IVar="-1" Cut="0.0000000000000000e+00" cType="1" res="-1.5066707273945212e-03" rms="4.8370602726936340e-01" purity="3.9343950152397156e-01" nType="-99"/>
            <Node pos="r" depth="3" NCoef="0" IVar="-1" Cut="0.0000000000000000e+00" cType="1" res="7.2827814146876335e-03" rms="1.9570237398147583e-01" purity="9.5907163619995117e-01" nType="-99"/>
          </Node>
          <Node pos="r" depth="2" NCoef="0" IVar="17" Cut="5.0385327148437500e+02" cType="1" res="-2.9091936349868774e-01" rms="3.8836780190467834e-01" purity="1.9481557607650757e-01" nType="0">
            <Node pos="l" depth="3" NCoef="0" IVar="-1" Cut="0.0000000000000000e+00" cType="1" res="-9.5154615119099617e-03" rms="2.6744419336318970e-01" purity="7.9301521182060242e-02" nType="-99"/>
            <Node pos="r" depth="3" NCoef="0" IVar="-1" Cut="0.0000000000000000e+00" cType="1" res="1.2951325625181198e-03" rms="4.9076437950134277e-01" purity="5.6676214933395386e-01" nType="-99"/>
          </Node>
        </Node>
      </Node>
    </BinaryTree>
    <BinaryTree type="DecisionTree" boostWeight="1.0000000000000000e+00" itree="5">
      <Node pos="s" depth="0" NCoef="0" IVar="5" Cut="1.3769412231445312e+02" cType="1" res="6.8327337503433228e-03" rms="4.8018398880958557e-01" purity="5.0238478183746338e-01" nType="0">
        <Node pos="l" depth="1" NCoef="0" IVar="17" Cut="4.1697265625000000e+02" cType="1" res="-3.6764907836914062e-01" rms="3.0390638113021851e-01" purity="1.0828935354948044e-01" nType="0">
          <Node pos="l" depth="2" NCoef="0" IVar="5" Cut="1.1464416503906250e+02" cType="1" res="-4.4412699341773987e-01" rms="1.6392178833484650e-01" purity="2.7885200455784798e-02" nType="0">
            <Node pos="l" depth="3" NCoef="0" IVar="-1" Cut="0.0000000000000000e+00" cType="1" res="-1.1454818770289421e-02" rms="1.3974958658218384e-01" purity="2.0025687292218208e-02" nType="-99"/>
            <Node pos="r" depth="3" NCoef="0" IVar="-1" Cut="0.0000000000000000e+00" cType="1" res="-7.5631169602274895e-03" rms="3.3259195089340210e-01" purity="1.2849788367748260e-01" nType="-99"/>
          </Node>
          <Node pos="r" depth="2" NCoef="0" IVar="18" Cut="3.8645862579345703e+01" cType="1" res="-1.0647717118263245e-01" rms="4.7730314731597900e-01" purity="3.8286930322647095e-01" nType="0">
            <Node pos="l" depth="3" NCoef="0" IVar="-1" Cut="0.0000000000000000e+00" cType="1" res="2.7740325313061476e-03" rms="4.5684948563575745e-01" purity="6.9544470310211182e-01" nType="-99"/>
            <Node pos="r" depth="3" NCoef="0" IVar="-1" Cut="0.0000000000000000e+00" cType="1" res="-9.3227624893188477e-03" rms="3.5914853215217590e-01" purity="1.5388828516006470e-01" nType="-99"/>
          </Node>
        </Node>
        <Node pos="r" depth="1" NCoef="0" IVar="12" Cut="1.5720909118652344e+02" cType="1" res="3.7741407752037048e-01" rms="3.0207297205924988e-01" purity="8.9237540960311890e-01" nType="0">
          <Node pos="l" depth="2" NCoef="0" IVar="16" Cut="3.7770913696289062e+02" cType="1" res="4.3118670582771301e-01" rms="2.1892070770263672e-01" purity="9.4872534275054932e-01" nType="0">
            <Node pos="l" depth="3" NCoef="0" IVar="-1" Cut="0.0000000000000000e+00" cType="1" res="2.5819800794124603e-03" rms="4.6314212679862976e-01" purity="6.8328803777694702e-01" nType="-99"/>
            <Node pos="r" depth="3" NCoef="0" IVar="-1" Cut="0.0000000000000000e+00" cType="1" res="7.5119044631719589e-03" rms="1.6112297773361206e-01" purity="9.7317099571228027e-01" nType="-99"/>
          </Node>
          <Node pos="r" depth="2" NCoef="0" IVar="17" Cut="5.2230017089843750e+02" cType="1" res="-3.6076882481575012e-01" rms="3.1836414337158203e-01" purity="1.1881209164857864e-01" nType="0">
            <Node pos="l" depth="3" NCoef="0" IVar="-1" Cut="0.0000000000000000e+00" cType="1" res="-9.9489949643611908e-03" rms="2.2095474600791931e-01" purity="5.1968056708574295e-02" nType="-99"/>
            <Node pos="r" depth="3" NCoef="0" IVar="-1" Cut="0.0000000000000000e+00" cType="1" res="1.7570875352248549e-03" rms="4.9302762746810913e-01" purity="5.7955157756805420e-01" nType="-99"/>
          </Node>
        </Node>
      </Node>
    </BinaryTree>
    <BinaryTree type="DecisionTree" boostWeight="1.0000000000000000e+00" itree="6">
      <Node pos="s" depth="0" NCoef="0" IVar="15" Cut="3.9806503295898438e+02" cType="1" res="4.1471766307950020e-03" rms="4.7624891996383667e-01" purity="4.9864384531974792e-01" nType="0">
        <Node pos="l" depth="1" NCoef="0" IVar="6" Cut="1.0983773040771484e+02" cType="1" res="-3.5817039012908936e-01" rms="3.0808007717132568e-01" purity="1.1443284898996353e-01" nType="0">
          <Node pos="l" depth="2" NCoef="0" IVar="17" Cut="4.0335748291015625e+02" cType="1" res="-4.0912386775016785e-01" rms="2.3254942893981934e-01" purity="6.0447771102190018e-02" nType="0">
            <Node pos="l" depth="3" NCoef="0" IVar="-1" Cut="0.0000000000000000e+00" cType="1" res="-1.0797341354191303e-02" rms="1.5620528161525726e-01" purity="2.5832189247012138e-02" nType="-99"/>
            <Node pos="r" depth="3" NCoef="0" IVar="-1" Cut="0.0000000000000000e+00" cType="1" res="-6.2390584498643875e-03" rms="4.0779218077659607e-01" purity="2.2422254085540771e-01" nType="-99"/>
          </Node>
          <Node pos="r" depth="2" NCoef="0" IVar="12" Cut="1.3844012451171875e+02" cType="1" res="6.1460003256797791e-02" rms="4.8345983028411865e-01" purity="5.5902987718582153e-01" nType="0">
            <Node pos="l" depth="3" NCoef="0" IVar="-1" Cut="0.0000000000000000e+00" cType="1" res="2.5657445657998323e-03" rms="4.5759898424148560e-01" purity="6.8039911985397339e-01" nType="-99"/>
            <Node pos="r" depth="3" NCoef="0" IVar="-1" Cut="0.0000000000000000e+00" cType="1" res="-8.2699963822960854e-03" rms="2.7588197588920593e-01" purity="8.7293766438961029e-02" nType="-99"/>
          </Node>
        </Node>
        <Node pos="r" depth="1" NCoef="0" IVar="12" Cut="1.6939260864257812e+02" cType="1" res="3.7794131040573120e-01" rms="2.9620349407196045e-01" purity="8.9502495527267456e-01" nType="0">
          <Node pos="l" depth="2" NCoef="0" IVar="9" Cut="1.4603450012207031e+02" cType="1" res="4.2067226767539978e-01" rms="2.3209279775619507e-01" purity="9.4015872478485107e-01" nType="0">
            <Node pos="l" depth="3" NCoef="0" IVar="-1" Cut="0.0000000000000000e+00" cType="1" res="-2.1819828543812037e-03" rms="4.7233518958091736e-01" purity="3.5559439659118652e-01" nType="-99"/>
            <Node pos="r" depth="3" NCoef="0" IVar="-1" Cut="0.0000000000000000e+00" cType="1" res="7.1739316917955875e-03" rms="2.0035995543003082e-01" purity="9.5649206638336182e-01" nType="-99"/>
          </Node>
          <Node pos="r" depth="2" NCoef="0" IVar="11" Cut="6.9403953552246094e+01" cType="1" res="-3.9992904663085938e-01" rms="2.5684869289398193e-01" purity="7.3413334786891937e-02" nType="0">
            <Node pos="l" depth="3" NCoef="0" IVar="-1" Cut="0.0000000000000000e+00" cType="1" res="7.6255155727267265e-04" rms="4.9038991332054138e-01" purity="5.1484835147857666e-01" nType="-99"/>
            <Node pos="r" depth="3" NCoef="0" IVar="-1" Cut="0.0000000000000000e+00" cType="1" res="-9.3068452551960945e-03" rms="2.0863954722881317e-01" purity="4.6357296407222748e-02" nType="-99"/>
          </Node>
        </Node>
      </Node>
    </BinaryTree>
    <BinaryTree type="DecisionTree" boostWeight="1.0000000000000000e+00" itree="7">
      <Node pos="s" depth="0" NCoef="0" IVar="5" Cut="1.3843453979492188e+02" cType="1" res="4.1056415066123009e-03" rms="4.7264054417610168e-01" purity="4.9783179163932800e-01" nType="0">
        <Node pos="l" depth="1" NCoef="0" IVar="17" Cut="4.1697265625000000e+02" cType="1" res="-3.5890743136405945e-01" rms="3.0070996284484863e-01" purity="1.0804583132266998e-01" nType="0">
          <Node pos="l" depth="2" NCoef="0" IVar="20" Cut="5.0029940795898438e+02" cType="1" res="-4.3606129288673401e-01" rms="1.5610195696353912e-01" purity="2.5266679003834724e-02" nType="0">
            <Node pos="l" depth="3" NCoef="0" IVar="-1" Cut="0.0000000000000000e+00" cType="1" res="-1.0454279370605946e-02" rms="2.4246604740619659e-01" purity="6.3382767140865326e-02" nType="-99"/>
            <Node pos="r" depth="3" NCoef="0" IVar="-1" Cut="0.0000000000000000e+00" cType="1" res="-1.0914313606917858e-02" rms="1.0214941948652267e-01" purity="1.0611983016133308e-02" nType="-99"/>
          </Node>
          <Node pos="r" depth="2" NCoef="0" IVar="18" Cut="2.5766216278076172e+01" cType="1" res="-9.2273838818073273e-02" rms="4.7649902105331421e-01" purity="3.9411973953247070e-01" nType="0">
            <Node pos="l" depth="3" NCoef="0" IVar="-1" Cut="0.0000000000000000e+00" cType="1" res="3.7716184742748737e-03" rms="4.1641381382942200e-01" purity="7.7274060249328613e-01" nType="-99"/>
            <Node pos="r" depth="3" NCoef="0" IVar="-1" Cut="0.0000000000000000e+00" cType="1" res="-7.8180804848670959e-03" rms="3.9743456244468689e-01" purity="2.0231777429580688e-01" nType="-99"/>
          </Node>
        </Node>
        <Node pos="r" depth="1" NCoef="0" IVar="12" Cut="1.5928427124023438e+02" cType="1" res="3.6952671408653259e-01" rms="3.0174240469932556e-01" purity="8.9020329713821411e-01" nType="0">
          <Node pos="l" depth="2" NCoef="0" IVar="15" Cut="3.9699719238281250e+02" cType="1" res="4.2016729712486267e-01" rms="2.2656418383121490e-01" purity="9.4434326887130737e-01" nType="0">
            <Node pos="l" depth="3" NCoef="0" IVar="-1" Cut="0.0000000000000000e+00" cType="1" res="2.6220837607979774e-03" rms="4.6152192354202271e-01" purity="6.8401086330413818e-01" nType="-99"/>
            <Node pos="r" depth="3" NCoef="0" IVar="-1" Cut="0.0000000000000000e+00" cType="1" res="7.4097090400755405e-03" rms="1.6372776031494141e-01" purity="9.7212237119674683e-01" nType="-99"/>
          </Node>
          <Node pos="r" depth="2" NCoef="0" IVar="17" Cut="5.3851971435546875e+02" cType="1" res="-3.6259603500366211e-01" rms="3.0359470844268799e-01" purity="1.0748888552188873e-01" nType="0">
            <Node pos="l" depth="3" NCoef="0" IVar="-1" Cut="0.0000000000000000e+00" cType="1" res="-9.9706258624792099e-03" rms="2.2946794331073761e-01" purity="5.6405026465654373e-02" nType="-99"/>
            <Node pos="r" depth="3" NCoef="0" IVar="-1" Cut="0.0000000000000000e+00" cType="1" res="1.3397258007898927e-03" rms="4.9448475241661072e-01" purity="5.5712032318115234e-01" nType="-99"/>
          </Node>
        </Node>
      </Node>
    </BinaryTree>
    <BinaryTree type="DecisionTree" boostWeight="1.0000000000000000e+00" itree="8">
      <Node pos="s" depth="0" NCoef="0" IVar="5" Cut="1.3403793334960938e+02" cType="1" res="5.5957501754164696e-03" rms="4.6893450617790222e-01" purity="4.9855440855026245e-01" nType="0">
        <Node pos="l" depth="1" NCoef="0" IVar="17" Cut="4.2154476928710938e+02" cType="1" res="-3.6043477058410645e-01" rms="2.9175597429275513e-01" purity="1.0152220726013184e-01" nType="0">
          <Node pos="l" depth="2" NCoef="0" IVar="6" Cut="1.2845193481445312e+02" cType="1" res="-4.2926287651062012e-01" rms="1.6017331182956696e-01" purity="2.6722216978669167e-02" nType="0">
            <Node pos="l" depth="3" NCoef="0" IVar="-1" Cut="0.0000000000000000e+00" cType="1" res="-1.1015891097486019e-02" rms="1.5132409334182739e-01" purity="2.3693906143307686e-02" nType="-99"/>
            <Node pos="r" depth="3" NCoef="0" IVar="-1" Cut="0.0000000000000000e+00" cType="1" res="-2.0284228958189487e-03" rms="4.6079650521278381e-01" purity="3.1661045551300049e-01" nType="-99"/>
          </Node>
          <Node pos="r" depth="2" NCoef="0" IVar="18" Cut="3.5774860382080078e+01" cType="1" res="-1.0692311823368073e-01" rms="4.7162857651710510e-01" purity="3.7702986598014832e-01" nType="0">
            <Node pos="l" depth="3" NCoef="0" IVar="-1" Cut="0.0000000000000000e+00" cType="1" res="2.7867429889738560e-03" rms="4.5122370123863220e-01" purity="7.0638823509216309e-01" nType="-99"/>
            <Node pos="r" depth="3" NCoef="0" IVar="-1" Cut="0.0000000000000000e+00" cType="1" res="-8.1235282123088837e-03" rms="3.6844423413276672e-01" purity="1.6480386257171631e-01" nType="-99"/>
          </Node>
        </Node>
        <Node pos="r" depth="1" NCoef="0" IVar="12" Cut="1.5939425659179688e+02" cType="1" res="3.5974910855293274e-01" rms="3.0862390995025635e-01" purity="8.8270348310470581e-01" nType="0">
          <Node pos="l" depth="2" NCoef="0" IVar="9" Cut="1.5352450561523438e+02" cType="1" res="4.1341441869735718e-01" rms="2.3268924653530121e-01" purity="9.4061100482940674e-01" nType="0">
            <Node pos="l" depth="3" NCoef="0" IVar="-1" Cut="0.0000000000000000e+00" cType="1" res="-2.4819374084472656e-03" rms="4.7007915377616882e-01" purity="3.4211036562919617e-01" nType="-99"/>
            <Node pos="r" depth="3" NCoef="0" IVar="-1" Cut="0.0000000000000000e+00" cType="1" res="6.9917119108140469e-03" rms="2.0592090487480164e-01" purity="9.5434242486953735e-01" nType="-99"/>
          </Node>
          <Node pos="r" depth="2" NCoef="0" IVar="17" Cut="4.8430630493164062e+02" cType="1" res="-3.6542761325836182e-01" rms="2.9307439923286438e-01" purity="1.0020110756158829e-01" nType="0">
            <Node pos="l" depth="3" NCoef="0" IVar="-1" Cut="0.0000000000000000e+00" cType="1" res="-1.0288964025676250e-02" rms="1.9199180603027344e-01" purity="3.8422375917434692e-02" nType="-99"/>
            <Node pos="r" depth="3" NCoef="0" IVar="-1" Cut="0.0000000000000000e+00" cType="1" res="2.1296800696291029e-04" rms="4.9681192636489868e-01" purity="5.0605452060699463e-01" nType="-99"/>
          </Node>
        </Node>
      </Node>
    </BinaryTree>
    <BinaryTree type="DecisionTree" boostWeight="1.0000000000000000e+00" itree="9">
      <Node pos="s" depth="0" NCoef="0" IVar="15" Cut="3.9316162109375000e+02" cType="1" res="7.1860114112496376e-03" rms="4.6496933698654175e-01" purity="4.9926432967185974e-01" nType="0">
        <Node pos="l" depth="1" NCoef="0" IVar="6" Cut="1.1277108764648438e+02" cType="1" res="-3.5260990262031555e-01" rms="2.9448994994163513e-01" purity="1.0627124458551407e-01" nType="0">
          <Node pos="l" depth="2" NCoef="0" IVar="17" Cut="3.8296685791015625e+02" cType="1" res="-3.9723986387252808e-01" rms="2.2578012943267822e-01" purity="5.7582002133131027e-02" nType="0">
            <Node pos="l" depth="3" NCoef="0" IVar="-1" Cut="0.0000000000000000e+00" cType="1" res="-1.0132009163498878e-02" rms="1.5026292204856873e-01" purity="2.3935053497552872e-02" nType="-99"/>
            <Node pos="r" depth="3" NCoef="0" IVar="-1" Cut="0.0000000000000000e+00" cType="1" res="-7.4389148503541946e-03" rms="3.7863087654113770e-01" purity="1.8695379793643951e-01" nType="-99"/>
          </Node>
          <Node pos="r" depth="2" NCoef="0" IVar="12" Cut="1.3992611694335938e+02" cType="1" res="7.4878633022308350e-02" rms="4.7676891088485718e-01" purity="5.7264178991317749e-01" nType="0">
            <Node pos="l" depth="3" NCoef="0" IVar="-1" Cut="0.0000000000000000e+00" cType="1" res="2.8505816590040922e-03" rms="4.4601649045944214e-01" purity="7.0375150442123413e-01" nType="-99"/>
            <Node pos="r" depth="3" NCoef="0" IVar="-1" Cut="0.0000000000000000e+00" cType="1" res="-9.6244392916560173e-03" rms="2.4576233327388763e-01" purity="6.8827144801616669e-02" nType="-99"/>
          </Node>
        </Node>
        <Node pos="r" depth="1" NCoef="0" IVar="12" Cut="1.6289797973632812e+02" cType="1" res="3.6490485072135925e-01" rms="2.9707345366477966e-01" purity="8.8998872041702271e-01" nType="0">
          <Node pos="l" depth="2" NCoef="0" IVar="5" Cut="1.1862173461914062e+02" cType="1" res="4.1154772043228149e-01" rms="2.2884339094161987e-01" purity="9.4068771600723267e-01" nType="0">
            <Node pos="l" depth="3" NCoef="0" IVar="-1" Cut="0.0000000000000000e+00" cType="1" res="9.2811818467453122e-04" rms="4.8459240794181824e-01" purity="5.4349416494369507e-01" nType="-99"/>
            <Node pos="r" depth="3" NCoef="0" IVar="-1" Cut="0.0000000000000000e+00" cType="1" res="7.1564321406185627e-03" rms="1.7524734139442444e-01" purity="9.6730077266693115e-01" nType="-99"/>
          </Node>
          <Node pos="r" depth="2" NCoef="0" IVar="17" Cut="4.6984939575195312e+02" cType="1" res="-3.6432871222496033e-01" rms="2.8891587257385254e-01" purity="9.7340255975723267e-02" nType="0">
            <Node pos="l" depth="3" NCoef="0" IVar="-1" Cut="0.0000000000000000e+00" cType="1" res="-9.1301463544368744e-03" rms="1.9290851056575775e-01" purity="3.9177298545837402e-02" nType="-99"/>
            <Node pos="r" depth="3" NCoef="0" IVar="-1" Cut="0.0000000000000000e+00" cType="1" res="-3.6010532639920712e-03" rms="4.6870201826095581e-01" purity="3.3920785784721375e-01" nType="-99"/>
          </Node>
        </Node>
      </Node>
    </BinaryTree>
    <BinaryTree type="DecisionTree" boostWeight="1.0000000000000000e+00" itree="10">
      <Node pos="s" depth="0" NCoef="0" IVar="5" Cut="1.4133067321777344e+02" cType="1" res="1.2099663726985455e-02" rms="4.6166774630546570e-01" purity="5.0413328409194946e-01" nType="0">
        <Node pos="l" depth="1" NCoef="0" IVar="17" Cut="4.1925201416015625e+02" cType="1" res="-3.3923408389091492e-01" rms="3.0505201220512390e-01" purity="1.1563928425312042e-01" nType="0">
          <Node pos="l" depth="2" NCoef="0" IVar="20" Cut="4.5089819335937500e+02" cType="1" res="-4.1776567697525024e-01" rms="1.6433015465736389e-01" purity="2.8394157066941261e-02" nType="0">
            <Node pos="l" depth="3" NCoef="0" IVar="-1" Cut="0.0000000000000000e+00" cType="1" res="-8.8255647569894791e-03" rms="2.9729112982749939e-01" purity="1.0044541954994202e-01" nType="-99"/>
            <Node pos="r" depth="3" NCoef="0" IVar="-1" Cut="0.0000000000000000e+00" cType="1" res="-1.1391851119697094e-02" rms="1.2514473497867584e-01" purity="1.6134927049279213e-02" nType="-99"/>
          </Node>
          <Node pos="r" depth="2" NCoef="0" IVar="18" Cut="3.0616880416870117e+01" cType="1" res="-7.7443681657314301e-02" rms="4.7344872355461121e-01" purity="4.0647691488265991e-01" nType="0">
            <Node pos="l" depth="3" NCoef="0" IVar="-1" Cut="0.0000000000000000e+00" cType="1" res="3.4527340903878212e-03" rms="4.2358684539794922e-01" purity="7.5892645120620728e-01" nType="-99"/>
            <Node pos="r" depth="3" NCoef="0" IVar="-1" Cut="0.0000000000000000e+00" cType="1" res="-7.9380106180906296e-03" rms="3.7701502442359924e-01" purity="1.7771278321743011e-01" nType="-99"/>
          </Node>
        </Node>
        <Node pos="r" depth="1" NCoef="0" IVar="12" Cut="1.5720909118652344e+02" cType="1" res="3.6590701341629028e-01" rms="2.9082441329956055e-01" purity="8.9536249637603760e-01" nType="0">
          <Node pos="l" depth="2" NCoef="0" IVar="9" Cut="1.4353962707519531e+02" cType="1" res="4.1523340344429016e-01" rms="2.1537531912326813e-01" purity="9.4960349798202515e-01" nType="0">
            <Node pos="l" depth="3" NCoef="0" IVar="-1" Cut="0.0000000000000000e+00" cType="1" res="-4.3165134266018867e-03" rms="4.0762904286384583e-01" purity="2.1555702388286591e-01" nType="-99"/>
            <Node pos="r" depth="3" NCoef="0" IVar="-1" Cut="0.0000000000000000e+00" cType="1" res="6.8763527087867260e-03" rms="1.9540664553642273e-01" purity="9.5916402339935303e-01" nType="-99"/>
          </Node>
          <Node pos="r" depth="2" NCoef="0" IVar="17" Cut="4.2095834350585938e+02" cType="1" res="-3.4137201309204102e-01" rms="3.1157347559928894e-01" purity="1.1761427670717239e-01" nType="0">
            <Node pos="l" depth="3" NCoef="0" IVar="-1" Cut="0.0000000000000000e+00" cType="1" res="-9.9398177117109299e-03" rms="1.3844384253025055e-01" purity="1.9537948071956635e-02" nType="-99"/>
            <Node pos="r" depth="3" NCoef="0" IVar="-1" Cut="0.0000000000000000e+00" cType="1" res="-1.0597888613119721e-03" rms="4.8838770389556885e-01" purity="4.3267101049423218e-01" nType="-99"/>
          </Node>
        </Node>
      </Node>
    </BinaryTree>
    <BinaryTree type="DecisionTree" boostWeight="1.0000000000000000e+00" itree="11">
      <Node pos="s" depth="0" NCoef="0" IVar="15" Cut="3.8895120239257812e+02" cType="1" res="8.8123297318816185e-03" rms="4.5798730850219727e-01" purity="4.9976369738578796e-01" nType="0">
        <Node pos="l" depth="1" NCoef="0" IVar="6" Cut="1.1354136657714844e+02" cType="1" res="-3.5102343559265137e-01" rms="2.8266575932502747e-01" purity="9.8677903413772583e-02" nType="0">
          <Node pos="l" depth="2" NCoef="0" IVar="17" Cut="3.7431573486328125e+02" cType="1" res="-3.8952258229255676e-01" rms="2.2082863748073578e-01" purity="5.5629398673772812e-02" nType="0">
            <Node pos="l" depth="3" NCoef="0" IVar="-1" Cut="0.0000000000000000e+00" cType="1" res="-1.0480829514563084e-02" rms="1.3621395826339722e-01" purity="1.9744550809264183e-02" nType="-99"/>
            <Node pos="r" depth="3" NCoef="0" IVar="-1" Cut="0.0000000000000000e+00" cType="1" res="-7.9216612502932549e-03" rms="3.7164732813835144e-01" purity="1.8022179603576660e-01" nType="-99"/>
          </Node>
          <Node pos="r" depth="2" NCoef="0" IVar="17" Cut="3.7196453857421875e+02" cType="1" res="4.6969436109066010e-02" rms="4.7753527760505676e-01" purity="5.4370075464248657e-01" nType="0">
            <Node pos="l" depth="3" NCoef="0" IVar="-1" Cut="0.0000000000000000e+00" cType="1" res="-3.9869011379778385e-03" rms="4.0284505486488342e-01" purity="2.3041658103466034e-01" nType="-99"/>
            <Node pos="r" depth="3" NCoef="0" IVar="-1" Cut="0.0000000000000000e+00" cType="1" res="3.3237580209970474e-03" rms="4.3330416083335876e-01" purity="7.2521764039993286e-01" nType="-99"/>
          </Node>
        </Node>
        <Node pos="r" depth="1" NCoef="0" IVar="12" Cut="1.6716725158691406e+02" cType="1" res="3.4790137410163879e-01" rms="3.0841574072837830e-01" purity="8.7772440910339355e-01" nType="0">
          <Node pos="l" depth="2" NCoef="0" IVar="9" Cut="1.5372308349609375e+02" cType="1" res="3.9328742027282715e-01" rms="2.4913771450519562e-01" purity="9.2801731824874878e-01" nType="0">
            <Node pos="l" depth="3" NCoef="0" IVar="-1" Cut="0.0000000000000000e+00" cType="1" res="-1.6160124214366078e-03" rms="4.7553685307502747e-01" purity="3.8757100701332092e-01" nType="-99"/>
            <Node pos="r" depth="3" NCoef="0" IVar="-1" Cut="0.0000000000000000e+00" cType="1" res="6.7418855614960194e-03" rms="2.1276265382766724e-01" purity="9.4940680265426636e-01" nType="-99"/>
          </Node>
          <Node pos="r" depth="2" NCoef="0" IVar="5" Cut="2.9883392333984375e+02" cType="1" res="-3.8417536020278931e-01" rms="2.4303258955478668e-01" purity="6.6499821841716766e-02" nType="0">
            <Node pos="l" depth="3" NCoef="0" IVar="-1" Cut="0.0000000000000000e+00" cType="1" res="-9.8025482147932053e-03" rms="1.9897761940956116e-01" purity="4.2828384786844254e-02" nType="-99"/>
            <Node pos="r" depth="3" NCoef="0" IVar="-1" Cut="0.0000000000000000e+00" cType="1" res="-2.2364214528352022e-03" rms="4.7188740968704224e-01" purity="3.7543636560440063e-01" nType="-99"/>
          </Node>
        </Node>
      </Node>
    </BinaryTree>
    <BinaryTree type="DecisionTree" boostWeight="1.0000000000000000e+00" itree="12">
      <Node pos="s" depth="0" NCoef="0" IVar="15" Cut="3.8895568847656250e+02" cType="1" res="8.7525090202689171e-03" rms="4.5456025004386902e-01" purity="4.9859702587127686e-01" nType="0">
        <Node pos="l" depth="1" NCoef="0" IVar="6" Cut="1.1140683746337891e+02" cType="1" res="-3.4497034549713135e-01" rms="2.8426966071128845e-01" purity="1.0040315985679626e-01" nType="0">
          <Node pos="l" depth="2" NCoef="0" IVar="17" Cut="3.8831655883789062e+02" cType="1" res="-3.8550332188606262e-01" rms="2.1917778253555298e-01" purity="5.4535429924726486e-02" nType="0">
            <Node pos="l" depth="3" NCoef="0" IVar="-1" Cut="0.0000000000000000e+00" cType="1" res="-1.0816831141710281e-02" rms="1.4891107380390167e-01" purity="2.3585196584463120e-02" nType="-99"/>
            <Node pos="r" depth="3" NCoef="0" IVar="-1" Cut="0.0000000000000000e+00" cType="1" res="-7.0877126418054104e-03" rms="3.7627822160720825e-01" purity="1.8533207476139069e-01" nType="-99"/>
          </Node>
          <Node pos="r" depth="2" NCoef="0" IVar="17" Cut="3.5797778320312500e+02" cType="1" res="3.0374046415090561e-02" rms="4.7767409682273865e-01" purity="5.2514839172363281e-01" nType="0">
            <Node pos="l" depth="3" NCoef="0" IVar="-1" Cut="0.0000000000000000e+00" cType="1" res="-5.6526367552578449e-03" rms="3.5778114199638367e-01" purity="1.6885975003242493e-01" nType="-99"/>
            <Node pos="r" depth="3" NCoef="0" IVar="-1" Cut="0.0000000000000000e+00" cType="1" res="2.4991424288600683e-03" rms="4.5287767052650452e-01" purity="6.7850238084793091e-01" nType="-99"/>
          </Node>
        </Node>
        <Node pos="r" depth="1" NCoef="0" IVar="12" Cut="1.6889421081542969e+02" cType="1" res="3.4649726748466492e-01" rms="3.0531620979309082e-01" purity="8.7880402803421021e-01" nType="0">
          <Node pos="l" depth="2" NCoef="0" IVar="5" Cut="1.1415929412841797e+02" cType="1" res="3.9260056614875793e-01" rms="2.4436700344085693e-01" purity="9.3041795492172241e-01" nType="0">
            <Node pos="l" depth="3" NCoef="0" IVar="-1" Cut="0.0000000000000000e+00" cType="1" res="-9.4368888312601484e-06" rms="4.8440003395080566e-01" purity="4.9275371432304382e-01" nType="-99"/>
            <Node pos="r" depth="3" NCoef="0" IVar="-1" Cut="0.0000000000000000e+00" cType="1" res="6.8733138032257557e-03" rms="1.9273692369461060e-01" purity="9.5948874950408936e-01" nType="-99"/>
          </Node>
          <Node pos="r" depth="2" NCoef="0" IVar="17" Cut="4.6262094116210938e+02" cType="1" res="-3.7046942114830017e-01" rms="2.5910183787345886e-01" purity="7.6139666140079498e-02" nType="0">
            <Node pos="l" depth="3" NCoef="0" IVar="-1" Cut="0.0000000000000000e+00" cType="1" res="-8.2564512267708778e-03" rms="1.7368532717227936e-01" purity="3.1116822734475136e-02" nType="-99"/>
            <Node pos="r" depth="3" NCoef="0" IVar="-1" Cut="0.0000000000000000e+00" cType="1" res="-5.0791343674063683e-03" rms="4.5058462023735046e-01" purity="2.8981173038482666e-01" nType="-99"/>
          </Node>
        </Node>
      </Node>
    </BinaryTree>
    <BinaryTree type="DecisionTree" boostWeight="1.0000000000000000e+00" itree="13">
      <Node pos="s" depth="0" NCoef="0" IVar="15" Cut="3.9738977050781250e+02" cType="1" res="8.9121116325259209e-03" rms="4.5076116919517517e-01" purity="4.9789425730705261e-01" nType="0">
        <Node pos="l" depth="1" NCoef="0" IVar="6" Cut="1.1611415863037109e+02" cType="1" res="-3.3196797966957092e-01" rms="2.9387673735618591e-01" purity="1.1012525111436844e-01" nType="0">
          <Node pos="l" depth="2" NCoef="0" IVar="17" Cut="4.0104827880859375e+02" cType="1" res="-3.7273791432380676e-01" rms="2.3386125266551971e-01" purity="6.3879162073135376e-02" nType="0">
            <Node pos="l" depth="3" NCoef="0" IVar="-1" Cut="0.0000000000000000e+00" cType="1" res="-1.0046843439340591e-02" rms="1.5382787585258484e-01" purity="2.5757009163498878e-02" nType="-99"/>
            <Node pos="r" depth="3" NCoef="0" IVar="-1" Cut="0.0000000000000000e+00" cType="1" res="-5.6657758541405201e-03" rms="4.0793633460998535e-01" purity="2.3307199776172638e-01" nType="-99"/>
          </Node>
          <Node pos="r" depth="2" NCoef="0" IVar="12" Cut="1.4488700866699219e+02" cType="1" res="9.8211303353309631e-02" rms="4.6686080098152161e-01" purity="5.9808546304702759e-01" nType="0">
            <Node pos="l" depth="3" NCoef="0" IVar="-1" Cut="0.0000000000000000e+00" cType="1" res="3.2554490026086569e-03" rms="4.3394023180007935e-01" purity="7.2559738159179688e-01" nType="-99"/>
            <Node pos="r" depth="3" NCoef="0" IVar="-1" Cut="0.0000000000000000e+00" cType="1" res="-8.9427102357149124e-03" rms="2.2393223643302917e-01" purity="5.7396382093429565e-02" nType="-99"/>
          </Node>
        </Node>
        <Node pos="r" depth="1" NCoef="0" IVar="12" Cut="1.5158557128906250e+02" cType="1" res="3.5743004083633423e-01" rms="2.8698036074638367e-01" purity="8.9435172080993652e-01" nType="0">
          <Node pos="l" depth="2" NCoef="0" IVar="9" Cut="1.4498995971679688e+02" cType="1" res="4.0443772077560425e-01" rms="2.1605807542800903e-01" purity="9.4718319177627563e-01" nType="0">
            <Node pos="l" depth="3" NCoef="0" IVar="-1" Cut="0.0000000000000000e+00" cType="1" res="-3.1894301064312458e-03" rms="4.6199232339859009e-01" purity="3.3261969685554504e-01" nType="-99"/>
            <Node pos="r" depth="3" NCoef="0" IVar="-1" Cut="0.0000000000000000e+00" cType="1" res="6.8867770023643970e-03" rms="1.8639919161796570e-01" purity="9.6206086874008179e-01" nType="-99"/>
          </Node>
          <Node pos="r" depth="2" NCoef="0" IVar="11" Cut="8.5989685058593750e+01" cType="1" res="-2.9185363650321960e-01" rms="3.5077518224716187e-01" purity="1.6462822258472443e-01" nType="0">
            <Node pos="l" depth="3" NCoef="0" IVar="-1" Cut="0.0000000000000000e+00" cType="1" res="2.9781254124827683e-04" rms="4.7728487849235535e-01" purity="5.0375419855117798e-01" nType="-99"/>
            <Node pos="r" depth="3" NCoef="0" IVar="-1" Cut="0.0000000000000000e+00" cType="1" res="-8.3703771233558655e-03" rms="2.6141837239265442e-01" purity="8.0489523708820343e-02" nType="-99"/>
          </Node>
        </Node>
      </Node>
    </BinaryTree>
    <BinaryTree type="DecisionTree" boostWeight="1.0000000000000000e+00" itree="14">
      <Node pos="s" depth="0" NCoef="0" IVar="5" Cut="1.3447213745117188e+02" cType="1" res="6.1497706919908524e-03" rms="4.4778954982757568e-01" purity="4.9417853355407715e-01" nType="0">
        <Node pos="l" depth="1" NCoef="0" IVar="17" Cut="4.1945312500000000e+02" cType="1" res="-3.3738404512405396e-01" rms="2.8127253055572510e-01" purity="9.9038630723953247e-02" nType="0">
          <Node pos="l" depth="2" NCoef="0" IVar="20" Cut="4.5089819335937500e+02" cType="1" res="-3.9867919683456421e-01" rms="1.6058313846588135e-01" purity="2.7078261598944664e-02" nType="0">
            <Node pos="l" depth="3" NCoef="0" IVar="-1" Cut="0.0000000000000000e+00" cType="1" res="-8.3656590431928635e-03" rms="2.9241254925727844e-01" purity="9.7079381346702576e-02" nType="-99"/>
            <Node pos="r" depth="3" NCoef="0" IVar="-1" Cut="0.0000000000000000e+00" cType="1" res="-1.0120321996510029e-02" rms="1.2316240370273590e-01" purity="1.5548991039395332e-02" nType="-99"/>
          </Node>
          <Node pos="r" depth="2" NCoef="0" IVar="18" Cut="3.8648494720458984e+01" cType="1" res="-1.1385496705770493e-01" rms="4.5817014575004578e-01" purity="3.6146122217178345e-01" nType="0">
            <Node pos="l" depth="3" NCoef="0" IVar="-1" Cut="0.0000000000000000e+00" cType="1" res="2.5592206511646509e-03" rms="4.5261523127555847e-01" purity="6.9084000587463379e-01" nType="-99"/>
            <Node pos="r" depth="3" NCoef="0" IVar="-1" Cut="0.0000000000000000e+00" cType="1" res="-9.3826754018664360e-03" rms="3.2770848274230957e-01" purity="1.2718863785266876e-01" nType="-99"/>
          </Node>
        </Node>
        <Node pos="r" depth="1" NCoef="0" IVar="12" Cut="1.5898652648925781e+02" cType="1" res="3.4098759293556213e-01" rms="3.0281874537467957e-01" purity="8.7931609153747559e-01" nType="0">
          <Node pos="l" depth="2" NCoef="0" IVar="16" Cut="3.8088046264648438e+02" cType="1" res="3.9297431707382202e-01" rms="2.3296307027339935e-01" purity="9.3860864639282227e-01" nType="0">
            <Node pos="l" depth="3" NCoef="0" IVar="-1" Cut="0.0000000000000000e+00" cType="1" res="1.6527418047189713e-03" rms="4.7288361191749573e-01" purity="6.2774026393890381e-01" nType="-99"/>
            <Node pos="r" depth="3" NCoef="0" IVar="-1" Cut="0.0000000000000000e+00" cType="1" res="6.9078411906957626e-03" rms="1.7173941433429718e-01" purity="9.6861231327056885e-01" nType="-99"/>
          </Node>
          <Node pos="r" depth="2" NCoef="0" IVar="17" Cut="5.6743353271484375e+02" cType="1" res="-3.5583204030990601e-01" rms="2.6755440235137939e-01" purity="8.4570154547691345e-02" nType="0">
            <Node pos="l" depth="3" NCoef="0" IVar="-1" Cut="0.0000000000000000e+00" cType="1" res="-8.7694209069013596e-03" rms="2.0168551802635193e-01" purity="4.3644059449434280e-02" nType="-99"/>
            <Node pos="r" depth="3" NCoef="0" IVar="-1" Cut="0.0000000000000000e+00" cType="1" res="1.7123693833127618e-03" rms="4.8901519179344177e-01" purity="5.7294481992721558e-01" nType="-99"/>
          </Node>
        </Node>
      </Node>
    </BinaryTree>
    <BinaryTree type="DecisionTree" boostWeight="1.0000000000000000e+00" itree="15">
      <Node pos="s" depth="0" NCoef="0" IVar="15" Cut="3.9657412719726562e+02" cType="1" res="1.0098638944327831e-02" rms="4.4427222013473511e-01" purity="4.9745517969131470e-01" nType="0">
        <Node pos="l" depth="1" NCoef="0" IVar="6" Cut="1.1046697998046875e+02" cType="1" res="-3.2135903835296631e-01" rms="2.9510393738746643e-01" purity="1.1292172968387604e-01" nType="0">
          <Node pos="l" depth="2" NCoef="0" IVar="17" Cut="3.8894708251953125e+02" cType="1" res="-3.6821851134300232e-01" rms="2.2484256327152252e-01" purity="5.8585993945598602e-02" nType="0">
            <Node pos="l" depth="3" NCoef="0" IVar="-1" Cut="0.0000000000000000e+00" cType="1" res="-9.5429187640547752e-03" rms="1.5158830583095551e-01" purity="2.4700589478015900e-02" nType="-99"/>
            <Node pos="r" depth="3" NCoef="0" IVar="-1" Cut="0.0000000000000000e+00" cType="1" res="-6.6965562291443348e-03" rms="3.8227415084838867e-01" purity="1.9595037400722504e-01" nType="-99"/>
          </Node>
          <Node pos="r" depth="2" NCoef="0" IVar="17" Cut="3.6170346069335938e+02" cType="1" res="6.3515894114971161e-02" rms="4.7008004784584045e-01" purity="5.5920189619064331e-01" nType="0">
            <Node pos="l" depth="3" NCoef="0" IVar="-1" Cut="0.0000000000000000e+00" cType="1" res="-5.5521046742796898e-03" rms="3.5094639658927917e-01" purity="1.6337870061397552e-01" nType="-99"/>
            <Node pos="r" depth="3" NCoef="0" IVar="-1" Cut="0.0000000000000000e+00" cType="1" res="2.7800370007753372e-03" rms="4.3737772107124329e-01" purity="7.1146506071090698e-01" nType="-99"/>
          </Node>
        </Node>
        <Node pos="r" depth="1" NCoef="0" IVar="12" Cut="1.6951440429687500e+02" cType="1" res="3.5142928361892700e-01" rms="2.8515118360519409e-01" purity="8.9344257116317749e-01" nType="0">
          <Node pos="l" depth="2" NCoef="0" IVar="5" Cut="1.1834196472167969e+02" cType="1" res="3.9179304242134094e-01" rms="2.2741515934467316e-01" purity="9.3996042013168335e-01" nType="0">
            <Node pos="l" depth="3" NCoef="0" IVar="-1" Cut="0.0000000000000000e+00" cType="1" res="6.4059317810460925e-04" rms="4.8281979560852051e-01" purity="5.3455555438995361e-01" nType="-99"/>
            <Node pos="r" depth="3" NCoef="0" IVar="-1" Cut="0.0000000000000000e+00" cType="1" res="6.9005857221782207e-03" rms="1.7793905735015869e-01" purity="9.6568101644515991e-01" nType="-99"/>
          </Node>
          <Node pos="r" depth="2" NCoef="0" IVar="10" Cut="1.4245960998535156e+02" cType="1" res="-3.4532687067985535e-01" rms="2.8028541803359985e-01" purity="9.0454734861850739e-02" nType="0">
            <Node pos="l" depth="3" NCoef="0" IVar="-1" Cut="0.0000000000000000e+00" cType="1" res="-5.3243315778672695e-04" rms="4.8419561982154846e-01" purity="4.4788330793380737e-01" nType="-99"/>
            <Node pos="r" depth="3" NCoef="0" IVar="-1" Cut="0.0000000000000000e+00" cType="1" res="-8.8587896898388863e-03" rms="2.5892660021781921e-01" purity="7.5099669396877289e-02" nType="-99"/>
          </Node>
        </Node>
      </Node>
    </BinaryTree>
    <BinaryTree type="DecisionTree" boostWeight="1.0000000000000000e+00" itree="16">
      <Node pos="s" depth="0" NCoef="0" IVar="5" Cut="1.4091612243652344e+02" cType="1" res="1.2674997560679913e-02" rms="4.4101986289024353e-01" purity="4.9953094124794006e-01" nType="0">
        <Node pos="l" depth="1" NCoef="0" IVar="17" Cut="4.2154476928710938e+02" cType="1" res="-3.1484121084213257e-01" rms="2.9739516973495483e-01" purity="1.1571756005287170e-01" nType="0">
          <Node pos="l" depth="2" NCoef="0" IVar="20" Cut="4.5089819335937500e+02" cType="1" res="-3.8681858777999878e-01" rms="1.6860631108283997e-01" purity="3.0439969152212143e-02" nType="0">
            <Node pos="l" depth="3" NCoef="0" IVar="-1" Cut="0.0000000000000000e+00" cType="1" res="-6.9060139358043671e-03" rms="3.1681737303733826e-01" purity="1.1816737055778503e-01" nType="-99"/>
            <Node pos="r" depth="3" NCoef="0" IVar="-1" Cut="0.0000000000000000e+00" cType="1" res="-1.0296669788658619e-02" rms="1.2157922238111496e-01" purity="1.5385519713163376e-02" nType="-99"/>
          </Node>
          <Node pos="r" depth="2" NCoef="0" IVar="18" Cut="3.0626388549804688e+01" cType="1" res="-6.4123511314392090e-02" rms="4.6539297699928284e-01" purity="4.1276371479034424e-01" nType="0">
            <Node pos="l" depth="3" NCoef="0" IVar="-1" Cut="0.0000000000000000e+00" cType="1" res="3.6530655343085527e-03" rms="4.0997284650802612e-01" purity="7.7438616752624512e-01" nType="-99"/>
            <Node pos="r" depth="3" NCoef="0" IVar="-1" Cut="0.0000000000000000e+00" cType="1" res="-7.5507680885493755e-03" rms="3.7429648637771606e-01" purity="1.7855468392372131e-01" nType="-99"/>
          </Node>
        </Node>
        <Node pos="r" depth="1" NCoef="0" IVar="12" Cut="1.5713594055175781e+02" cType="1" res="3.5222882032394409e-01" rms="2.7918618917465210e-01" purity="8.9745110273361206e-01" nType="0">
          <Node pos="l" depth="2" NCoef="0" IVar="12" Cut="6.9350845336914062e+01" cType="1" res="3.9928543567657471e-01" rms="2.0744386315345764e-01" purity="9.5211404561996460e-01" nType="0">
            <Node pos="l" depth="3" NCoef="0" IVar="-1" Cut="0.0000000000000000e+00" cType="1" res="-4.8428019508719444e-03" rms="4.6343272924423218e-01" purity="3.4123000502586365e-01" nType="-99"/>
            <Node pos="r" depth="3" NCoef="0" IVar="-1" Cut="0.0000000000000000e+00" cType="1" res="6.7543536424636841e-03" rms="1.8991555273532867e-01" purity="9.6051645278930664e-01" nType="-99"/>
          </Node>
          <Node pos="r" depth="2" NCoef="0" IVar="17" Cut="4.6552145385742188e+02" cType="1" res="-3.1941601634025574e-01" rms="3.0583590269088745e-01" purity="1.1723989993333817e-01" nType="0">
            <Node pos="l" depth="3" NCoef="0" IVar="-1" Cut="0.0000000000000000e+00" cType="1" res="-9.6233524382114410e-03" rms="1.8238273262977600e-01" purity="3.5267263650894165e-02" nType="-99"/>
            <Node pos="r" depth="3" NCoef="0" IVar="-1" Cut="0.0000000000000000e+00" cType="1" res="4.5576269621960819e-04" rms="4.9232396483421326e-01" purity="5.0996357202529907e-01" nType="-99"/>
          </Node>
        </Node>
      </Node>
    </BinaryTree>
    <BinaryTree type="DecisionTree" boostWeight="1.0000000000000000e+00" itree="17">
      <Node pos="s" depth="0" NCoef="0" IVar="17" Cut="4.2164160156250000e+02" cType="1" res="1.7914952710270882e-02" rms="4.3762138485908508e-01" purity="5.0507009029388428e-01" nType="0">
        <Node pos="l" depth="1" NCoef="0" IVar="5" Cut="1.5558447265625000e+02" cType="1" res="-3.5533708333969116e-01" rms="2.2678375244140625e-01" purity="6.4246080815792084e-02" nType="0">
          <Node pos="l" depth="2" NCoef="0" IVar="6" Cut="1.0994591522216797e+02" cType="1" res="-3.8240742683410645e-01" rms="1.6859863698482513e-01" purity="3.1375069171190262e-02" nType="0">
            <Node pos="l" depth="3" NCoef="0" IVar="-1" Cut="0.0000000000000000e+00" cType="1" res="-1.0617496445775032e-02" rms="1.4894203841686249e-01" purity="2.3589601740241051e-02" nType="-99"/>
            <Node pos="r" depth="3" NCoef="0" IVar="-1" Cut="0.0000000000000000e+00" cType="1" res="-3.9096996188163757e-03" rms="4.0870320796966553e-01" purity="2.4016277492046356e-01" nType="-99"/>
          </Node>
          <Node pos="r" depth="2" NCoef="0" IVar="12" Cut="1.4857431030273438e+02" cType="1" res="-8.7266430258750916e-02" rms="4.4735723733901978e-01" purity="3.8975927233695984e-01" nType="0">
            <Node pos="l" depth="3" NCoef="0" IVar="-1" Cut="0.0000000000000000e+00" cType="1" res="3.0879126861691475e-03" rms="4.3530905246734619e-01" purity="7.3173433542251587e-01" nType="-99"/>
            <Node pos="r" depth="3" NCoef="0" IVar="-1" Cut="0.0000000000000000e+00" cType="1" res="-9.4987004995346069e-03" rms="1.8862608075141907e-01" purity="3.8629520684480667e-02" nType="-99"/>
          </Node>
        </Node>
        <Node pos="r" depth="1" NCoef="0" IVar="3" Cut="1.3973324584960938e+02" cType="1" res="3.0942970514297485e-01" rms="3.2730528712272644e-01" purity="8.4935933351516724e-01" nType="0">
          <Node pos="l" depth="2" NCoef="0" IVar="18" Cut="3.0622407913208008e+01" cType="1" res="-1.3125310838222504e-01" rms="4.4652056694030762e-01" purity="3.3573022484779358e-01" nType="0">
            <Node pos="l" depth="3" NCoef="0" IVar="-1" Cut="0.0000000000000000e+00" cType="1" res="2.9621161520481110e-03" rms="4.3677729368209839e-01" purity="7.3023343086242676e-01" nType="-99"/>
            <Node pos="r" depth="3" NCoef="0" IVar="-1" Cut="0.0000000000000000e+00" cType="1" res="-9.4514647498726845e-03" rms="3.2594698667526245e-01" purity="1.2574805319309235e-01" nType="-99"/>
          </Node>
          <Node pos="r" depth="2" NCoef="0" IVar="9" Cut="1.4430525207519531e+02" cType="1" res="3.9175587892532349e-01" rms="2.1641947329044342e-01" purity="9.4531303644180298e-01" nType="0">
            <Node pos="l" depth="3" NCoef="0" IVar="-1" Cut="0.0000000000000000e+00" cType="1" res="-6.4110709354281425e-03" rms="3.9559251070022583e-01" purity="2.0471334457397461e-01" nType="-99"/>
            <Node pos="r" depth="3" NCoef="0" IVar="-1" Cut="0.0000000000000000e+00" cType="1" res="6.6771265119314194e-03" rms="1.9713823497295380e-01" purity="9.5544350147247314e-01" nType="-99"/>
          </Node>
        </Node>
      </Node>
    </BinaryTree>
    <BinaryTree type="DecisionTree" boostWeight="1.0000000000000000e+00" itree="18">
      <Node pos="s" depth="0" NCoef="0" IVar="5" Cut="1.4279202270507812e+02" cType="1" res="1.3481238856911659e-02" rms="4.3422144651412964e-01" purity="4.9892297387123108e-01" nType="0">
        <Node pos="l" depth="1" NCoef="0" IVar="17" Cut="4.2887902832031250e+02" cType="1" res="-3.0857583880424500e-01" rms="2.9278346896171570e-01" purity="1.1388799548149109e-01" nType="0">
          <Node pos="l" depth="2" NCoef="0" IVar="20" Cut="4.5089819335937500e+02" cType="1" res="-3.7598544359207153e-01" rms="1.7268529534339905e-01" purity="3.2347101718187332e-02" nType="0">
            <Node pos="l" depth="3" NCoef="0" IVar="-1" Cut="0.0000000000000000e+00" cType="1" res="-7.0099886506795883e-03" rms="3.2125896215438843e-01" purity="1.2422835826873779e-01" nType="-99"/>
            <Node pos="r" depth="3" NCoef="0" IVar="-1" Cut="0.0000000000000000e+00" cType="1" res="-9.9431518465280533e-03" rms="1.2612067162990570e-01" purity="1.6634702682495117e-02" nType="-99"/>
          </Node>
          <Node pos="r" depth="2" NCoef="0" IVar="18" Cut="3.6304695129394531e+01" cType="1" res="-5.8019902557134628e-02" rms="4.6242505311965942e-01" purity="4.1696873307228088e-01" nType="0">
            <Node pos="l" depth="3" NCoef="0" IVar="-1" Cut="0.0000000000000000e+00" cType="1" res="3.5750488750636578e-03" rms="4.1710367798805237e-01" purity="7.5995928049087524e-01" nType="-99"/>
            <Node pos="r" depth="3" NCoef="0" IVar="-1" Cut="0.0000000000000000e+00" cType="1" res="-7.9781198874115944e-03" rms="3.6960980296134949e-01" purity="1.7444977164268494e-01" nType="-99"/>
          </Node>
        </Node>
        <Node pos="r" depth="1" NCoef="0" IVar="12" Cut="1.5898652648925781e+02" cType="1" res="3.4850353002548218e-01" rms="2.7454990148544312e-01" purity="8.9945852756500244e-01" nType="0">
          <Node pos="l" depth="2" NCoef="0" IVar="9" Cut="1.4626182556152344e+02" cType="1" res="3.9216074347496033e-01" rms="2.0846934616565704e-01" purity="9.5115047693252563e-01" nType="0">
            <Node pos="l" depth="3" NCoef="0" IVar="-1" Cut="0.0000000000000000e+00" cType="1" res="-5.2119558677077293e-03" rms="4.3626189231872559e-01" purity="2.6953700184822083e-01" nType="-99"/>
            <Node pos="r" depth="3" NCoef="0" IVar="-1" Cut="0.0000000000000000e+00" cType="1" res="6.6060274839401245e-03" rms="1.9046476483345032e-01" purity="9.6006649732589722e-01" nType="-99"/>
          </Node>
          <Node pos="r" depth="2" NCoef="0" IVar="17" Cut="4.4827642822265625e+02" cType="1" res="-3.0991175770759583e-01" rms="3.0740174651145935e-01" purity="1.1986771225929260e-01" nType="0">
            <Node pos="l" depth="3" NCoef="0" IVar="-1" Cut="0.0000000000000000e+00" cType="1" res="-9.0796509757637978e-03" rms="1.7864672839641571e-01" purity="3.3349677920341492e-02" nType="-99"/>
            <Node pos="r" depth="3" NCoef="0" IVar="-1" Cut="0.0000000000000000e+00" cType="1" res="-5.8852793881669641e-04" rms="4.8802012205123901e-01" purity="4.5585775375366211e-01" nType="-99"/>
          </Node>
        </Node>
      </Node>
    </BinaryTree>
    <BinaryTree type="DecisionTree" boostWeight="1.0000000000000000e+00" itree="19">
      <Node pos="s" depth="0" NCoef="0" IVar="5" Cut="1.3835043334960938e+02" cType="1" res="1.5691496431827545e-02" rms="4.3086174130439758e-01" purity="5.0082540512084961e-01" nType="0">
        <Node pos="l" depth="1" NCoef="0" IVar="17" Cut="4.1710803222656250e+02" cType="1" res="-3.0708807706832886e-01" rms="2.8851425647735596e-01" purity="1.1054816842079163e-01" nType="0">
          <Node pos="l" depth="2" NCoef="0" IVar="17" Cut="3.7381146240234375e+02" cType="1" res="-3.7601003050804138e-01" rms="1.5755316615104675e-01" purity="2.6308884844183922e-02" nType="0">
            <Node pos="l" depth="3" NCoef="0" IVar="-1" Cut="0.0000000000000000e+00" cType="1" res="-9.7942920401692390e-03" rms="1.2743160128593445e-01" purity="1.6737781465053558e-02" nType="-99"/>
            <Node pos="r" depth="3" NCoef="0" IVar="-1" Cut="0.0000000000000000e+00" cType="1" res="-9.0193171054124832e-03" rms="3.1217339634895325e-01" purity="1.1487771570682526e-01" nType="-99"/>
          </Node>
          <Node pos="r" depth="2" NCoef="0" IVar="18" Cut="3.0240535736083984e+01" cType="1" res="-7.5651504099369049e-02" rms="4.5813709497451782e-01" purity="3.9341962337493896e-01" nType="0">
            <Node pos="l" depth="3" NCoef="0" IVar="-1" Cut="0.0000000000000000e+00" cType="1" res="3.2840827479958534e-03" rms="4.2427945137023926e-01" purity="7.4996614456176758e-01" nType="-99"/>
            <Node pos="r" depth="3" NCoef="0" IVar="-1" Cut="0.0000000000000000e+00" cType="1" res="-7.6928222551941872e-03" rms="3.6986562609672546e-01" purity="1.7434945702552795e-01" nType="-99"/>
          </Node>
        </Node>
        <Node pos="r" depth="1" NCoef="0" IVar="12" Cut="1.5713594055175781e+02" cType="1" res="3.4032887220382690e-01" rms="2.8010147809982300e-01" purity="8.9334887266159058e-01" nType="0">
          <Node pos="l" depth="2" NCoef="0" IVar="9" Cut="1.4893307495117188e+02" cType="1" res="3.8676348328590393e-01" rms="2.1264366805553436e-01" purity="9.4885420799255371e-01" nType="0">
            <Node pos="l" depth="3" NCoef="0" IVar="-1" Cut="0.0000000000000000e+00" cType="1" res="-4.8352926969528198e-03" rms="4.3619561195373535e-01" purity="2.7085435390472412e-01" nType="-99"/>
            <Node pos="r" depth="3" NCoef="0" IVar="-1" Cut="0.0000000000000000e+00" cType="1" res="6.5799206495285034e-03" rms="1.9394664466381073e-01" purity="9.5853793621063232e-01" nType="-99"/>
          </Node>
          <Node pos="r" depth="2" NCoef="0" IVar="17" Cut="4.3603634643554688e+02" cType="1" res="-3.0833938717842102e-01" rms="3.0315813422203064e-01" purity="1.1796830594539642e-01" nType="0">
            <Node pos="l" depth="3" NCoef="0" IVar="-1" Cut="0.0000000000000000e+00" cType="1" res="-9.7981905564665794e-03" rms="1.7714929580688477e-01" purity="3.2819688320159912e-02" nType="-99"/>
            <Node pos="r" depth="3" NCoef="0" IVar="-1" Cut="0.0000000000000000e+00" cType="1" res="-6.8554055178537965e-04" rms="4.8384037613868713e-01" purity="4.5281818509101868e-01" nType="-99"/>
          </Node>
        </Node>
      </Node>
    </BinaryTree>
    <BinaryTree type="DecisionTree" boostWeight="1.0000000000000000e+00" itree="20">
      <Node pos="s" depth="0" NCoef="0" IVar="5" Cut="1.2879373168945312e+02" cType="1" res="1.4094843529164791e-02" rms="4.2765769362449646e-01" purity="4.9818238615989685e-01" nType="0">
        <Node pos="l" depth="1" NCoef="0" IVar="17" Cut="4.1984149169921875e+02" cType="1" res="-3.1975960731506348e-01" rms="2.6501306891441345e-01" purity="9.1170489788055420e-02" nType="0">
          <Node pos="l" depth="2" NCoef="0" IVar="20" Cut="4.5089819335937500e+02" cType="1" res="-3.7299761176109314e-01" rms="1.5208472311496735e-01" purity="2.4393785744905472e-02" nType="0">
            <Node pos="l" depth="3" NCoef="0" IVar="-1" Cut="0.0000000000000000e+00" cType="1" res="-7.2998786345124245e-03" rms="2.8137531876564026e-01" purity="8.9591689407825470e-02" nType="-99"/>
            <Node pos="r" depth="3" NCoef="0" IVar="-1" Cut="0.0000000000000000e+00" cType="1" res="-9.7984047606587410e-03" rms="1.1414418369531631e-01" purity="1.3360003940761089e-02" nType="-99"/>
          </Node>
          <Node pos="r" depth="2" NCoef="0" IVar="18" Cut="2.7742683410644531e+01" cType="1" res="-1.1347552388906479e-01" rms="4.4632479548454285e-01" purity="3.4991353750228882e-01" nType="0">
            <Node pos="l" depth="3" NCoef="0" IVar="-1" Cut="0.0000000000000000e+00" cType="1" res="2.8843171894550323e-03" rms="4.3511635065078735e-01" purity="7.3276096582412720e-01" nType="-99"/>
            <Node pos="r" depth="3" NCoef="0" IVar="-1" Cut="0.0000000000000000e+00" cType="1" res="-7.6921489089727402e-03" rms="3.4642675518989563e-01" purity="1.4808130264282227e-01" nType="-99"/>
          </Node>
        </Node>
        <Node pos="r" depth="1" NCoef="0" IVar="12" Cut="1.5895309448242188e+02" cType="1" res="3.2318860292434692e-01" rms="2.9742813110351562e-01" purity="8.7500774860382080e-01" nType="0">
          <Node pos="l" depth="2" NCoef="0" IVar="16" Cut="3.7770913696289062e+02" cType="1" res="3.7275883555412292e-01" rms="2.3418532311916351e-01" purity="9.3488043546676636e-01" nType="0">
            <Node pos="l" depth="3" NCoef="0" IVar="-1" Cut="0.0000000000000000e+00" cType="1" res="1.4834346948191524e-03" rms="4.6933946013450623e-01" purity="6.1279445886611938e-01" nType="-99"/>
            <Node pos="r" depth="3" NCoef="0" IVar="-1" Cut="0.0000000000000000e+00" cType="1" res="6.6902991384267807e-03" rms="1.7114663124084473e-01" purity="9.6766591072082520e-01" nType="-99"/>
          </Node>
          <Node pos="r" depth="2" NCoef="0" IVar="17" Cut="5.2044854736328125e+02" cType="1" res="-3.1521010398864746e-01" rms="2.8680181503295898e-01" purity="1.0392740368843079e-01" nType="0">
            <Node pos="l" depth="3" NCoef="0" IVar="-1" Cut="0.0000000000000000e+00" cType="1" res="-9.4226226210594177e-03" rms="2.0563986897468567e-01" purity="4.6225506812334061e-02" nType="-99"/>
            <Node pos="r" depth="3" NCoef="0" IVar="-1" Cut="0.0000000000000000e+00" cType="1" res="1.9795729313045740e-03" rms="4.8518854379653931e-01" purity="5.8247959613800049e-01" nType="-99"/>
          </Node>
        </Node>
      </Node>
    </BinaryTree>
    <BinaryTree type="DecisionTree" boostWeight="1.0000000000000000e+00" itree="21">
      <Node pos="s" depth="0" NCoef="0" IVar="5" Cut="1.3106855773925781e+02" cType="1" res="1.5562097541987896e-02" rms="4.2430412769317627e-01" purity="4.9902248382568359e-01" nType="0">
        <Node pos="l" depth="1" NCoef="0" IVar="17" Cut="4.2887902832031250e+02" cType="1" res="-3.1088024377822876e-01" rms="2.7085682749748230e-01" purity="9.6545740962028503e-02" nType="0">
          <Node pos="l" depth="2" NCoef="0" IVar="20" Cut="4.5089819335937500e+02" cType="1" res="-3.6358070373535156e-01" rms="1.6767990589141846e-01" purity="3.0361192300915718e-02" nType="0">
            <Node pos="l" depth="3" NCoef="0" IVar="-1" Cut="0.0000000000000000e+00" cType="1" res="-7.1800518780946732e-03" rms="3.1179293990135193e-01" purity="1.1608941107988358e-01" nType="-99"/>
            <Node pos="r" depth="3" NCoef="0" IVar="-1" Cut="0.0000000000000000e+00" cType="1" res="-1.0205877013504505e-02" rms="1.2291818112134933e-01" purity="1.5593912452459335e-02" nType="-99"/>
          </Node>
          <Node pos="r" depth="2" NCoef="0" IVar="18" Cut="3.4656238555908203e+01" cType="1" res="-9.1849677264690399e-02" rms="4.4933101534843445e-01" purity="3.7161794304847717e-01" nType="0">
            <Node pos="l" depth="3" NCoef="0" IVar="-1" Cut="0.0000000000000000e+00" cType="1" res="3.2403552904725075e-03" rms="4.2669370770454407e-01" purity="7.4538475275039673e-01" nType="-99"/>
            <Node pos="r" depth="3" NCoef="0" IVar="-1" Cut="0.0000000000000000e+00" cType="1" res="-8.9285271242260933e-03" rms="3.3678227663040161e-01" purity="1.3761639595031738e-01" nType="-99"/>
          </Node>
        </Node>
        <Node pos="r" depth="1" NCoef="0" IVar="12" Cut="1.5932110595703125e+02" cType="1" res="3.2251572608947754e-01" rms="2.9310938715934753e-01" purity="8.7747126817703247e-01" nType="0">
          <Node pos="l" depth="2" NCoef="0" IVar="9" Cut="1.4428776550292969e+02" cType="1" res="3.7359526753425598e-01" rms="2.2669647634029388e-01" purity="9.3975305557250977e-01" nType="0">
            <Node pos="l" depth="3" NCoef="0" IVar="-1" Cut="0.0000000000000000e+00" cType="1" res="-7.5094667263329029e-03" rms="3.6167255043983459e-01" purity="1.6536056995391846e-01" nType="-99"/>
            <Node pos="r" depth="3" NCoef="0" IVar="-1" Cut="0.0000000000000000e+00" cType="1" res="6.4160642214119434e-03" rms="2.0660056173801422e-01" purity="9.5142400264739990e-01" nType="-99"/>
          </Node>
          <Node pos="r" depth="2" NCoef="0" IVar="17" Cut="5.2434515380859375e+02" cType="1" res="-3.2122674584388733e-01" rms="2.7147021889686584e-01" purity="9.2549905180931091e-02" nType="0">
            <Node pos="l" depth="3" NCoef="0" IVar="-1" Cut="0.0000000000000000e+00" cType="1" res="-8.5826013237237930e-03" rms="1.9030043482780457e-01" purity="3.9359029382467270e-02" nType="-99"/>
            <Node pos="r" depth="3" NCoef="0" IVar="-1" Cut="0.0000000000000000e+00" cType="1" res="1.8120872555300593e-03" rms="4.8607596755027771e-01" purity="5.7714658975601196e-01" nType="-99"/>
          </Node>
        </Node>
      </Node>
    </BinaryTree>
    <BinaryTree type="DecisionTree" boostWeight="1.0000000000000000e+00" itree="22">
      <Node pos="s" depth="0" NCoef="0" IVar="15" Cut="3.9738934326171875e+02" cType="1" res="1.5300661325454712e-02" rms="4.2143914103507996e-01" purity="4.9795496463775635e-01" nType="0">
        <Node pos="l" depth="1" NCoef="0" IVar="6" Cut="1.0844006347656250e+02" cType="1" res="-2.9229637980461121e-01" rms="2.8860592842102051e-01" purity="1.1586312949657440e-01" nType="0">
          <Node pos="l" depth="2" NCoef="0" IVar="17" Cut="3.8945782470703125e+02" cType="1" res="-3.3727779984474182e-01" rms="2.2230291366577148e-01" purity="5.9896375983953476e-02" nType="0">
            <Node pos="l" depth="3" NCoef="0" IVar="-1" Cut="0.0000000000000000e+00" cType="1" res="-9.1303139925003052e-03" rms="1.4593397080898285e-01" purity="2.3005612194538116e-02" nType="-99"/>
            <Node pos="r" depth="3" NCoef="0" IVar="-1" Cut="0.0000000000000000e+00" cType="1" res="-5.9851268306374550e-03" rms="3.8267365097999573e-01" purity="2.0876184105873108e-01" nType="-99"/>
          </Node>
          <Node pos="r" depth="2" NCoef="0" IVar="17" Cut="3.4843133544921875e+02" cType="1" res="6.0837909579277039e-02" rms="4.5677646994590759e-01" purity="5.5523943901062012e-01" nType="0">
            <Node pos="l" depth="3" NCoef="0" IVar="-1" Cut="0.0000000000000000e+00" cType="1" res="-6.1034075915813446e-03" rms="3.0611017346382141e-01" purity="1.2692889571189880e-01" nType="-99"/>
            <Node pos="r" depth="3" NCoef="0" IVar="-1" Cut="0.0000000000000000e+00" cType="1" res="2.6390587445348501e-03" rms="4.3415373563766479e-01" purity="6.9397068023681641e-01" nType="-99"/>
          </Node>
        </Node>
        <Node pos="r" depth="1" NCoef="0" IVar="12" Cut="1.4978195190429688e+02" cType="1" res="3.3415371179580688e-01" rms="2.7501708269119263e-01" purity="8.9402890205383301e-01" nType="0">
          <Node pos="l" depth="2" NCoef="0" IVar="9" Cut="1.5218014526367188e+02" cType="1" res="3.7714737653732300e-01" rms="2.1200956404209137e-01" purity="9.4638204574584961e-01" nType="0">
            <Node pos="l" depth="3" NCoef="0" IVar="-1" Cut="0.0000000000000000e+00" cType="1" res="-1.8177258316427469e-03" rms="4.6651214361190796e-01" purity="3.7111514806747437e-01" nType="-99"/>
            <Node pos="r" depth="3" NCoef="0" IVar="-1" Cut="0.0000000000000000e+00" cType="1" res="6.5863714553415775e-03" rms="1.7820170521736145e-01" purity="9.6429437398910522e-01" nType="-99"/>
          </Node>
          <Node pos="r" depth="2" NCoef="0" IVar="17" Cut="5.3253204345703125e+02" cType="1" res="-2.2240254282951355e-01" rms="3.7307938933372498e-01" purity="2.1631309390068054e-01" nType="0">
            <Node pos="l" depth="3" NCoef="0" IVar="-1" Cut="0.0000000000000000e+00" cType="1" res="-7.8630559146404266e-03" rms="2.8140076994895935e-01" purity="9.9719703197479248e-02" nType="-99"/>
            <Node pos="r" depth="3" NCoef="0" IVar="-1" Cut="0.0000000000000000e+00" cType="1" res="1.9245288567617536e-03" rms="4.6286168694496155e-01" purity="6.1065441370010376e-01" nType="-99"/>
          </Node>
        </Node>
      </Node>
    </BinaryTree>
    <BinaryTree type="DecisionTree" boostWeight="1.0000000000000000e+00" itree="23">
      <Node pos="s" depth="0" NCoef="0" IVar="15" Cut="3.9655718994140625e+02" cType="1" res="1.9664971157908440e-02" rms="4.1866385936737061e-01" purity="5.0245225429534912e-01" nType="0">
        <Node pos="l" depth="1" NCoef="0" IVar="6" Cut="1.1464354705810547e+02" cType="1" res="-2.9109808802604675e-01" rms="2.8540498018264771e-01" purity="1.1279321461915970e-01" nType="0">
          <Node pos="l" depth="2" NCoef="0" IVar="17" Cut="3.8621234130859375e+02" cType="1" res="-3.2822784781455994e-01" rms="2.3192489147186279e-01" purity="6.5875604748725891e-02" nType="0">
            <Node pos="l" depth="3" NCoef="0" IVar="-1" Cut="0.0000000000000000e+00" cType="1" res="-9.6505861729383469e-03" rms="1.5576677024364471e-01" purity="2.6726115494966507e-02" nType="-99"/>
            <Node pos="r" depth="3" NCoef="0" IVar="-1" Cut="0.0000000000000000e+00" cType="1" res="-5.6655220687389374e-03" rms="3.8699609041213989e-01" purity="2.1510268747806549e-01" nType="-99"/>
          </Node>
          <Node pos="r" depth="2" NCoef="0" IVar="12" Cut="1.4880308532714844e+02" cType="1" res="7.4229061603546143e-02" rms="4.5458468794822693e-01" purity="5.7442510128021240e-01" nType="0">
            <Node pos="l" depth="3" NCoef="0" IVar="-1" Cut="0.0000000000000000e+00" cType="1" res="2.5955054443329573e-03" rms="4.3767601251602173e-01" purity="6.9404172897338867e-01" nType="-99"/>
            <Node pos="r" depth="3" NCoef="0" IVar="-1" Cut="0.0000000000000000e+00" cType="1" res="-7.4445679783821106e-03" rms="1.6476172208786011e-01" purity="3.1585477292537689e-02" nType="-99"/>
          </Node>
        </Node>
        <Node pos="r" depth="1" NCoef="0" IVar="12" Cut="1.7139132690429688e+02" cType="1" res="3.3009231090545654e-01" rms="2.7598375082015991e-01" purity="8.9169037342071533e-01" nType="0">
          <Node pos="l" depth="2" NCoef="0" IVar="9" Cut="1.5223117065429688e+02" cType="1" res="3.6674433946609497e-01" rms="2.2646275162696838e-01" purity="9.3713849782943726e-01" nType="0">
            <Node pos="l" depth="3" NCoef="0" IVar="-1" Cut="0.0000000000000000e+00" cType="1" res="-1.3502949150279164e-03" rms="4.7196584939956665e-01" purity="3.9405584335327148e-01" nType="-99"/>
            <Node pos="r" depth="3" NCoef="0" IVar="-1" Cut="0.0000000000000000e+00" cType="1" res="6.4477496780455112e-03" rms="1.9456049799919128e-01" purity="9.5583999156951904e-01" nType="-99"/>
          </Node>
          <Node pos="r" depth="2" NCoef="0" IVar="5" Cut="3.3857128906250000e+02" cType="1" res="-3.2272586226463318e-01" rms="2.6313698291778564e-01" purity="8.2204602658748627e-02" nType="0">
            <Node pos="l" depth="3" NCoef="0" IVar="-1" Cut="0.0000000000000000e+00" cType="1" res="-8.4714861586689949e-03" rms="2.2732357680797577e-01" purity="5.7747177779674530e-02" nType="-99"/>
            <Node pos="r" depth="3" NCoef="0" IVar="-1" Cut="0.0000000000000000e+00" cType="1" res="1.9023240020032972e-04" rms="4.7737431526184082e-01" purity="4.6575260162353516e-01" nType="-99"/>
          </Node>
        </Node>
      </Node>
    </BinaryTree>
    <BinaryTree type="DecisionTree" boostWeight="1.0000000000000000e+00" itree="24">
      <Node pos="s" depth="0" NCoef="0" IVar="5" Cut="1.4208799743652344e+02" cType="1" res="1.5792416408658028e-02" rms="4.1543412208557129e-01" purity="4.9722102284431458e-01" nType="0">
        <Node pos="l" depth="1" NCoef="0" IVar="17" Cut="4.1945312500000000e+02" cType="1" res="-2.8344950079917908e-01" rms="2.8928485512733459e-01" purity="1.1748382449150085e-01" nType="0">
          <Node pos="l" depth="2" NCoef="0" IVar="17" Cut="3.7005453491210938e+02" cType="1" res="-3.5094118118286133e-01" rms="1.6645418107509613e-01" purity="2.9870636761188507e-02" nType="0">
            <Node pos="l" depth="3" NCoef="0" IVar="-1" Cut="0.0000000000000000e+00" cType="1" res="-9.1464854776859283e-03" rms="1.3653913140296936e-01" purity="1.9487788900732994e-02" nType="-99"/>
            <Node pos="r" depth="3" NCoef="0" IVar="-1" Cut="0.0000000000000000e+00" cType="1" res="-8.9249433949589729e-03" rms="3.0502095818519592e-01" purity="1.1038320511579514e-01" nType="-99"/>
          </Node>
          <Node pos="r" depth="2" NCoef="0" IVar="18" Cut="3.0636009216308594e+01" cType="1" res="-5.6807119399309158e-02" rms="4.5277306437492371e-01" purity="4.1169580817222595e-01" nType="0">
            <Node pos="l" depth="3" NCoef="0" IVar="-1" Cut="0.0000000000000000e+00" cType="1" res="3.2438095659017563e-03" rms="4.1455337405204773e-01" purity="7.6278513669967651e-01" nType="-99"/>
            <Node pos="r" depth="3" NCoef="0" IVar="-1" Cut="0.0000000000000000e+00" cType="1" res="-7.0148799568414688e-03" rms="3.6733430624008179e-01" purity="1.7593884468078613e-01" nType="-99"/>
          </Node>
        </Node>
        <Node pos="r" depth="1" NCoef="0" IVar="12" Cut="1.5932110595703125e+02" cType="1" res="3.3162465691566467e-01" rms="2.6861447095870972e-01" purity="8.9801126718521118e-01" nType="0">
          <Node pos="l" depth="2" NCoef="0" IVar="12" Cut="7.1007652282714844e+01" cType="1" res="3.7372723221778870e-01" rms="2.0760558545589447e-01" purity="9.5081609487533569e-01" nType="0">
            <Node pos="l" depth="3" NCoef="0" IVar="-1" Cut="0.0000000000000000e+00" cType="1" res="-3.0434350483119488e-03" rms="4.5804476737976074e-01" purity="3.5259437561035156e-01" nType="-99"/>
            <Node pos="r" depth="3" NCoef="0" IVar="-1" Cut="0.0000000000000000e+00" cType="1" res="6.3995509408414364e-03" rms="1.8783216178417206e-01" purity="9.6087658405303955e-01" nType="-99"/>
          </Node>
          <Node pos="r" depth="2" NCoef="0" IVar="17" Cut="5.6486529541015625e+02" cType="1" res="-2.9782491922378540e-01" rms="2.8949788212776184e-01" purity="1.0855908691883087e-01" nType="0">
            <Node pos="l" depth="3" NCoef="0" IVar="-1" Cut="0.0000000000000000e+00" cType="1" res="-7.7082314528524876e-03" rms="2.1725633740425110e-01" purity="5.2386313676834106e-02" nType="-99"/>
            <Node pos="r" depth="3" NCoef="0" IVar="-1" Cut="0.0000000000000000e+00" cType="1" res="2.3828716948628426e-03" rms="4.7791609168052673e-01" purity="6.1273783445358276e-01" nType="-99"/>
          </Node>
        </Node>
      </Node>
    </BinaryTree>
    <BinaryTree type="DecisionTree" boostWeight="1.0000000000000000e+00" itree="25">
      <Node pos="s" depth="0" NCoef="0" IVar="15" Cut="3.9731112670898438e+02" cType="1" res="1.9313702359795570e-02" rms="4.1245320439338684e-01" purity="5.0053429603576660e-01" nType="0">
        <Node pos="l" depth="1" NCoef="0" IVar="6" Cut="1.0513040161132812e+02" cType="1" res="-2.8395208716392517e-01" rms="2.8316324949264526e-01" purity="1.1289158463478088e-01" nType="0">
          <Node pos="l" depth="2" NCoef="0" IVar="17" Cut="3.8443127441406250e+02" cType="1" res="-3.2449057698249817e-01" rms="2.2219988703727722e-01" purity="6.0500252991914749e-02" nType="0">
            <Node pos="l" depth="3" NCoef="0" IVar="-1" Cut="0.0000000000000000e+00" cType="1" res="-9.1329021379351616e-03" rms="1.4505109190940857e-01" purity="2.3217637091875076e-02" nType="-99"/>
            <Node pos="r" depth="3" NCoef="0" IVar="-1" Cut="0.0000000000000000e+00" cType="1" res="-6.0095922090113163e-03" rms="3.7969270348548889e-01" purity="2.0448908209800720e-01" nType="-99"/>
          </Node>
          <Node pos="r" depth="2" NCoef="0" IVar="17" Cut="3.7745956420898438e+02" cType="1" res="1.9863100722432137e-02" rms="4.5437502861022949e-01" purity="5.0553804636001587e-01" nType="0">
            <Node pos="l" depth="3" NCoef="0" IVar="-1" Cut="0.0000000000000000e+00" cType="1" res="-4.8808045685291290e-03" rms="3.4609937667846680e-01" purity="1.7817534506320953e-01" nType="-99"/>
            <Node pos="r" depth="3" NCoef="0" IVar="-1" Cut="0.0000000000000000e+00" cType="1" res="2.6716450229287148e-03" rms="4.3308967351913452e-01" purity="6.8909305334091187e-01" nType="-99"/>
          </Node>
        </Node>
        <Node pos="r" depth="1" NCoef="0" IVar="12" Cut="1.7124137878417969e+02" cType="1" res="3.2916817069053650e-01" rms="2.6838356256484985e-01" purity="8.9659875631332397e-01" nType="0">
          <Node pos="l" depth="2" NCoef="0" IVar="5" Cut="1.1415929412841797e+02" cType="1" res="3.6429539322853088e-01" rms="2.1963831782341003e-01" purity="9.4094628095626831e-01" nType="0">
            <Node pos="l" depth="3" NCoef="0" IVar="-1" Cut="0.0000000000000000e+00" cType="1" res="1.1507959570735693e-03" rms="4.7107037901878357e-01" purity="5.5663412809371948e-01" nType="-99"/>
            <Node pos="r" depth="3" NCoef="0" IVar="-1" Cut="0.0000000000000000e+00" cType="1" res="6.5096630714833736e-03" rms="1.7757333815097809e-01" purity="9.6463382244110107e-01" nType="-99"/>
          </Node>
          <Node pos="r" depth="2" NCoef="0" IVar="17" Cut="6.3449145507812500e+02" cType="1" res="-3.1561458110809326e-01" rms="2.6512905955314636e-01" purity="8.2572206854820251e-02" nType="0">
            <Node pos="l" depth="3" NCoef="0" IVar="-1" Cut="0.0000000000000000e+00" cType="1" res="-8.6251460015773773e-03" rms="2.3550346493721008e-01" purity="6.0911342501640320e-02" nType="-99"/>
            <Node pos="r" depth="3" NCoef="0" IVar="-1" Cut="0.0000000000000000e+00" cType="1" res="-5.2191078430041671e-04" rms="4.8698464035987854e-01" purity="4.6356010437011719e-01" nType="-99"/>
          </Node>
        </Node>
      </Node>
    </BinaryTree>
    <BinaryTree type="DecisionTree" boostWeight="1.0000000000000000e+00" itree="26">
      <Node pos="s" depth="0" NCoef="0" IVar="17" Cut="4.2154476928710938e+02" cType="1" res="1.7993420362472534e-02" rms="4.0941557288169861e-01" purity="4.9848031997680664e-01" nType="0">
        <Node pos="l" depth="1" NCoef="0" IVar="5" Cut="1.5828613281250000e+02" cType="1" res="-3.1642380356788635e-01" rms="2.2384487092494965e-01" purity="6.6734813153743744e-02" nType="0">
          <Node pos="l" depth="2" NCoef="0" IVar="20" Cut="4.5089819335937500e+02" cType="1" res="-3.4085562825202942e-01" rms="1.7311087250709534e-01" purity="3.3747557550668716e-02" nType="0">
            <Node pos="l" depth="3" NCoef="0" IVar="-1" Cut="0.0000000000000000e+00" cType="1" res="-6.3398201018571854e-03" rms="3.1253537535667419e-01" purity="1.2125231325626373e-01" nType="-99"/>
            <Node pos="r" depth="3" NCoef="0" IVar="-1" Cut="0.0000000000000000e+00" cType="1" res="-9.4641977921128273e-03" rms="1.3097605109214783e-01" purity="1.8605370074510574e-02" nType="-99"/>
          </Node>
          <Node pos="r" depth="2" NCoef="0" IVar="12" Cut="1.4710505676269531e+02" cType="1" res="-6.8835943937301636e-02" rms="4.3225497007369995e-01" purity="4.0102168917655945e-01" nType="0">
            <Node pos="l" depth="3" NCoef="0" IVar="-1" Cut="0.0000000000000000e+00" cType="1" res="2.8075494337826967e-03" rms="4.3258184194564819e-01" purity="7.3044919967651367e-01" nType="-99"/>
            <Node pos="r" depth="3" NCoef="0" IVar="-1" Cut="0.0000000000000000e+00" cType="1" res="-8.0252010375261307e-03" rms="2.0883579552173615e-01" purity="5.0829697400331497e-02" nType="-99"/>
          </Node>
        </Node>
        <Node pos="r" depth="1" NCoef="0" IVar="5" Cut="1.2158414459228516e+02" cType="1" res="2.8944838047027588e-01" rms="3.1391665339469910e-01" purity="8.4893912076950073e-01" nType="0">
          <Node pos="l" depth="2" NCoef="0" IVar="18" Cut="3.0627176284790039e+01" cType="1" res="-1.0854972153902054e-01" rms="4.3841063976287842e-01" purity="3.4434789419174194e-01" nType="0">
            <Node pos="l" depth="3" NCoef="0" IVar="-1" Cut="0.0000000000000000e+00" cType="1" res="2.9949387535452843e-03" rms="4.3819594383239746e-01" purity="7.2440385818481445e-01" nType="-99"/>
            <Node pos="r" depth="3" NCoef="0" IVar="-1" Cut="0.0000000000000000e+00" cType="1" res="-9.6876556053757668e-03" rms="3.3205324411392212e-01" purity="1.3321189582347870e-01" nType="-99"/>
          </Node>
          <Node pos="r" depth="2" NCoef="0" IVar="9" Cut="1.4500750732421875e+02" cType="1" res="3.6728540062904358e-01" rms="2.0781920850276947e-01" purity="9.4762271642684937e-01" nType="0">
            <Node pos="l" depth="3" NCoef="0" IVar="-1" Cut="0.0000000000000000e+00" cType="1" res="-6.5506333485245705e-03" rms="4.0317565202713013e-01" purity="2.2803084552288055e-01" nType="-99"/>
            <Node pos="r" depth="3" NCoef="0" IVar="-1" Cut="0.0000000000000000e+00" cType="1" res="6.3562830910086632e-03" rms="1.8645210564136505e-01" purity="9.5946222543716431e-01" nType="-99"/>
          </Node>
        </Node>
      </Node>
    </BinaryTree>
    <BinaryTree type="DecisionTree" boostWeight="1.0000000000000000e+00" itree="27">
      <Node pos="s" depth="0" NCoef="0" IVar="5" Cut="1.3443424987792969e+02" cType="1" res="2.1317409351468086e-02" rms="4.0611317753791809e-01" purity="5.0233668088912964e-01" nType="0">
        <Node pos="l" depth="1" NCoef="0" IVar="17" Cut="4.1697265625000000e+02" cType="1" res="-2.8511634469032288e-01" rms="2.7049416303634644e-01" purity="1.0150903463363647e-01" nType="0">
          <Node pos="l" depth="2" NCoef="0" IVar="17" Cut="3.8534088134765625e+02" cType="1" res="-3.4364283084869385e-01" rms="1.4974837005138397e-01" purity="2.3910762742161751e-02" nType="0">
            <Node pos="l" depth="3" NCoef="0" IVar="-1" Cut="0.0000000000000000e+00" cType="1" res="-9.3578705564141273e-03" rms="1.2283536791801453e-01" purity="1.5631511807441711e-02" nType="-99"/>
            <Node pos="r" depth="3" NCoef="0" IVar="-1" Cut="0.0000000000000000e+00" cType="1" res="-8.3496449515223503e-03" rms="3.3502206206321716e-01" purity="1.3592799007892609e-01" nType="-99"/>
          </Node>
          <Node pos="r" depth="2" NCoef="0" IVar="18" Cut="2.5765798568725586e+01" cType="1" res="-7.7706746757030487e-02" rms="4.4478499889373779e-01" purity="3.7650632858276367e-01" nType="0">
            <Node pos="l" depth="3" NCoef="0" IVar="-1" Cut="0.0000000000000000e+00" cType="1" res="3.2930942252278328e-03" rms="4.1543036699295044e-01" purity="7.6225900650024414e-01" nType="-99"/>
            <Node pos="r" depth="3" NCoef="0" IVar="-1" Cut="0.0000000000000000e+00" cType="1" res="-6.4682327210903168e-03" rms="3.7307378649711609e-01" purity="1.8403121829032898e-01" nType="-99"/>
          </Node>
        </Node>
        <Node pos="r" depth="1" NCoef="0" IVar="12" Cut="1.5824845886230469e+02" cType="1" res="3.1383675336837769e-01" rms="2.7805885672569275e-01" purity="8.8496363162994385e-01" nType="0">
          <Node pos="l" depth="2" NCoef="0" IVar="12" Cut="6.9577323913574219e+01" cType="1" res="3.5916134715080261e-01" rms="2.1833084523677826e-01" purity="9.4329261779785156e-01" nType="0">
            <Node pos="l" depth="3" NCoef="0" IVar="-1" Cut="0.0000000000000000e+00" cType="1" res="-3.5167741589248180e-03" rms="4.3750968575477600e-01" purity="2.9655614495277405e-01" nType="-99"/>
            <Node pos="r" depth="3" NCoef="0" IVar="-1" Cut="0.0000000000000000e+00" cType="1" res="6.2109827995300293e-03" rms="1.9784191250801086e-01" purity="9.5494842529296875e-01" nType="-99"/>
          </Node>
          <Node pos="r" depth="2" NCoef="0" IVar="17" Cut="4.6246279907226562e+02" cType="1" res="-2.8974714875221252e-01" rms="2.8367421030998230e-01" purity="1.0820108652114868e-01" nType="0">
            <Node pos="l" depth="3" NCoef="0" IVar="-1" Cut="0.0000000000000000e+00" cType="1" res="-9.3091838061809540e-03" rms="1.7207486927509308e-01" purity="3.1452767550945282e-02" nType="-99"/>
            <Node pos="r" depth="3" NCoef="0" IVar="-1" Cut="0.0000000000000000e+00" cType="1" res="2.4468475021421909e-04" rms="4.8283401131629944e-01" purity="5.0153148174285889e-01" nType="-99"/>
          </Node>
        </Node>
      </Node>
    </BinaryTree>
    <BinaryTree type="DecisionTree" boostWeight="1.0000000000000000e+00" itree="28">
      <Node pos="s" depth="0" NCoef="0" IVar="5" Cut="1.3173098754882812e+02" cType="1" res="2.0507868379354477e-02" rms="4.0377101302146912e-01" purity="5.0029110908508301e-01" nType="0">
        <Node pos="l" depth="1" NCoef="0" IVar="17" Cut="4.1945312500000000e+02" cType="1" res="-2.8224003314971924e-01" rms="2.6857140660285950e-01" purity="1.0005212575197220e-01" nType="0">
          <Node pos="l" depth="2" NCoef="0" IVar="17" Cut="3.5749612426757812e+02" cType="1" res="-3.3793333172798157e-01" rms="1.5353006124496460e-01" purity="2.5158291682600975e-02" nType="0">
            <Node pos="l" depth="3" NCoef="0" IVar="-1" Cut="0.0000000000000000e+00" cType="1" res="-9.0711796656250954e-03" rms="1.1496876180171967e-01" purity="1.3582909479737282e-02" nType="-99"/>
            <Node pos="r" depth="3" NCoef="0" IVar="-1" Cut="0.0000000000000000e+00" cType="1" res="-9.2745013535022736e-03" rms="2.7828818559646606e-01" purity="8.9225359261035919e-02" nType="-99"/>
          </Node>
          <Node pos="r" depth="2" NCoef="0" IVar="18" Cut="3.4656238555908203e+01" cType="1" res="-7.9369418323040009e-02" rms="4.4334971904754639e-01" purity="3.7286341190338135e-01" nType="0">
            <Node pos="l" depth="3" NCoef="0" IVar="-1" Cut="0.0000000000000000e+00" cType="1" res="2.8391354717314243e-03" rms="4.3701562285423279e-01" purity="7.1760505437850952e-01" nType="-99"/>
            <Node pos="r" depth="3" NCoef="0" IVar="-1" Cut="0.0000000000000000e+00" cType="1" res="-7.2169438935816288e-03" rms="3.5401654243469238e-01" purity="1.5678001940250397e-01" nType="-99"/>
          </Node>
        </Node>
        <Node pos="r" depth="1" NCoef="0" IVar="12" Cut="1.5720909118652344e+02" cType="1" res="3.0630680918693542e-01" rms="2.8396561741828918e-01" purity="8.7812316417694092e-01" nType="0">
          <Node pos="l" depth="2" NCoef="0" IVar="9" Cut="1.5352450561523438e+02" cType="1" res="3.5344147682189941e-01" rms="2.2491838037967682e-01" purity="9.3931871652603149e-01" nType="0">
            <Node pos="l" depth="3" NCoef="0" IVar="-1" Cut="0.0000000000000000e+00" cType="1" res="-3.0741379596292973e-03" rms="4.4720062613487244e-01" purity="3.0929529666900635e-01" nType="-99"/>
            <Node pos="r" depth="3" NCoef="0" IVar="-1" Cut="0.0000000000000000e+00" cType="1" res="6.1380150727927685e-03" rms="2.0112892985343933e-01" purity="9.5344763994216919e-01" nType="-99"/>
          </Node>
          <Node pos="r" depth="2" NCoef="0" IVar="17" Cut="4.6383370971679688e+02" cType="1" res="-2.9226657748222351e-01" rms="2.7517503499984741e-01" purity="1.0098762065172195e-01" nType="0">
            <Node pos="l" depth="3" NCoef="0" IVar="-1" Cut="0.0000000000000000e+00" cType="1" res="-8.8312085717916489e-03" rms="1.6950181126594543e-01" purity="3.0533593147993088e-02" nType="-99"/>
            <Node pos="r" depth="3" NCoef="0" IVar="-1" Cut="0.0000000000000000e+00" cType="1" res="5.6336783018196002e-05" rms="4.8444920778274536e-01" purity="4.9303588271141052e-01" nType="-99"/>
          </Node>
        </Node>
      </Node>
    </BinaryTree>
    <BinaryTree type="DecisionTree" boostWeight="1.0000000000000000e+00" itree="29">
