<?xml version="1.0"?>
<MethodSetup Method="BDT::Grad_1">
  <GeneralInfo>
    <Info name="TMVA Release" value="4.2.1 [262657]"/>
    <Info name="ROOT Release" value="6.10/08 [395784]"/>
    <Info name="Creator" value="angelagiraldi"/>
    <Info name="Date" value="Mon Jan  8 17:07:28 2018"/>
    <Info name="Host" value="Darwin AngelaGiraldi.local 17.2.0 Darwin Kernel Version 17.2.0: Fri Sep 29 18:27:05 PDT 2017; root:xnu-4570.20.62~3/RELEASE_X86_64 x86_64"/>
    <Info name="Dir" value="/Users/angelagiraldi/workspace/hh-analysis"/>
    <Info name="Training events" value="419178"/>
    <Info name="TrainingTime" value="8.30864578e+02"/>
    <Info name="AnalysisType" value="Classification"/>
  </GeneralInfo>
  <Options>
    <Option name="V" modified="Yes">True</Option>
    <Option name="VerbosityLevel" modified="No">Verbose</Option>
    <Option name="VarTransform" modified="No">None</Option>
    <Option name="H" modified="No">False</Option>
    <Option name="CreateMVAPdfs" modified="No">False</Option>
    <Option name="IgnoreNegWeightsInTraining" modified="No">False</Option>
    <Option name="NTrees" modified="Yes">700</Option>
    <Option name="MaxDepth" modified="Yes">3</Option>
    <Option name="MinNodeSize" modified="Yes">0.03</Option>
    <Option name="nCuts" modified="Yes">500</Option>
    <Option name="BoostType" modified="Yes">Grad</Option>
    <Option name="AdaBoostR2Loss" modified="No">quadratic</Option>
    <Option name="UseBaggedBoost" modified="Yes">True</Option>
    <Option name="Shrinkage" modified="Yes">5.000000e-02</Option>
    <Option name="AdaBoostBeta" modified="No">5.000000e-01</Option>
    <Option name="UseRandomisedTrees" modified="No">False</Option>
    <Option name="UseNvars" modified="No">5</Option>
    <Option name="UsePoissonNvars" modified="No">True</Option>
    <Option name="BaggedSampleFraction" modified="Yes">5.000000e-01</Option>
    <Option name="UseYesNoLeaf" modified="No">True</Option>
    <Option name="NegWeightTreatment" modified="No">pray</Option>
    <Option name="Css" modified="No">1.000000e+00</Option>
    <Option name="Cts_sb" modified="No">1.000000e+00</Option>
    <Option name="Ctb_ss" modified="No">1.000000e+00</Option>
    <Option name="Cbb" modified="No">1.000000e+00</Option>
    <Option name="NodePurityLimit" modified="No">5.000000e-01</Option>
    <Option name="SeparationType" modified="No">giniindex</Option>
    <Option name="RegressionLossFunctionBDTG" modified="No">huber</Option>
    <Option name="HuberQuantile" modified="No">7.000000e-01</Option>
    <Option name="DoBoostMonitor" modified="No">False</Option>
    <Option name="UseFisherCuts" modified="No">False</Option>
    <Option name="MinLinCorrForFisher" modified="No">8.000000e-01</Option>
    <Option name="UseExclusiveVars" modified="No">False</Option>
    <Option name="DoPreselection" modified="No">False</Option>
    <Option name="SigToBkgFraction" modified="No">1.000000e+00</Option>
    <Option name="PruneMethod" modified="No">nopruning</Option>
    <Option name="PruneStrength" modified="No">0.000000e+00</Option>
    <Option name="PruningValFraction" modified="No">5.000000e-01</Option>
    <Option name="SkipNormalization" modified="No">False</Option>
    <Option name="nEventsMin" modified="No">0</Option>
    <Option name="UseBaggedGrad" modified="No">False</Option>
    <Option name="GradBaggingFraction" modified="No">5.000000e-01</Option>
    <Option name="UseNTrainEvents" modified="No">0</Option>
    <Option name="NNodesMax" modified="No">0</Option>
  </Options>
  <Variables NVar="23">
    <Variable VarIndex="0" Expression="csv_1" Label="csv_1" Title="csv_1" Unit="" Internal="csv_1" Type="F" Min="-1.00000000e+01" Max="9.99624789e-01"/>
    <Variable VarIndex="1" Expression="csv_2" Label="csv_2" Title="csv_2" Unit="" Internal="csv_2" Type="F" Min="-1.00000000e+01" Max="9.99425888e-01"/>
    <Variable VarIndex="2" Expression="pt_htautau" Label="pt_htautau" Title="pt_htautau" Unit="" Internal="pt_htautau" Type="F" Min="1.49274722e-01" Max="1.65070703e+03"/>
    <Variable VarIndex="3" Expression="pt_htautau_sv" Label="pt_htautau_sv" Title="pt_htautau_sv" Unit="" Internal="pt_htautau_sv" Type="F" Min="0.00000000e+00" Max="9.69682617e+02"/>
    <Variable VarIndex="4" Expression="p_zeta" Label="p_zeta" Title="p_zeta" Unit="" Internal="p_zeta" Type="F" Min="-4.17893707e+02" Max="1.64533057e+03"/>
    <Variable VarIndex="5" Expression="p_zetavisible" Label="p_zetavisible" Title="p_zetavisible" Unit="" Internal="p_zetavisible" Type="F" Min="4.71170861e-05" Max="1.46022424e+03"/>
    <Variable VarIndex="6" Expression="dR_l1l2Pt_htautau" Label="dR_l1l2Pt_htautau" Title="dR_l1l2Pt_htautau" Unit="" Internal="dR_l1l2Pt_htautau" Type="F" Min="2.86058187e-01" Max="4.24216699e+03"/>
    <Variable VarIndex="7" Expression="dR_l1l2Pt_htautau_sv" Label="dR_l1l2Pt_htautau_sv" Title="dR_l1l2Pt_htautau_sv" Unit="" Internal="dR_l1l2Pt_htautau_sv" Type="F" Min="0.00000000e+00" Max="3.09032349e+03"/>
    <Variable VarIndex="8" Expression="mass_htautau" Label="mass_htautau" Title="mass_htautau" Unit="" Internal="mass_htautau" Type="F" Min="1.51824217e+01" Max="3.02470947e+03"/>
    <Variable VarIndex="9" Expression="mass_htautau_sv" Label="mass_htautau_sv" Title="mass_htautau_sv" Unit="" Internal="mass_htautau_sv" Type="F" Min="1.14995232e+01" Max="9.86155469e+03"/>
    <Variable VarIndex="10" Expression="mass_l1l2" Label="mass_l1l2" Title="mass_l1l2" Unit="" Internal="mass_l1l2" Type="F" Min="9.27007961e+00" Max="1.98584570e+03"/>
    <Variable VarIndex="11" Expression="mass_hbb" Label="mass_hbb" Title="mass_hbb" Unit="" Internal="mass_hbb" Type="F" Min="1.07280302e+01" Max="7.06764648e+03"/>
    <Variable VarIndex="12" Expression="MT_l1" Label="MT_l1" Title="MT_l1" Unit="" Internal="MT_l1" Type="F" Min="2.91134667e-04" Max="1.40168762e+03"/>
    <Variable VarIndex="13" Expression="MT_l2" Label="MT_l2" Title="MT_l2" Unit="" Internal="MT_l2" Type="F" Min="1.43180287e-05" Max="2.18082520e+03"/>
    <Variable VarIndex="14" Expression="MT_tot" Label="MT_tot" Title="MT_tot" Unit="" Internal="MT_tot" Type="F" Min="1.68659613e-01" Max="2.58328345e+03"/>
    <Variable VarIndex="15" Expression="mass_X" Label="mass_X" Title="mass_X" Unit="" Internal="mass_X" Type="F" Min="2.50012115e+02" Max="3.81349927e+03"/>
    <Variable VarIndex="16" Expression="mass_H_sv" Label="mass_H_sv" Title="mass_H_sv" Unit="" Internal="mass_H_sv" Type="F" Min="-2.38162676e+04" Max="1.02234531e+04"/>
    <Variable VarIndex="17" Expression="mass_H_kinfit" Label="mass_H_kinfit" Title="mass_H_kinfit" Unit="" Internal="mass_H_kinfit" Type="F" Min="0.00000000e+00" Max="4.25060352e+03"/>
    <Variable VarIndex="18" Expression="mass_H_kinfit_chi2" Label="mass_H_kinfit_chi2" Title="mass_H_kinfit_chi2" Unit="" Internal="mass_H_kinfit_chi2" Type="F" Min="0.00000000e+00" Max="3.83475244e+03"/>
    <Variable VarIndex="19" Expression="costheta_METhbb" Label="costheta_METhbb" Title="costheta_METhbb" Unit="" Internal="costheta_METhbb" Type="F" Min="-9.99999940e-01" Max="9.99935389e-01"/>
    <Variable VarIndex="20" Expression="mass" Label="mass" Title="mass" Unit="" Internal="mass" Type="F" Min="3.20000000e+02" Max="4.50000000e+02"/>
    <Variable VarIndex="21" Expression="channel" Label="channel" Title="channel" Unit="" Internal="channel" Type="I" Min="0.00000000e+00" Max="2.00000000e+00"/>
    <Variable VarIndex="22" Expression="spin" Label="spin" Title="spin" Unit="" Internal="spin" Type="I" Min="0.00000000e+00" Max="2.00000000e+00"/>
  </Variables>
  <Spectators NSpec="0"/>
  <Classes NClass="2">
    <Class Name="Background" Index="0"/>
    <Class Name="Signal" Index="1"/>
  </Classes>
  <Transformations NTransformations="0"/>
  <MVAPdfs/>
  <Weights NTrees="700" AnalysisType="1">
    <BinaryTree type="DecisionTree" boostWeight="1.0000000000000000e+00" itree="0">
      <Node pos="s" depth="0" NCoef="0" IVar="0" Cut="7.3616069555282593e-01" cType="1" res="-1.3648908585309982e-02" rms="4.9981367588043213e-01" purity="4.8635104298591614e-01" nType="0">
        <Node pos="l" depth="1" NCoef="0" IVar="7" Cut="1.9144419860839844e+02" cType="1" res="-3.4406101703643799e-01" rms="3.6279749870300293e-01" purity="1.5593898296356201e-01" nType="0">
          <Node pos="l" depth="2" NCoef="0" IVar="7" Cut="1.6354910278320312e+02" cType="1" res="-4.4069790840148926e-01" rms="2.3618921637535095e-01" purity="5.9302076697349548e-02" nType="0">
            <Node pos="l" depth="3" NCoef="0" IVar="-1" Cut="0.0000000000000000e+00" cType="1" res="-6.0131172649562359e-03" rms="1.7747619748115540e-01" purity="3.2557807862758636e-02" nType="-99"/>
            <Node pos="r" depth="3" NCoef="0" IVar="-1" Cut="0.0000000000000000e+00" cType="1" res="-3.2845542300492525e-03" rms="3.3800843358039856e-01" purity="1.3155691325664520e-01" nType="-99"/>
          </Node>
          <Node pos="r" depth="2" NCoef="0" IVar="9" Cut="1.7052551269531250e+02" cType="1" res="-1.1045317351818085e-01" rms="4.8764750361442566e-01" purity="3.8954681158065796e-01" nType="0">
            <Node pos="l" depth="3" NCoef="0" IVar="-1" Cut="0.0000000000000000e+00" cType="1" res="-6.8151224695611745e-05" rms="4.9888503551483154e-01" purity="4.6662762761116028e-01" nType="-99"/>
            <Node pos="r" depth="3" NCoef="0" IVar="-1" Cut="0.0000000000000000e+00" cType="1" res="-4.3967529200017452e-03" rms="2.4473629891872406e-01" purity="6.3990660011768341e-02" nType="-99"/>
          </Node>
        </Node>
        <Node pos="r" depth="1" NCoef="0" IVar="17" Cut="3.0603396606445312e+02" cType="1" res="1.6217458248138428e-01" rms="4.7296872735023499e-01" purity="6.6217458248138428e-01" nType="0">
          <Node pos="l" depth="2" NCoef="0" IVar="8" Cut="1.5431262207031250e+02" cType="1" res="-3.0493146181106567e-01" rms="3.9625346660614014e-01" purity="1.9506853818893433e-01" nType="0">
            <Node pos="l" depth="3" NCoef="0" IVar="-1" Cut="0.0000000000000000e+00" cType="1" res="-1.3115549518261105e-04" rms="4.9253061413764954e-01" purity="4.1389772295951843e-01" nType="-99"/>
            <Node pos="r" depth="3" NCoef="0" IVar="-1" Cut="0.0000000000000000e+00" cType="1" res="-8.6345039308071136e-03" rms="2.4641524255275726e-01" purity="6.4937330782413483e-02" nType="-99"/>
          </Node>
          <Node pos="r" depth="2" NCoef="0" IVar="9" Cut="9.1159561157226562e+01" cType="1" res="2.6053655147552490e-01" rms="4.2675602436065674e-01" purity="7.6053655147552490e-01" nType="0">
            <Node pos="l" depth="3" NCoef="0" IVar="-1" Cut="0.0000000000000000e+00" cType="1" res="-1.1441907845437527e-03" rms="4.7453421354293823e-01" purity="3.4246507287025452e-01" nType="-99"/>
            <Node pos="r" depth="3" NCoef="0" IVar="-1" Cut="0.0000000000000000e+00" cType="1" res="3.2284960616379976e-04" rms="3.6957144737243652e-01" purity="8.3677428960800171e-01" nType="-99"/>
          </Node>
        </Node>
      </Node>
    </BinaryTree>
    <BinaryTree type="DecisionTree" boostWeight="1.0000000000000000e+00" itree="1">
      <Node pos="s" depth="0" NCoef="0" IVar="0" Cut="7.8006953001022339e-01" cType="1" res="9.4909165054559708e-03" rms="4.9898657202720642e-01" purity="5.0855016708374023e-01" nType="0">
        <Node pos="l" depth="1" NCoef="0" IVar="7" Cut="1.9738592529296875e+02" cType="1" res="-3.1387975811958313e-01" rms="3.8704985380172729e-01" purity="1.8422181904315948e-01" nType="0">
          <Node pos="l" depth="2" NCoef="0" IVar="1" Cut="5.5898869037628174e-01" cType="1" res="-4.0713709592819214e-01" rms="2.8653720021247864e-01" purity="9.0426258742809296e-02" nType="0">
            <Node pos="l" depth="3" NCoef="0" IVar="-1" Cut="0.0000000000000000e+00" cType="1" res="-4.1157263331115246e-03" rms="2.6358997821807861e-01" purity="7.5234316289424896e-02" nType="-99"/>
            <Node pos="r" depth="3" NCoef="0" IVar="-1" Cut="0.0000000000000000e+00" cType="1" res="2.4966930141090415e-05" rms="4.9927669763565063e-01" purity="5.1105952262878418e-01" nType="-99"/>
          </Node>
          <Node pos="r" depth="2" NCoef="0" IVar="9" Cut="1.6563574218750000e+02" cType="1" res="-6.3289247453212738e-02" rms="4.9554932117462158e-01" purity="4.3625849485397339e-01" nType="0">
            <Node pos="l" depth="3" NCoef="0" IVar="-1" Cut="0.0000000000000000e+00" cType="1" res="1.0727945482358336e-04" rms="4.9855723977088928e-01" purity="5.3777766227722168e-01" nType="-99"/>
            <Node pos="r" depth="3" NCoef="0" IVar="-1" Cut="0.0000000000000000e+00" cType="1" res="-7.5928047299385071e-03" rms="1.6954962909221649e-01" purity="2.9680866748094559e-02" nType="-99"/>
          </Node>
        </Node>
        <Node pos="r" depth="1" NCoef="0" IVar="17" Cut="3.0300012207031250e+02" cType="1" res="1.9351109862327576e-01" rms="4.6049723029136658e-01" purity="6.9311535358428955e-01" nType="0">
          <Node pos="l" depth="2" NCoef="0" IVar="8" Cut="1.2764208984375000e+02" cType="1" res="-3.4334638714790344e-01" rms="3.5993632674217224e-01" purity="1.5377515554428101e-01" nType="0">
            <Node pos="l" depth="3" NCoef="0" IVar="-1" Cut="0.0000000000000000e+00" cType="1" res="-5.7584195019444451e-05" rms="4.9690866470336914e-01" purity="4.4448626041412354e-01" nType="-99"/>
            <Node pos="r" depth="3" NCoef="0" IVar="-1" Cut="0.0000000000000000e+00" cType="1" res="-8.0045331269502640e-03" rms="2.4994476139545441e-01" purity="6.7088648676872253e-02" nType="-99"/>
          </Node>
          <Node pos="r" depth="2" NCoef="0" IVar="9" Cut="9.0211944580078125e+01" cType="1" res="2.8905841708183289e-01" rms="4.0781947970390320e-01" purity="7.8910452127456665e-01" nType="0">
            <Node pos="l" depth="3" NCoef="0" IVar="-1" Cut="0.0000000000000000e+00" cType="1" res="-6.0582527657970786e-04" rms="4.6704953908920288e-01" purity="3.2149955630302429e-01" nType="-99"/>
            <Node pos="r" depth="3" NCoef="0" IVar="-1" Cut="0.0000000000000000e+00" cType="1" res="2.0852475427091122e-04" rms="3.4986466169357300e-01" purity="8.5717678070068359e-01" nType="-99"/>
          </Node>
        </Node>
      </Node>
    </BinaryTree>
    <BinaryTree type="DecisionTree" boostWeight="1.0000000000000000e+00" itree="2">
      <Node pos="s" depth="0" NCoef="0" IVar="0" Cut="7.1420150995254517e-01" cType="1" res="-9.3576200306415558e-03" rms="4.9812549352645874e-01" purity="4.8873174190521240e-01" nType="0">
        <Node pos="l" depth="1" NCoef="0" IVar="7" Cut="1.9144419860839844e+02" cType="1" res="-3.4999221563339233e-01" rms="3.5238742828369141e-01" purity="1.4625443518161774e-01" nType="0">
          <Node pos="l" depth="2" NCoef="0" IVar="0" Cut="6.0727167129516602e-01" cType="1" res="-4.4049739837646484e-01" rms="2.2748315334320068e-01" purity="5.4810672998428345e-02" nType="0">
            <Node pos="l" depth="3" NCoef="0" IVar="-1" Cut="0.0000000000000000e+00" cType="1" res="-5.7357707992196083e-03" rms="1.8594044446945190e-01" purity="3.5896360874176025e-02" nType="-99"/>
            <Node pos="r" depth="3" NCoef="0" IVar="-1" Cut="0.0000000000000000e+00" cType="1" res="-1.5968949301168323e-03" rms="4.1088977456092834e-01" purity="2.1540524065494537e-01" nType="-99"/>
          </Node>
          <Node pos="r" depth="2" NCoef="0" IVar="10" Cut="1.2062726593017578e+02" cType="1" res="-1.2043645232915878e-01" rms="4.8416009545326233e-01" purity="3.7819078564643860e-01" nType="0">
            <Node pos="l" depth="3" NCoef="0" IVar="-1" Cut="0.0000000000000000e+00" cType="1" res="-1.9674653594847769e-04" rms="4.9733033776283264e-01" purity="4.5049059391021729e-01" nType="-99"/>
            <Node pos="r" depth="3" NCoef="0" IVar="-1" Cut="0.0000000000000000e+00" cType="1" res="-7.0714144967496395e-03" rms="1.0149578750133514e-01" purity="1.0393961332738400e-02" nType="-99"/>
          </Node>
        </Node>
        <Node pos="r" depth="1" NCoef="0" IVar="17" Cut="3.0406094360351562e+02" cType="1" res="1.6213694214820862e-01" rms="4.7191742062568665e-01" purity="6.6115403175354004e-01" nType="0">
          <Node pos="l" depth="2" NCoef="0" IVar="8" Cut="1.3669677734375000e+02" cType="1" res="-3.2129055261611938e-01" rms="3.7668502330780029e-01" purity="1.7286004126071930e-01" nType="0">
            <Node pos="l" depth="3" NCoef="0" IVar="-1" Cut="0.0000000000000000e+00" cType="1" res="-2.1043054584879428e-04" rms="4.9594804644584656e-01" purity="4.3749579787254333e-01" nType="-99"/>
            <Node pos="r" depth="3" NCoef="0" IVar="-1" Cut="0.0000000000000000e+00" cType="1" res="-5.6539117358624935e-03" rms="2.5654754042625427e-01" purity="7.0937477052211761e-02" nType="-99"/>
          </Node>
          <Node pos="r" depth="2" NCoef="0" IVar="9" Cut="8.9731750488281250e+01" cType="1" res="2.5985145568847656e-01" rms="4.2691332101821899e-01" purity="7.5985217094421387e-01" nType="0">
            <Node pos="l" depth="3" NCoef="0" IVar="-1" Cut="0.0000000000000000e+00" cType="1" res="-1.7258136067539454e-03" rms="4.5800554752349854e-01" purity="2.9958775639533997e-01" nType="-99"/>
            <Node pos="r" depth="3" NCoef="0" IVar="-1" Cut="0.0000000000000000e+00" cType="1" res="4.8725496162660420e-04" rms="3.7104836106300354e-01" purity="8.3505553007125854e-01" nType="-99"/>
          </Node>
        </Node>
      </Node>
    </BinaryTree>
    <BinaryTree type="DecisionTree" boostWeight="1.0000000000000000e+00" itree="3">
      <Node pos="s" depth="0" NCoef="0" IVar="0" Cut="5.6051492691040039e-01" cType="1" res="-1.5666875988245010e-02" rms="4.9709668755531311e-01" purity="4.8145720362663269e-01" nType="0">
        <Node pos="l" depth="1" NCoef="0" IVar="7" Cut="2.0059555053710938e+02" cType="1" res="-3.7316349148750305e-01" rms="3.2444509863853455e-01" purity="1.2065705657005310e-01" nType="0">
          <Node pos="l" depth="2" NCoef="0" IVar="7" Cut="1.7068544006347656e+02" cType="1" res="-4.3277612328529358e-01" rms="2.3719544708728790e-01" purity="5.9946212917566299e-02" nType="0">
            <Node pos="l" depth="3" NCoef="0" IVar="-1" Cut="0.0000000000000000e+00" cType="1" res="-5.7239485904574394e-03" rms="1.7785568535327911e-01" purity="3.2704956829547882e-02" nType="-99"/>
            <Node pos="r" depth="3" NCoef="0" IVar="-1" Cut="0.0000000000000000e+00" cType="1" res="-2.9181051068007946e-03" rms="3.6029475927352905e-01" purity="1.5326140820980072e-01" nType="-99"/>
          </Node>
          <Node pos="r" depth="2" NCoef="0" IVar="9" Cut="1.5770312500000000e+02" cType="1" res="-1.4341351389884949e-01" rms="4.7711986303329468e-01" purity="3.5463967919349670e-01" nType="0">
            <Node pos="l" depth="3" NCoef="0" IVar="-1" Cut="0.0000000000000000e+00" cType="1" res="-1.7127532919403166e-04" rms="4.9763792753219604e-01" purity="4.5172122120857239e-01" nType="-99"/>
            <Node pos="r" depth="3" NCoef="0" IVar="-1" Cut="0.0000000000000000e+00" cType="1" res="-8.2724317908287048e-03" rms="2.1242906153202057e-01" purity="4.7810506075620651e-02" nType="-99"/>
          </Node>
        </Node>
        <Node pos="r" depth="1" NCoef="0" IVar="17" Cut="2.8657537841796875e+02" cType="1" res="1.2493287771940231e-01" rms="4.8255288600921631e-01" purity="6.2335616350173950e-01" nType="0">
          <Node pos="l" depth="2" NCoef="0" IVar="8" Cut="1.6036090087890625e+02" cType="1" res="-3.7522479891777039e-01" rms="3.1908002495765686e-01" purity="1.1623419821262360e-01" nType="0">
            <Node pos="l" depth="3" NCoef="0" IVar="-1" Cut="0.0000000000000000e+00" cType="1" res="-8.3301443373784423e-04" rms="4.6388468146324158e-01" purity="3.1355229020118713e-01" nType="-99"/>
            <Node pos="r" depth="3" NCoef="0" IVar="-1" Cut="0.0000000000000000e+00" cType="1" res="-3.0088176950812340e-02" rms="1.3395163416862488e-01" purity="1.8278637900948524e-02" nType="-99"/>
          </Node>
          <Node pos="r" depth="2" NCoef="0" IVar="9" Cut="9.0608489990234375e+01" cType="1" res="2.0058652758598328e-01" rms="4.5729303359985352e-01" purity="7.0006328821182251e-01" nType="0">
            <Node pos="l" depth="3" NCoef="0" IVar="-1" Cut="0.0000000000000000e+00" cType="1" res="-2.2357872221618891e-03" rms="4.3820723891258240e-01" purity="2.6002186536788940e-01" nType="-99"/>
            <Node pos="r" depth="3" NCoef="0" IVar="-1" Cut="0.0000000000000000e+00" cType="1" res="5.3041114006191492e-04" rms="4.0901744365692139e-01" purity="7.8664797544479370e-01" nType="-99"/>
          </Node>
        </Node>
      </Node>
    </BinaryTree>
    <BinaryTree type="DecisionTree" boostWeight="1.0000000000000000e+00" itree="4">
      <Node pos="s" depth="0" NCoef="0" IVar="0" Cut="5.8246952295303345e-01" cType="1" res="-1.7563118599355221e-03" rms="4.9584633111953735e-01" purity="4.9388855695724487e-01" nType="0">
        <Node pos="l" depth="1" NCoef="0" IVar="7" Cut="2.0126184082031250e+02" cType="1" res="-3.6632502079010010e-01" rms="3.2920223474502563e-01" purity="1.2527309358119965e-01" nType="0">
          <Node pos="l" depth="2" NCoef="0" IVar="9" Cut="1.0802947998046875e+02" cType="1" res="-4.3054369091987610e-01" rms="2.3661419749259949e-01" purity="5.9673435986042023e-02" nType="0">
            <Node pos="l" depth="3" NCoef="0" IVar="-1" Cut="0.0000000000000000e+00" cType="1" res="-6.7312661558389664e-03" rms="1.8204244971275330e-01" purity="3.4375507384538651e-02" nType="-99"/>
            <Node pos="r" depth="3" NCoef="0" IVar="-1" Cut="0.0000000000000000e+00" cType="1" res="-1.9960843492299318e-03" rms="3.3483943343162537e-01" purity="1.2908771634101868e-01" nType="-99"/>
          </Node>
          <Node pos="r" depth="2" NCoef="0" IVar="9" Cut="1.7181324768066406e+02" cType="1" res="-1.2615413963794708e-01" rms="4.8082575201988220e-01" purity="3.7060868740081787e-01" nType="0">
            <Node pos="l" depth="3" NCoef="0" IVar="-1" Cut="0.0000000000000000e+00" cType="1" res="-1.3242928253021091e-04" rms="4.9860340356826782e-01" purity="4.6586084365844727e-01" nType="-99"/>
            <Node pos="r" depth="3" NCoef="0" IVar="-1" Cut="0.0000000000000000e+00" cType="1" res="-8.8777719065546989e-03" rms="1.5710777044296265e-01" purity="2.5463927537202835e-02" nType="-99"/>
          </Node>
        </Node>
        <Node pos="r" depth="1" NCoef="0" IVar="17" Cut="2.8846411132812500e+02" cType="1" res="1.4150902628898621e-01" rms="4.7659006714820862e-01" purity="6.3874417543411255e-01" nType="0">
          <Node pos="l" depth="2" NCoef="0" IVar="12" Cut="3.1263479232788086e+01" cType="1" res="-3.7796604633331299e-01" rms="3.0033093690872192e-01" purity="1.0336697101593018e-01" nType="0">
            <Node pos="l" depth="3" NCoef="0" IVar="-1" Cut="0.0000000000000000e+00" cType="1" res="-4.9413001397624612e-04" rms="4.6829441189765930e-01" purity="3.3788776397705078e-01" nType="-99"/>
            <Node pos="r" depth="3" NCoef="0" IVar="-1" Cut="0.0000000000000000e+00" cType="1" res="-2.1241605281829834e-02" rms="1.6160514950752258e-01" purity="2.7390422299504280e-02" nType="-99"/>
          </Node>
          <Node pos="r" depth="2" NCoef="0" IVar="9" Cut="8.9446266174316406e+01" cType="1" res="2.1812103688716888e-01" rms="4.4907286763191223e-01" purity="7.1770137548446655e-01" nType="0">
            <Node pos="l" depth="3" NCoef="0" IVar="-1" Cut="0.0000000000000000e+00" cType="1" res="-1.8976337742060423e-03" rms="4.3869760632514954e-01" purity="2.6063761115074158e-01" nType="-99"/>
            <Node pos="r" depth="3" NCoef="0" IVar="-1" Cut="0.0000000000000000e+00" cType="1" res="5.4398330394178629e-04" rms="4.0220069885253906e-01" purity="7.9625809192657471e-01" nType="-99"/>
          </Node>
        </Node>
      </Node>
    </BinaryTree>
    <BinaryTree type="DecisionTree" boostWeight="1.0000000000000000e+00" itree="5">
      <Node pos="s" depth="0" NCoef="0" IVar="0" Cut="7.3615884780883789e-01" cType="1" res="2.3765617981553078e-02" rms="4.9401572346687317e-01" purity="5.1838165521621704e-01" nType="0">
        <Node pos="l" depth="1" NCoef="0" IVar="7" Cut="1.7888099670410156e+02" cType="1" res="-3.3804509043693542e-01" rms="3.5610184073448181e-01" purity="1.5189629793167114e-01" nType="0">
          <Node pos="l" depth="2" NCoef="0" IVar="22" Cut="1.0000000000000000e+00" cType="1" res="-6.9273950066417456e-04" rms="1.8354238942265511e-02" purity="5.1957581192255020e-02" nType="0">
            <Node pos="l" depth="3" NCoef="0" IVar="-1" Cut="0.0000000000000000e+00" cType="1" res="-3.4309965558350086e-03" rms="2.8517800569534302e-01" purity="8.9868083596229553e-02" nType="-99"/>
            <Node pos="r" depth="3" NCoef="0" IVar="-1" Cut="0.0000000000000000e+00" cType="1" res="-7.3088728822767735e-03" rms="1.0332514345645905e-01" purity="1.0858691297471523e-02" nType="-99"/>
          </Node>
          <Node pos="r" depth="2" NCoef="0" IVar="1" Cut="3.4338849782943726e-01" cType="1" res="-1.5852992236614227e-01" rms="4.6929866075515747e-01" purity="3.3574619889259338e-01" nType="0">
            <Node pos="l" depth="3" NCoef="0" IVar="-1" Cut="0.0000000000000000e+00" cType="1" res="-1.9563452806323767e-03" rms="4.2870104312896729e-01" purity="2.4670235812664032e-01" nType="-99"/>
            <Node pos="r" depth="3" NCoef="0" IVar="-1" Cut="0.0000000000000000e+00" cType="1" res="2.6788649847730994e-04" rms="4.8775646090507507e-01" purity="5.9140825271606445e-01" nType="-99"/>
          </Node>
        </Node>
        <Node pos="r" depth="1" NCoef="0" IVar="17" Cut="3.0406094360351562e+02" cType="1" res="1.9691723585128784e-01" rms="4.5555558800697327e-01" purity="6.9377046823501587e-01" nType="0">
          <Node pos="l" depth="2" NCoef="0" IVar="8" Cut="1.3382330322265625e+02" cType="1" res="-2.9633450508117676e-01" rms="3.7821418046951294e-01" purity="1.8153429031372070e-01" nType="0">
            <Node pos="l" depth="3" NCoef="0" IVar="-1" Cut="0.0000000000000000e+00" cType="1" res="-4.2022216803161427e-05" rms="4.9866420030593872e-01" purity="4.8189300298690796e-01" nType="-99"/>
            <Node pos="r" depth="3" NCoef="0" IVar="-1" Cut="0.0000000000000000e+00" cType="1" res="-7.3282318189740181e-03" rms="2.3789879679679871e-01" purity="6.2136568129062653e-02" nType="-99"/>
          </Node>
          <Node pos="r" depth="2" NCoef="0" IVar="9" Cut="8.9515533447265625e+01" cType="1" res="2.8810298442840576e-01" rms="4.0762683749198914e-01" purity="7.8846573829650879e-01" nType="0">
            <Node pos="l" depth="3" NCoef="0" IVar="-1" Cut="0.0000000000000000e+00" cType="1" res="-2.0962192211300135e-03" rms="4.5462292432785034e-01" purity="2.9194691777229309e-01" nType="-99"/>
            <Node pos="r" depth="3" NCoef="0" IVar="-1" Cut="0.0000000000000000e+00" cType="1" res="1.7728147213347256e-04" rms="3.4907963871955872e-01" purity="8.5791647434234619e-01" nType="-99"/>
          </Node>
        </Node>
      </Node>
    </BinaryTree>
    <BinaryTree type="DecisionTree" boostWeight="1.0000000000000000e+00" itree="6">
      <Node pos="s" depth="0" NCoef="0" IVar="0" Cut="7.3615884780883789e-01" cType="1" res="9.2940488830208778e-03" rms="4.9363714456558228e-01" purity="5.0271809101104736e-01" nType="0">
        <Node pos="l" depth="1" NCoef="0" IVar="7" Cut="2.0075106811523438e+02" cType="1" res="-3.2039958238601685e-01" rms="3.7051433324813843e-01" purity="1.6764335334300995e-01" nType="0">
          <Node pos="l" depth="2" NCoef="0" IVar="7" Cut="1.6148002624511719e+02" cType="1" res="-3.9963260293006897e-01" rms="2.7968016266822815e-01" purity="8.6225152015686035e-02" nType="0">
            <Node pos="l" depth="3" NCoef="0" IVar="-1" Cut="0.0000000000000000e+00" cType="1" res="-5.1783327944576740e-03" rms="1.8980592489242554e-01" purity="3.7530727684497833e-02" nType="-99"/>
            <Node pos="r" depth="3" NCoef="0" IVar="-1" Cut="0.0000000000000000e+00" cType="1" res="-2.0681184250861406e-03" rms="3.8352024555206299e-01" purity="1.8029354512691498e-01" nType="-99"/>
          </Node>
          <Node pos="r" depth="2" NCoef="0" IVar="9" Cut="1.6885974121093750e+02" cType="1" res="-7.0101767778396606e-02" rms="4.9129500985145569e-01" purity="4.2484426498413086e-01" nType="0">
            <Node pos="l" depth="3" NCoef="0" IVar="-1" Cut="0.0000000000000000e+00" cType="1" res="8.2336358900647610e-05" rms="4.9936720728874207e-01" purity="5.2247822284698486e-01" nType="-99"/>
            <Node pos="r" depth="3" NCoef="0" IVar="-1" Cut="0.0000000000000000e+00" cType="1" res="-7.5062140822410583e-03" rms="1.6628623008728027e-01" purity="2.8815258294343948e-02" nType="-99"/>
          </Node>
        </Node>
        <Node pos="r" depth="1" NCoef="0" IVar="17" Cut="3.0300012207031250e+02" cType="1" res="1.8206694722175598e-01" rms="4.6110874414443970e-01" purity="6.7831087112426758e-01" nType="0">
          <Node pos="l" depth="2" NCoef="0" IVar="8" Cut="1.3202577209472656e+02" cType="1" res="-3.0092099308967590e-01" rms="3.7123802304267883e-01" purity="1.7413491010665894e-01" nType="0">
            <Node pos="l" depth="3" NCoef="0" IVar="-1" Cut="0.0000000000000000e+00" cType="1" res="-1.4557594113284722e-05" rms="4.9821928143501282e-01" purity="4.8381948471069336e-01" nType="-99"/>
            <Node pos="r" depth="3" NCoef="0" IVar="-1" Cut="0.0000000000000000e+00" cType="1" res="-8.5976980626583099e-03" rms="2.2850592434406281e-01" purity="5.6596115231513977e-02" nType="-99"/>
          </Node>
          <Node pos="r" depth="2" NCoef="0" IVar="9" Cut="9.0211944580078125e+01" cType="1" res="2.7361574769020081e-01" rms="4.1737502813339233e-01" purity="7.7387577295303345e-01" nType="0">
            <Node pos="l" depth="3" NCoef="0" IVar="-1" Cut="0.0000000000000000e+00" cType="1" res="-4.9999094335362315e-04" rms="4.7342941164970398e-01" purity="3.4007829427719116e-01" nType="-99"/>
            <Node pos="r" depth="3" NCoef="0" IVar="-1" Cut="0.0000000000000000e+00" cType="1" res="2.6965854340232909e-04" rms="3.6184260249137878e-01" purity="8.4498161077499390e-01" nType="-99"/>
          </Node>
        </Node>
      </Node>
    </BinaryTree>
    <BinaryTree type="DecisionTree" boostWeight="1.0000000000000000e+00" itree="7">
      <Node pos="s" depth="0" NCoef="0" IVar="0" Cut="7.3616069555282593e-01" cType="1" res="2.1084310486912727e-02" rms="4.9251812696456909e-01" purity="5.1382255554199219e-01" nType="0">
        <Node pos="l" depth="1" NCoef="0" IVar="7" Cut="1.9980047607421875e+02" cType="1" res="-3.2200670242309570e-01" rms="3.6686068773269653e-01" purity="1.6437344253063202e-01" nType="0">
          <Node pos="l" depth="2" NCoef="0" IVar="7" Cut="1.7467582702636719e+02" cType="1" res="-4.0987235307693481e-01" rms="2.6038175821304321e-01" purity="7.3842003941535950e-02" nType="0">
            <Node pos="l" depth="3" NCoef="0" IVar="-1" Cut="0.0000000000000000e+00" cType="1" res="-4.8952973447740078e-03" rms="2.0756004750728607e-01" purity="4.5346163213253021e-02" nType="-99"/>
            <Node pos="r" depth="3" NCoef="0" IVar="-1" Cut="0.0000000000000000e+00" cType="1" res="-2.2100443020462990e-03" rms="3.9053133130073547e-01" purity="1.8873463571071625e-01" nType="-99"/>
          </Node>
          <Node pos="r" depth="2" NCoef="0" IVar="9" Cut="1.6182446289062500e+02" cType="1" res="-5.7393249124288559e-02" rms="4.9239519238471985e-01" purity="4.3701514601707458e-01" nType="0">
            <Node pos="l" depth="3" NCoef="0" IVar="-1" Cut="0.0000000000000000e+00" cType="1" res="4.9561705964151770e-05" rms="4.9832901358604431e-01" purity="5.3903335332870483e-01" nType="-99"/>
            <Node pos="r" depth="3" NCoef="0" IVar="-1" Cut="0.0000000000000000e+00" cType="1" res="-8.2453144714236259e-03" rms="2.2128923237323761e-01" purity="5.2559193223714828e-02" nType="-99"/>
          </Node>
        </Node>
        <Node pos="r" depth="1" NCoef="0" IVar="17" Cut="3.1067095947265625e+02" cType="1" res="1.9341567158699036e-01" rms="4.5606106519699097e-01" purity="6.8934744596481323e-01" nType="0">
          <Node pos="l" depth="2" NCoef="0" IVar="8" Cut="1.3696405029296875e+02" cType="1" res="-2.8679338097572327e-01" rms="3.8177108764648438e-01" purity="1.8748410046100616e-01" nType="0">
            <Node pos="l" depth="3" NCoef="0" IVar="-1" Cut="0.0000000000000000e+00" cType="1" res="-1.5867958427406847e-04" rms="4.9583259224891663e-01" purity="4.5186731219291687e-01" nType="-99"/>
            <Node pos="r" depth="3" NCoef="0" IVar="-1" Cut="0.0000000000000000e+00" cType="1" res="-7.3574860580265522e-03" rms="2.5442567467689514e-01" purity="7.1699477732181549e-02" nType="-99"/>
          </Node>
          <Node pos="r" depth="2" NCoef="0" IVar="9" Cut="8.8072021484375000e+01" cType="1" res="2.9232370853424072e-01" rms="4.0439134836196899e-01" purity="7.9271566867828369e-01" nType="0">
            <Node pos="l" depth="3" NCoef="0" IVar="-1" Cut="0.0000000000000000e+00" cType="1" res="-1.3711580540984869e-03" rms="4.6518859267234802e-01" purity="3.1676629185676575e-01" nType="-99"/>
            <Node pos="r" depth="3" NCoef="0" IVar="-1" Cut="0.0000000000000000e+00" cType="1" res="1.1978561815340072e-04" rms="3.4977176785469055e-01" purity="8.5718947649002075e-01" nType="-99"/>
          </Node>
        </Node>
      </Node>
    </BinaryTree>
    <BinaryTree type="DecisionTree" boostWeight="1.0000000000000000e+00" itree="8">
      <Node pos="s" depth="0" NCoef="0" IVar="0" Cut="7.3615866899490356e-01" cType="1" res="1.0682939551770687e-02" rms="4.9206289649009705e-01" purity="5.0219094753265381e-01" nType="0">
        <Node pos="l" depth="1" NCoef="0" IVar="7" Cut="1.9121762084960938e+02" cType="1" res="-3.0370834469795227e-01" rms="3.8047099113464355e-01" purity="1.8109405040740967e-01" nType="0">
          <Node pos="l" depth="2" NCoef="0" IVar="0" Cut="6.0757583379745483e-01" cType="1" res="-4.0486198663711548e-01" rms="2.6393431425094604e-01" purity="7.6130703091621399e-02" nType="0">
            <Node pos="l" depth="3" NCoef="0" IVar="-1" Cut="0.0000000000000000e+00" cType="1" res="-4.9185934476554394e-03" rms="2.1943399310112000e-01" purity="5.0949193537235260e-02" nType="-99"/>
            <Node pos="r" depth="3" NCoef="0" IVar="-1" Cut="0.0000000000000000e+00" cType="1" res="-1.5637035248801112e-03" rms="4.2828088998794556e-01" purity="2.4570612609386444e-01" nType="-99"/>
          </Node>
          <Node pos="r" depth="2" NCoef="0" IVar="9" Cut="1.6756427001953125e+02" cType="1" res="-6.5437488257884979e-02" rms="4.9068972468376160e-01" purity="4.2833879590034485e-01" nType="0">
            <Node pos="l" depth="3" NCoef="0" IVar="-1" Cut="0.0000000000000000e+00" cType="1" res="1.5700010408181697e-05" rms="4.9888643622398376e-01" purity="5.0898045301437378e-01" nType="-99"/>
            <Node pos="r" depth="3" NCoef="0" IVar="-1" Cut="0.0000000000000000e+00" cType="1" res="-8.4931841120123863e-03" rms="1.8151789903640747e-01" purity="3.4487355500459671e-02" nType="-99"/>
          </Node>
        </Node>
        <Node pos="r" depth="1" NCoef="0" IVar="17" Cut="3.0202221679687500e+02" cType="1" res="1.8011437356472015e-01" rms="4.6111214160919189e-01" purity="6.7523616552352905e-01" nType="0">
          <Node pos="l" depth="2" NCoef="0" IVar="17" Cut="2.7067428588867188e+02" cType="1" res="-2.6681163907051086e-01" rms="3.9265015721321106e-01" purity="2.0216207206249237e-01" nType="0">
            <Node pos="l" depth="3" NCoef="0" IVar="-1" Cut="0.0000000000000000e+00" cType="1" res="-1.2957248836755753e-02" rms="2.0539090037345886e-01" purity="4.6286031603813171e-02" nType="-99"/>
            <Node pos="r" depth="3" NCoef="0" IVar="-1" Cut="0.0000000000000000e+00" cType="1" res="-1.5302906103897840e-04" rms="4.8179113864898682e-01" purity="3.8774839043617249e-01" nType="-99"/>
          </Node>
          <Node pos="r" depth="2" NCoef="0" IVar="9" Cut="9.0211944580078125e+01" cType="1" res="2.6659056544303894e-01" rms="4.2167219519615173e-01" purity="7.6677173376083374e-01" nType="0">
            <Node pos="l" depth="3" NCoef="0" IVar="-1" Cut="0.0000000000000000e+00" cType="1" res="-3.5767120425589383e-04" rms="4.7056993842124939e-01" purity="3.3245521783828735e-01" nType="-99"/>
            <Node pos="r" depth="3" NCoef="0" IVar="-1" Cut="0.0000000000000000e+00" cType="1" res="4.2763882083818316e-04" rms="3.6551541090011597e-01" purity="8.4096872806549072e-01" nType="-99"/>
          </Node>
        </Node>
      </Node>
    </BinaryTree>
    <BinaryTree type="DecisionTree" boostWeight="1.0000000000000000e+00" itree="9">
      <Node pos="s" depth="0" NCoef="0" IVar="0" Cut="7.3616069555282593e-01" cType="1" res="-2.5715178344398737e-03" rms="4.9085381627082825e-01" purity="4.8785427212715149e-01" nType="0">
        <Node pos="l" depth="1" NCoef="0" IVar="7" Cut="1.9738592529296875e+02" cType="1" res="-3.1744444370269775e-01" rms="3.6657840013504028e-01" purity="1.6524729132652283e-01" nType="0">
          <Node pos="l" depth="2" NCoef="0" IVar="0" Cut="6.5042740106582642e-01" cType="1" res="-4.0167883038520813e-01" rms="2.6591643691062927e-01" purity="7.7591687440872192e-02" nType="0">
            <Node pos="l" depth="3" NCoef="0" IVar="-1" Cut="0.0000000000000000e+00" cType="1" res="-5.0406786613166332e-03" rms="2.3389625549316406e-01" purity="5.8567933738231659e-02" nType="-99"/>
            <Node pos="r" depth="3" NCoef="0" IVar="-1" Cut="0.0000000000000000e+00" cType="1" res="-9.0804114006459713e-04" rms="4.4064691662788391e-01" purity="2.6878449320793152e-01" nType="-99"/>
          </Node>
          <Node pos="r" depth="2" NCoef="0" IVar="9" Cut="1.5694807434082031e+02" cType="1" res="-8.2019455730915070e-02" rms="4.8689720034599304e-01" purity="4.1023418307304382e-01" nType="0">
            <Node pos="l" depth="3" NCoef="0" IVar="-1" Cut="0.0000000000000000e+00" cType="1" res="5.1294118748046458e-05" rms="4.9941706657409668e-01" purity="5.1623725891113281e-01" nType="-99"/>
            <Node pos="r" depth="3" NCoef="0" IVar="-1" Cut="0.0000000000000000e+00" cType="1" res="-5.7940962724387646e-03" rms="2.2799474000930786e-01" purity="5.6200206279754639e-02" nType="-99"/>
          </Node>
        </Node>
        <Node pos="r" depth="1" NCoef="0" IVar="17" Cut="3.0406094360351562e+02" cType="1" res="1.6769939661026001e-01" rms="4.6470832824707031e-01" purity="6.6230750083923340e-01" nType="0">
          <Node pos="l" depth="2" NCoef="0" IVar="14" Cut="1.2650272369384766e+02" cType="1" res="-3.0837538838386536e-01" rms="3.5416549444198608e-01" purity="1.5691725909709930e-01" nType="0">
            <Node pos="l" depth="3" NCoef="0" IVar="-1" Cut="0.0000000000000000e+00" cType="1" res="-6.3888716977089643e-04" rms="4.6942508220672607e-01" purity="3.4382569789886475e-01" nType="-99"/>
            <Node pos="r" depth="3" NCoef="0" IVar="-1" Cut="0.0000000000000000e+00" cType="1" res="-2.3074405267834663e-02" rms="1.5019120275974274e-01" purity="2.3535011336207390e-02" nType="-99"/>
          </Node>
          <Node pos="r" depth="2" NCoef="0" IVar="9" Cut="8.6906135559082031e+01" cType="1" res="2.6197773218154907e-01" rms="4.2439123988151550e-01" purity="7.6239126920700073e-01" nType="0">
            <Node pos="l" depth="3" NCoef="0" IVar="-1" Cut="0.0000000000000000e+00" cType="1" res="-2.1591109689325094e-03" rms="4.3108263611793518e-01" purity="2.4677573144435883e-01" nType="-99"/>
            <Node pos="r" depth="3" NCoef="0" IVar="-1" Cut="0.0000000000000000e+00" cType="1" res="5.8817776152864099e-04" rms="3.7411835789680481e-01" purity="8.3146679401397705e-01" nType="-99"/>
          </Node>
        </Node>
      </Node>
    </BinaryTree>
    <BinaryTree type="DecisionTree" boostWeight="1.0000000000000000e+00" itree="10">
      <Node pos="s" depth="0" NCoef="0" IVar="0" Cut="6.7029470205307007e-01" cType="1" res="6.6599152050912380e-03" rms="4.8979842662811279e-01" purity="4.9579972028732300e-01" nType="0">
        <Node pos="l" depth="1" NCoef="0" IVar="7" Cut="1.9121762084960938e+02" cType="1" res="-3.3524426817893982e-01" rms="3.4719014167785645e-01" purity="1.4486622810363770e-01" nType="0">
          <Node pos="l" depth="2" NCoef="0" IVar="7" Cut="1.6335366821289062e+02" cType="1" res="-4.1189992427825928e-01" rms="2.4363853037357330e-01" purity="6.3982501626014709e-02" nType="0">
            <Node pos="l" depth="3" NCoef="0" IVar="-1" Cut="0.0000000000000000e+00" cType="1" res="-5.6593152694404125e-03" rms="1.6984054446220398e-01" purity="2.9899697750806808e-02" nType="-99"/>
            <Node pos="r" depth="3" NCoef="0" IVar="-1" Cut="0.0000000000000000e+00" cType="1" res="-2.1903601009398699e-03" rms="3.5972836613655090e-01" purity="1.5350987017154694e-01" nType="-99"/>
          </Node>
          <Node pos="r" depth="2" NCoef="0" IVar="10" Cut="1.1611089324951172e+02" cType="1" res="-1.3711832463741302e-01" rms="4.7352942824363708e-01" purity="3.5392016172409058e-01" nType="0">
            <Node pos="l" depth="3" NCoef="0" IVar="-1" Cut="0.0000000000000000e+00" cType="1" res="-2.6164378505200148e-04" rms="4.9334809184074402e-01" purity="4.2844277620315552e-01" nType="-99"/>
            <Node pos="r" depth="3" NCoef="0" IVar="-1" Cut="0.0000000000000000e+00" cType="1" res="-6.9639622233808041e-03" rms="1.1508523672819138e-01" purity="1.3471557758748531e-02" nType="-99"/>
          </Node>
        </Node>
        <Node pos="r" depth="1" NCoef="0" IVar="17" Cut="3.0543258666992188e+02" cType="1" res="1.6464641690254211e-01" rms="4.6484503149986267e-01" purity="6.5795850753784180e-01" nType="0">
          <Node pos="l" depth="2" NCoef="0" IVar="8" Cut="1.6032789611816406e+02" cType="1" res="-2.8902888298034668e-01" rms="3.6546874046325684e-01" purity="1.7043614387512207e-01" nType="0">
            <Node pos="l" depth="3" NCoef="0" IVar="-1" Cut="0.0000000000000000e+00" cType="1" res="-5.2916118875145912e-04" rms="4.7398862242698669e-01" purity="3.5112997889518738e-01" nType="-99"/>
            <Node pos="r" depth="3" NCoef="0" IVar="-1" Cut="0.0000000000000000e+00" cType="1" res="-8.4535013884305954e-03" rms="2.1894231438636780e-01" purity="5.2258856594562531e-02" nType="-99"/>
          </Node>
          <Node pos="r" depth="2" NCoef="0" IVar="9" Cut="9.0428169250488281e+01" cType="1" res="2.5662937760353088e-01" rms="4.2733979225158691e-01" purity="7.5680398941040039e-01" nType="0">
            <Node pos="l" depth="3" NCoef="0" IVar="-1" Cut="0.0000000000000000e+00" cType="1" res="-5.5063085164874792e-04" rms="4.7071534395217896e-01" purity="3.3355793356895447e-01" nType="-99"/>
            <Node pos="r" depth="3" NCoef="0" IVar="-1" Cut="0.0000000000000000e+00" cType="1" res="2.1627252863254398e-04" rms="3.7277841567993164e-01" purity="8.3286285400390625e-01" nType="-99"/>
          </Node>
        </Node>
      </Node>
    </BinaryTree>
    <BinaryTree type="DecisionTree" boostWeight="1.0000000000000000e+00" itree="11">
      <Node pos="s" depth="0" NCoef="0" IVar="0" Cut="7.3616069555282593e-01" cType="1" res="1.0764653794467449e-02" rms="4.8905357718467712e-01" purity="4.9912649393081665e-01" nType="0">
        <Node pos="l" depth="1" NCoef="0" IVar="7" Cut="1.9121762084960938e+02" cType="1" res="-3.0391371250152588e-01" rms="3.7428411841392517e-01" purity="1.7532683908939362e-01" nType="0">
          <Node pos="l" depth="2" NCoef="0" IVar="1" Cut="3.0178838968276978e-01" cType="1" res="-4.0086993575096130e-01" rms="2.5912305712699890e-01" purity="7.3339708149433136e-02" nType="0">
            <Node pos="l" depth="3" NCoef="0" IVar="-1" Cut="0.0000000000000000e+00" cType="1" res="-5.8106086216866970e-03" rms="1.9280503690242767e-01" purity="3.9017628878355026e-02" nType="-99"/>
            <Node pos="r" depth="3" NCoef="0" IVar="-1" Cut="0.0000000000000000e+00" cType="1" res="-1.4711616095155478e-03" rms="3.8961029052734375e-01" purity="1.8950888514518738e-01" nType="-99"/>
          </Node>
          <Node pos="r" depth="2" NCoef="0" IVar="9" Cut="1.0222737884521484e+02" cType="1" res="-7.4768841266632080e-02" rms="4.8760494589805603e-01" purity="4.1636165976524353e-01" nType="0">
            <Node pos="l" depth="3" NCoef="0" IVar="-1" Cut="0.0000000000000000e+00" cType="1" res="-7.5770872645080090e-03" rms="2.8779518604278564e-01" purity="9.1639608144760132e-02" nType="-99"/>
            <Node pos="r" depth="3" NCoef="0" IVar="-1" Cut="0.0000000000000000e+00" cType="1" res="-9.1125975814065896e-06" rms="4.9279180169105530e-01" purity="4.8562827706336975e-01" nType="-99"/>
          </Node>
        </Node>
        <Node pos="r" depth="1" NCoef="0" IVar="17" Cut="3.1536749267578125e+02" cType="1" res="1.7688943445682526e-01" rms="4.6000960469245911e-01" purity="6.7006659507751465e-01" nType="0">
          <Node pos="l" depth="2" NCoef="0" IVar="9" Cut="1.5793898010253906e+02" cType="1" res="-2.4541841447353363e-01" rms="3.9953801035881042e-01" purity="2.1681277453899384e-01" nType="0">
            <Node pos="l" depth="3" NCoef="0" IVar="-1" Cut="0.0000000000000000e+00" cType="1" res="-2.9288846417330205e-04" rms="4.8035445809364319e-01" purity="3.8415059447288513e-01" nType="-99"/>
            <Node pos="r" depth="3" NCoef="0" IVar="-1" Cut="0.0000000000000000e+00" cType="1" res="-1.8725235015153885e-02" rms="1.8029303848743439e-01" purity="3.4631576389074326e-02" nType="-99"/>
          </Node>
          <Node pos="r" depth="2" NCoef="0" IVar="9" Cut="9.0428169250488281e+01" cType="1" res="2.7878546714782715e-01" rms="4.1320219635963440e-01" purity="7.7942943572998047e-01" nType="0">
            <Node pos="l" depth="3" NCoef="0" IVar="-1" Cut="0.0000000000000000e+00" cType="1" res="-2.8316743555478752e-04" rms="4.7958266735076904e-01" purity="3.6149632930755615e-01" nType="-99"/>
            <Node pos="r" depth="3" NCoef="0" IVar="-1" Cut="0.0000000000000000e+00" cType="1" res="4.4719129800796509e-04" rms="3.5413748025894165e-01" purity="8.5293680429458618e-01" nType="-99"/>
          </Node>
        </Node>
      </Node>
    </BinaryTree>
    <BinaryTree type="DecisionTree" boostWeight="1.0000000000000000e+00" itree="12">
      <Node pos="s" depth="0" NCoef="0" IVar="0" Cut="7.1420538425445557e-01" cType="1" res="1.6345610842108727e-02" rms="4.8788139224052429e-01" purity="5.0369769334793091e-01" nType="0">
        <Node pos="l" depth="1" NCoef="0" IVar="7" Cut="1.9980047607421875e+02" cType="1" res="-3.0209982395172119e-01" rms="3.7363731861114502e-01" purity="1.7510537803173065e-01" nType="0">
          <Node pos="l" depth="2" NCoef="0" IVar="7" Cut="1.7068579101562500e+02" cType="1" res="-3.8955530524253845e-01" rms="2.7392932772636414e-01" purity="8.2845263183116913e-02" nType="0">
            <Node pos="l" depth="3" NCoef="0" IVar="-1" Cut="0.0000000000000000e+00" cType="1" res="-5.2736932411789894e-03" rms="2.2187709808349609e-01" purity="5.2276279777288437e-02" nType="-99"/>
            <Node pos="r" depth="3" NCoef="0" IVar="-1" Cut="0.0000000000000000e+00" cType="1" res="-2.4044148158282042e-03" rms="3.8430127501487732e-01" purity="1.8177373707294464e-01" nType="-99"/>
          </Node>
          <Node pos="r" depth="2" NCoef="0" IVar="9" Cut="1.7052551269531250e+02" cType="1" res="-5.2371684461832047e-02" rms="4.8966577649116516e-01" purity="4.3855312466621399e-01" nType="0">
            <Node pos="l" depth="3" NCoef="0" IVar="-1" Cut="0.0000000000000000e+00" cType="1" res="1.0430897964397445e-04" rms="4.9739077687263489e-01" purity="5.3661721944808960e-01" nType="-99"/>
            <Node pos="r" depth="3" NCoef="0" IVar="-1" Cut="0.0000000000000000e+00" cType="1" res="-6.1530699022114277e-03" rms="1.4683148264884949e-01" purity="2.2037316113710403e-02" nType="-99"/>
          </Node>
        </Node>
        <Node pos="r" depth="1" NCoef="0" IVar="17" Cut="3.0918380737304688e+02" cType="1" res="1.7733472585678101e-01" rms="4.5891410112380981e-01" purity="6.6981661319732666e-01" nType="0">
          <Node pos="l" depth="2" NCoef="0" IVar="9" Cut="1.5799002075195312e+02" cType="1" res="-2.6362037658691406e-01" rms="3.7909680604934692e-01" purity="1.9116894900798798e-01" nType="0">
            <Node pos="l" depth="3" NCoef="0" IVar="-1" Cut="0.0000000000000000e+00" cType="1" res="-4.9314287025481462e-04" rms="4.7351241111755371e-01" purity="3.5937020182609558e-01" nType="-99"/>
            <Node pos="r" depth="3" NCoef="0" IVar="-1" Cut="0.0000000000000000e+00" cType="1" res="-1.4147562906146049e-02" rms="1.5912351012229919e-01" purity="2.6854759082198143e-02" nType="-99"/>
          </Node>
          <Node pos="r" depth="2" NCoef="0" IVar="9" Cut="9.0109115600585938e+01" cType="1" res="2.7258712053298950e-01" rms="4.1710403561592102e-01" purity="7.7321106195449829e-01" nType="0">
            <Node pos="l" depth="3" NCoef="0" IVar="-1" Cut="0.0000000000000000e+00" cType="1" res="-1.3485156232491136e-03" rms="4.6970424056053162e-01" purity="3.3011403679847717e-01" nType="-99"/>
            <Node pos="r" depth="3" NCoef="0" IVar="-1" Cut="0.0000000000000000e+00" cType="1" res="2.0374407176859677e-04" rms="3.5995173454284668e-01" purity="8.4680002927780151e-01" nType="-99"/>
          </Node>
        </Node>
      </Node>
    </BinaryTree>
    <BinaryTree type="DecisionTree" boostWeight="1.0000000000000000e+00" itree="13">
      <Node pos="s" depth="0" NCoef="0" IVar="0" Cut="7.5811290740966797e-01" cType="1" res="7.2015142068266869e-03" rms="4.8692104220390320e-01" purity="4.9319720268249512e-01" nType="0">
        <Node pos="l" depth="1" NCoef="0" IVar="7" Cut="1.8653536987304688e+02" cType="1" res="-3.0199646949768066e-01" rms="3.7210935354232788e-01" purity="1.7341721057891846e-01" nType="0">
          <Node pos="l" depth="2" NCoef="0" IVar="1" Cut="4.1186651587486267e-01" cType="1" res="-3.9174154400825500e-01" rms="2.6576781272888184e-01" purity="7.7927380800247192e-02" nType="0">
            <Node pos="l" depth="3" NCoef="0" IVar="-1" Cut="0.0000000000000000e+00" cType="1" res="-4.9419370479881763e-03" rms="2.1954302489757538e-01" purity="5.1422398537397385e-02" nType="-99"/>
            <Node pos="r" depth="3" NCoef="0" IVar="-1" Cut="0.0000000000000000e+00" cType="1" res="-9.8698143847286701e-04" rms="4.2535832524299622e-01" purity="2.4302034080028534e-01" nType="-99"/>
          </Node>
          <Node pos="r" depth="2" NCoef="0" IVar="0" Cut="3.2862499356269836e-01" cType="1" res="-1.0671985149383545e-01" rms="4.8000523447990417e-01" purity="3.8119387626647949e-01" nType="0">
            <Node pos="l" depth="3" NCoef="0" IVar="-1" Cut="0.0000000000000000e+00" cType="1" res="-2.4907761253416538e-03" rms="3.7495332956314087e-01" purity="1.7483745515346527e-01" nType="-99"/>
            <Node pos="r" depth="3" NCoef="0" IVar="-1" Cut="0.0000000000000000e+00" cType="1" res="-4.5785152906319126e-05" rms="4.9356260895729065e-01" purity="4.7464478015899658e-01" nType="-99"/>
          </Node>
        </Node>
        <Node pos="r" depth="1" NCoef="0" IVar="17" Cut="3.0569375610351562e+02" cType="1" res="1.8196246027946472e-01" rms="4.5635458827018738e-01" purity="6.7393910884857178e-01" nType="0">
          <Node pos="l" depth="2" NCoef="0" IVar="12" Cut="4.2772159576416016e+01" cType="1" res="-2.6298066973686218e-01" rms="3.7265443801879883e-01" purity="1.8645665049552917e-01" nType="0">
            <Node pos="l" depth="3" NCoef="0" IVar="-1" Cut="0.0000000000000000e+00" cType="1" res="-3.1407394999405369e-05" rms="4.8035618662834167e-01" purity="4.3851065635681152e-01" nType="-99"/>
            <Node pos="r" depth="3" NCoef="0" IVar="-1" Cut="0.0000000000000000e+00" cType="1" res="-9.1747995465993881e-03" rms="2.2086532413959503e-01" purity="5.3875181823968887e-02" nType="-99"/>
          </Node>
          <Node pos="r" depth="2" NCoef="0" IVar="9" Cut="9.0142677307128906e+01" cType="1" res="2.7343466877937317e-01" rms="4.1648212075233459e-01" purity="7.7415668964385986e-01" nType="0">
            <Node pos="l" depth="3" NCoef="0" IVar="-1" Cut="0.0000000000000000e+00" cType="1" res="-1.5057352138683200e-03" rms="4.6622550487518311e-01" purity="3.1992810964584351e-01" nType="-99"/>
            <Node pos="r" depth="3" NCoef="0" IVar="-1" Cut="0.0000000000000000e+00" cType="1" res="3.0223582871258259e-04" rms="3.6039495468139648e-01" purity="8.4635829925537109e-01" nType="-99"/>
          </Node>
        </Node>
      </Node>
    </BinaryTree>
    <BinaryTree type="DecisionTree" boostWeight="1.0000000000000000e+00" itree="14">
      <Node pos="s" depth="0" NCoef="0" IVar="0" Cut="7.3615884780883789e-01" cType="1" res="1.2253127060830593e-02" rms="4.8616015911102295e-01" purity="4.9735796451568604e-01" nType="0">
        <Node pos="l" depth="1" NCoef="0" IVar="7" Cut="1.8769136047363281e+02" cType="1" res="-3.0887371301651001e-01" rms="3.6398291587829590e-01" purity="1.6454498469829559e-01" nType="0">
          <Node pos="l" depth="2" NCoef="0" IVar="0" Cut="6.2900531291961670e-01" cType="1" res="-3.9410153031349182e-01" rms="2.5826901197433472e-01" purity="7.2952397167682648e-02" nType="0">
            <Node pos="l" depth="3" NCoef="0" IVar="-1" Cut="0.0000000000000000e+00" cType="1" res="-4.3240771628916264e-03" rms="2.2120329737663269e-01" purity="5.1951792091131210e-02" nType="-99"/>
            <Node pos="r" depth="3" NCoef="0" IVar="-1" Cut="0.0000000000000000e+00" cType="1" res="-1.1995683889836073e-03" rms="4.2800173163414001e-01" purity="2.4526667594909668e-01" nType="-99"/>
          </Node>
          <Node pos="r" depth="2" NCoef="0" IVar="9" Cut="1.5842875671386719e+02" cType="1" res="-1.1187514662742615e-01" rms="4.7846961021423340e-01" purity="3.7625530362129211e-01" nType="0">
            <Node pos="l" depth="3" NCoef="0" IVar="-1" Cut="0.0000000000000000e+00" cType="1" res="-1.4392347657121718e-04" rms="4.9573454260826111e-01" purity="4.5382782816886902e-01" nType="-99"/>
            <Node pos="r" depth="3" NCoef="0" IVar="-1" Cut="0.0000000000000000e+00" cType="1" res="-6.5491967834532261e-03" rms="2.3381975293159485e-01" purity="5.9601455926895142e-02" nType="-99"/>
          </Node>
        </Node>
        <Node pos="r" depth="1" NCoef="0" IVar="17" Cut="3.0406094360351562e+02" cType="1" res="1.7890547215938568e-01" rms="4.5712763071060181e-01" purity="6.7007499933242798e-01" nType="0">
          <Node pos="l" depth="2" NCoef="0" IVar="8" Cut="1.4038461303710938e+02" cType="1" res="-2.8597134351730347e-01" rms="3.5024806857109070e-01" purity="1.5654626488685608e-01" nType="0">
            <Node pos="l" depth="3" NCoef="0" IVar="-1" Cut="0.0000000000000000e+00" cType="1" res="-4.6452032984234393e-04" rms="4.8453515768051147e-01" purity="3.8423523306846619e-01" nType="-99"/>
            <Node pos="r" depth="3" NCoef="0" IVar="-1" Cut="0.0000000000000000e+00" cType="1" res="-5.1676193252205849e-03" rms="2.5102409720420837e-01" purity="7.0791758596897125e-02" nType="-99"/>
          </Node>
          <Node pos="r" depth="2" NCoef="0" IVar="9" Cut="9.0428169250488281e+01" cType="1" res="2.6914539933204651e-01" rms="4.1907349228858948e-01" purity="7.6975899934768677e-01" nType="0">
            <Node pos="l" depth="3" NCoef="0" IVar="-1" Cut="0.0000000000000000e+00" cType="1" res="-1.2356668012216687e-03" rms="4.7082906961441040e-01" purity="3.3288013935089111e-01" nType="-99"/>
            <Node pos="r" depth="3" NCoef="0" IVar="-1" Cut="0.0000000000000000e+00" cType="1" res="2.6485073613002896e-04" rms="3.6211922764778137e-01" purity="8.4443598985671997e-01" nType="-99"/>
          </Node>
        </Node>
      </Node>
    </BinaryTree>
    <BinaryTree type="DecisionTree" boostWeight="1.0000000000000000e+00" itree="15">
      <Node pos="s" depth="0" NCoef="0" IVar="0" Cut="7.3615866899490356e-01" cType="1" res="2.1885754540562630e-02" rms="4.8532065749168396e-01" purity="5.0667339563369751e-01" nType="0">
        <Node pos="l" depth="1" NCoef="0" IVar="7" Cut="1.7271269226074219e+02" cType="1" res="-3.0115541815757751e-01" rms="3.6888137459754944e-01" purity="1.7069575190544128e-01" nType="0">
          <Node pos="l" depth="2" NCoef="0" IVar="1" Cut="3.0272749066352844e-01" cType="1" res="-4.0954464673995972e-01" rms="2.2487212717533112e-01" purity="5.4211482405662537e-02" nType="0">
            <Node pos="l" depth="3" NCoef="0" IVar="-1" Cut="0.0000000000000000e+00" cType="1" res="-6.9011216983199120e-03" rms="1.4836241304874420e-01" purity="2.2679319605231285e-02" nType="-99"/>
            <Node pos="r" depth="3" NCoef="0" IVar="-1" Cut="0.0000000000000000e+00" cType="1" res="-1.7009988659992814e-03" rms="3.6536613106727600e-01" purity="1.6054444015026093e-01" nType="-99"/>
          </Node>
          <Node pos="r" depth="2" NCoef="0" IVar="1" Cut="1.6933286190032959e-01" cType="1" res="-1.4405114948749542e-01" rms="4.6722543239593506e-01" purity="3.3953332901000977e-01" nType="0">
            <Node pos="l" depth="3" NCoef="0" IVar="-1" Cut="0.0000000000000000e+00" cType="1" res="-3.4358897246420383e-03" rms="3.6254251003265381e-01" purity="1.6032676398754120e-01" nType="-99"/>
            <Node pos="r" depth="3" NCoef="0" IVar="-1" Cut="0.0000000000000000e+00" cType="1" res="-8.9002525783143938e-05" rms="4.9135997891426086e-01" purity="4.5639219880104065e-01" nType="-99"/>
          </Node>
        </Node>
        <Node pos="r" depth="1" NCoef="0" IVar="17" Cut="3.0406094360351562e+02" cType="1" res="1.8817131221294403e-01" rms="4.5317393541336060e-01" purity="6.7961794137954712e-01" nType="0">
          <Node pos="l" depth="2" NCoef="0" IVar="9" Cut="1.6375662231445312e+02" cType="1" res="-2.8046980500221252e-01" rms="3.5274615883827209e-01" purity="1.6169194877147675e-01" nType="0">
            <Node pos="l" depth="3" NCoef="0" IVar="-1" Cut="0.0000000000000000e+00" cType="1" res="-7.3892599903047085e-04" rms="4.5617175102233887e-01" purity="3.1389275193214417e-01" nType="-99"/>
            <Node pos="r" depth="3" NCoef="0" IVar="-1" Cut="0.0000000000000000e+00" cType="1" res="-2.9307056218385696e-02" rms="1.3050535321235657e-01" purity="1.7676230520009995e-02" nType="-99"/>
          </Node>
          <Node pos="r" depth="2" NCoef="0" IVar="9" Cut="9.0428169250488281e+01" cType="1" res="2.7671593427658081e-01" rms="4.1391175985336304e-01" purity="7.7747440338134766e-01" nType="0">
            <Node pos="l" depth="3" NCoef="0" IVar="-1" Cut="0.0000000000000000e+00" cType="1" res="-1.8111401004716754e-03" rms="4.6162438392639160e-01" purity="3.0881202220916748e-01" nType="-99"/>
            <Node pos="r" depth="3" NCoef="0" IVar="-1" Cut="0.0000000000000000e+00" cType="1" res="2.7793567278422415e-04" rms="3.5625067353248596e-01" purity="8.5050129890441895e-01" nType="-99"/>
          </Node>
        </Node>
      </Node>
    </BinaryTree>
    <BinaryTree type="DecisionTree" boostWeight="1.0000000000000000e+00" itree="16">
      <Node pos="s" depth="0" NCoef="0" IVar="0" Cut="7.1420538425445557e-01" cType="1" res="7.1811620146036148e-03" rms="4.8406916856765747e-01" purity="4.8992681503295898e-01" nType="0">
        <Node pos="l" depth="1" NCoef="0" IVar="7" Cut="1.8670960998535156e+02" cType="1" res="-3.1648728251457214e-01" rms="3.5221660137176514e-01" purity="1.5276040136814117e-01" nType="0">
          <Node pos="l" depth="2" NCoef="0" IVar="1" Cut="2.5876724720001221e-01" cType="1" res="-4.0378329157829285e-01" rms="2.3261952400207520e-01" purity="5.8090750128030777e-02" nType="0">
            <Node pos="l" depth="3" NCoef="0" IVar="-1" Cut="0.0000000000000000e+00" cType="1" res="-5.6568798609077930e-03" rms="1.9129966199398041e-01" purity="3.8333106786012650e-02" nType="-99"/>
            <Node pos="r" depth="3" NCoef="0" IVar="-1" Cut="0.0000000000000000e+00" cType="1" res="-2.8329340275377035e-03" rms="3.1588008999824524e-01" purity="1.1353038251399994e-01" nType="-99"/>
          </Node>
          <Node pos="r" depth="2" NCoef="0" IVar="3" Cut="1.0783618164062500e+02" cType="1" res="-1.1250726878643036e-01" rms="4.7757524251937866e-01" purity="3.7397003173828125e-01" nType="0">
            <Node pos="l" depth="3" NCoef="0" IVar="-1" Cut="0.0000000000000000e+00" cType="1" res="-4.1337036527693272e-03" rms="2.6590043306350708e-01" purity="7.9440757632255554e-02" nType="-99"/>
            <Node pos="r" depth="3" NCoef="0" IVar="-1" Cut="0.0000000000000000e+00" cType="1" res="-1.5466171316802502e-04" rms="4.9185678362846375e-01" purity="4.4664165377616882e-01" nType="-99"/>
          </Node>
        </Node>
        <Node pos="r" depth="1" NCoef="0" IVar="17" Cut="3.0543258666992188e+02" cType="1" res="1.7195549607276917e-01" rms="4.5823028683662415e-01" purity="6.6157275438308716e-01" nType="0">
          <Node pos="l" depth="2" NCoef="0" IVar="14" Cut="5.2661907196044922e+01" cType="1" res="-2.8272917866706848e-01" rms="3.4320539236068726e-01" purity="1.5253902971744537e-01" nType="0">
            <Node pos="l" depth="3" NCoef="0" IVar="-1" Cut="0.0000000000000000e+00" cType="1" res="8.1813574070110917e-05" rms="3.7059748172760010e-01" purity="8.1909996271133423e-01" nType="-99"/>
            <Node pos="r" depth="3" NCoef="0" IVar="-1" Cut="0.0000000000000000e+00" cType="1" res="-4.0276260115206242e-03" rms="3.1221908330917358e-01" purity="1.1946193873882294e-01" nType="-99"/>
          </Node>
          <Node pos="r" depth="2" NCoef="0" IVar="9" Cut="9.0608489990234375e+01" cType="1" res="2.6246997714042664e-01" rms="4.2305782437324524e-01" purity="7.6290649175643921e-01" nType="0">
            <Node pos="l" depth="3" NCoef="0" IVar="-1" Cut="0.0000000000000000e+00" cType="1" res="-2.7859178953804076e-04" rms="4.7944080829620361e-01" purity="3.6103069782257080e-01" nType="-99"/>
            <Node pos="r" depth="3" NCoef="0" IVar="-1" Cut="0.0000000000000000e+00" cType="1" res="5.4933817591518164e-04" rms="3.6834266781806946e-01" purity="8.3768743276596069e-01" nType="-99"/>
          </Node>
        </Node>
      </Node>
    </BinaryTree>
    <BinaryTree type="DecisionTree" boostWeight="1.0000000000000000e+00" itree="17">
      <Node pos="s" depth="0" NCoef="0" IVar="0" Cut="6.7029267549514771e-01" cType="1" res="2.3303830996155739e-02" rms="4.8312589526176453e-01" purity="5.0585967302322388e-01" nType="0">
        <Node pos="l" depth="1" NCoef="0" IVar="7" Cut="1.9738592529296875e+02" cType="1" res="-3.1355822086334229e-01" rms="3.5211196541786194e-01" purity="1.5379087626934052e-01" nType="0">
          <Node pos="l" depth="2" NCoef="0" IVar="7" Cut="1.8832226562500000e+02" cType="1" res="-4.0116688609123230e-01" rms="2.3369745910167694e-01" purity="5.8976996690034866e-02" nType="0">
            <Node pos="l" depth="3" NCoef="0" IVar="-1" Cut="0.0000000000000000e+00" cType="1" res="-5.1265046931803226e-03" rms="2.0988933742046356e-01" purity="4.6619642525911331e-02" nType="-99"/>
            <Node pos="r" depth="3" NCoef="0" IVar="-1" Cut="0.0000000000000000e+00" cType="1" res="-1.4657593565061688e-03" rms="4.3280228972434998e-01" purity="2.5154349207878113e-01" nType="-99"/>
          </Node>
          <Node pos="r" depth="2" NCoef="0" IVar="9" Cut="1.6899510192871094e+02" cType="1" res="-6.7801460623741150e-02" rms="4.8646235466003418e-01" purity="4.1975942254066467e-01" nType="0">
            <Node pos="l" depth="3" NCoef="0" IVar="-1" Cut="0.0000000000000000e+00" cType="1" res="2.1151490727788769e-05" rms="4.9852991104125977e-01" purity="5.1256853342056274e-01" nType="-99"/>
            <Node pos="r" depth="3" NCoef="0" IVar="-1" Cut="0.0000000000000000e+00" cType="1" res="-6.2427930533885956e-03" rms="1.6903989017009735e-01" purity="2.9582746326923370e-02" nType="-99"/>
          </Node>
        </Node>
        <Node pos="r" depth="1" NCoef="0" IVar="17" Cut="2.9931204223632812e+02" cType="1" res="1.7899690568447113e-01" rms="4.5530125498771667e-01" purity="6.6858106851577759e-01" nType="0">
          <Node pos="l" depth="2" NCoef="0" IVar="8" Cut="1.5096917724609375e+02" cType="1" res="-2.6987299323081970e-01" rms="3.4926456212997437e-01" purity="1.6209122538566589e-01" nType="0">
            <Node pos="l" depth="3" NCoef="0" IVar="-1" Cut="0.0000000000000000e+00" cType="1" res="-3.2363351783715189e-04" rms="4.8191365599632263e-01" purity="3.9200240373611450e-01" nType="-99"/>
            <Node pos="r" depth="3" NCoef="0" IVar="-1" Cut="0.0000000000000000e+00" cType="1" res="-9.5262648537755013e-03" rms="2.0153371989727020e-01" purity="4.5237764716148376e-02" nType="-99"/>
          </Node>
          <Node pos="r" depth="2" NCoef="0" IVar="9" Cut="9.0142677307128906e+01" cType="1" res="2.5955933332443237e-01" rms="4.2421552538871765e-01" purity="7.5948500633239746e-01" nType="0">
            <Node pos="l" depth="3" NCoef="0" IVar="-1" Cut="0.0000000000000000e+00" cType="1" res="-6.0206523630768061e-04" rms="4.6483945846557617e-01" purity="3.1913250684738159e-01" nType="-99"/>
            <Node pos="r" depth="3" NCoef="0" IVar="-1" Cut="0.0000000000000000e+00" cType="1" res="3.0358406365849078e-04" rms="3.7004646658897400e-01" purity="8.3472722768783569e-01" nType="-99"/>
          </Node>
        </Node>
      </Node>
    </BinaryTree>
    <BinaryTree type="DecisionTree" boostWeight="1.0000000000000000e+00" itree="18">
      <Node pos="s" depth="0" NCoef="0" IVar="0" Cut="7.5811403989791870e-01" cType="1" res="1.6476612538099289e-02" rms="4.8263701796531677e-01" purity="4.9784144759178162e-01" nType="0">
        <Node pos="l" depth="1" NCoef="0" IVar="7" Cut="1.9980047607421875e+02" cType="1" res="-2.7717739343643188e-01" rms="3.8328894972801208e-01" purity="1.9026648998260498e-01" nType="0">
          <Node pos="l" depth="2" NCoef="0" IVar="7" Cut="1.6350741577148438e+02" cType="1" res="-3.5970553755760193e-01" rms="2.9736158251762390e-01" purity="1.0085953027009964e-01" nType="0">
            <Node pos="l" depth="3" NCoef="0" IVar="-1" Cut="0.0000000000000000e+00" cType="1" res="-5.2519151940941811e-03" rms="1.9500738382339478e-01" purity="4.0254145860671997e-02" nType="-99"/>
            <Node pos="r" depth="3" NCoef="0" IVar="-1" Cut="0.0000000000000000e+00" cType="1" res="-1.2339382665231824e-03" rms="4.1214850544929504e-01" purity="2.2110880911350250e-01" nType="-99"/>
          </Node>
          <Node pos="r" depth="2" NCoef="0" IVar="9" Cut="1.6563574218750000e+02" cType="1" res="-4.0214832872152328e-02" rms="4.8901441693305969e-01" purity="4.4698017835617065e-01" nType="0">
            <Node pos="l" depth="3" NCoef="0" IVar="-1" Cut="0.0000000000000000e+00" cType="1" res="7.9906414612196386e-05" rms="4.9670454859733582e-01" purity="5.4472047090530396e-01" nType="-99"/>
            <Node pos="r" depth="3" NCoef="0" IVar="-1" Cut="0.0000000000000000e+00" cType="1" res="-7.2040059603750706e-03" rms="2.3061659932136536e-01" purity="5.7999879121780396e-02" nType="-99"/>
          </Node>
        </Node>
        <Node pos="r" depth="1" NCoef="0" IVar="17" Cut="3.0868505859375000e+02" cType="1" res="1.8237376213073730e-01" rms="4.5310157537460327e-01" purity="6.7160320281982422e-01" nType="0">
          <Node pos="l" depth="2" NCoef="0" IVar="14" Cut="1.3060903930664062e+02" cType="1" res="-2.8736484050750732e-01" rms="3.3455449342727661e-01" purity="1.4376525580883026e-01" nType="0">
            <Node pos="l" depth="3" NCoef="0" IVar="-1" Cut="0.0000000000000000e+00" cType="1" res="-8.0281076952815056e-04" rms="4.5167037844657898e-01" purity="3.0352452397346497e-01" nType="-99"/>
            <Node pos="r" depth="3" NCoef="0" IVar="-1" Cut="0.0000000000000000e+00" cType="1" res="-3.0885171145200729e-02" rms="1.3140687346458435e-01" purity="1.7573514953255653e-02" nType="-99"/>
          </Node>
          <Node pos="r" depth="2" NCoef="0" IVar="9" Cut="8.6296478271484375e+01" cType="1" res="2.7860221266746521e-01" rms="4.1227072477340698e-01" purity="7.7973353862762451e-01" nType="0">
            <Node pos="l" depth="3" NCoef="0" IVar="-1" Cut="0.0000000000000000e+00" cType="1" res="-2.4403599090874195e-03" rms="4.3605741858482361e-01" purity="2.5537401437759399e-01" nType="-99"/>
            <Node pos="r" depth="3" NCoef="0" IVar="-1" Cut="0.0000000000000000e+00" cType="1" res="2.1756954083684832e-04" rms="3.6139506101608276e-01" purity="8.4517079591751099e-01" nType="-99"/>
          </Node>
        </Node>
      </Node>
    </BinaryTree>
    <BinaryTree type="DecisionTree" boostWeight="1.0000000000000000e+00" itree="19">
      <Node pos="s" depth="0" NCoef="0" IVar="0" Cut="7.1420538425445557e-01" cType="1" res="2.3073649033904076e-02" rms="4.8099997639656067e-01" purity="5.0339794158935547e-01" nType="0">
        <Node pos="l" depth="1" NCoef="0" IVar="7" Cut="1.8832910156250000e+02" cType="1" res="-3.1593546271324158e-01" rms="3.4589925408363342e-01" purity="1.4813360571861267e-01" nType="0">
          <Node pos="l" depth="2" NCoef="0" IVar="1" Cut="5.7935374975204468e-01" cType="1" res="-3.9919573068618774e-01" rms="2.2767090797424316e-01" purity="5.5880952626466751e-02" nType="0">
            <Node pos="l" depth="3" NCoef="0" IVar="-1" Cut="0.0000000000000000e+00" cType="1" res="-4.8160813748836517e-03" rms="2.1494525671005249e-01" purity="4.9190502613782883e-02" nType="-99"/>
            <Node pos="r" depth="3" NCoef="0" IVar="-1" Cut="0.0000000000000000e+00" cType="1" res="1.7903176194522530e-04" rms="4.9433234333992004e-01" purity="5.2787512540817261e-01" nType="-99"/>
          </Node>
          <Node pos="r" depth="2" NCoef="0" IVar="9" Cut="1.6446429443359375e+02" cType="1" res="-1.2460124492645264e-01" rms="4.7216659784317017e-01" purity="3.6013254523277283e-01" nType="0">
            <Node pos="l" depth="3" NCoef="0" IVar="-1" Cut="0.0000000000000000e+00" cType="1" res="-1.8950973753817379e-04" rms="4.9388059973716736e-01" purity="4.4052830338478088e-01" nType="-99"/>
            <Node pos="r" depth="3" NCoef="0" IVar="-1" Cut="0.0000000000000000e+00" cType="1" res="-9.6229249611496925e-03" rms="9.7118705511093140e-02" purity="9.4779264181852341e-03" nType="-99"/>
          </Node>
        </Node>
        <Node pos="r" depth="1" NCoef="0" IVar="17" Cut="3.0543258666992188e+02" cType="1" res="1.8595299124717712e-01" rms="4.5087453722953796e-01" purity="6.7408722639083862e-01" nType="0">
          <Node pos="l" depth="2" NCoef="0" IVar="12" Cut="2.5663816452026367e+01" cType="1" res="-2.7361205220222473e-01" rms="3.3695736527442932e-01" purity="1.4775337278842926e-01" nType="0">
            <Node pos="l" depth="3" NCoef="0" IVar="-1" Cut="0.0000000000000000e+00" cType="1" res="-2.7275853790342808e-04" rms="4.6945896744728088e-01" purity="3.9424723386764526e-01" nType="-99"/>
            <Node pos="r" depth="3" NCoef="0" IVar="-1" Cut="0.0000000000000000e+00" cType="1" res="-4.5859832316637039e-03" rms="2.7423396706581116e-01" purity="8.8861256837844849e-02" nType="-99"/>
          </Node>
          <Node pos="r" depth="2" NCoef="0" IVar="9" Cut="9.0858940124511719e+01" cType="1" res="2.7327725291252136e-01" rms="4.1543292999267578e-01" purity="7.7409863471984863e-01" nType="0">
            <Node pos="l" depth="3" NCoef="0" IVar="-1" Cut="0.0000000000000000e+00" cType="1" res="-6.2751199584454298e-04" rms="4.6389889717102051e-01" purity="3.1617689132690430e-01" nType="-99"/>
            <Node pos="r" depth="3" NCoef="0" IVar="-1" Cut="0.0000000000000000e+00" cType="1" res="1.7615244723856449e-04" rms="3.5624933242797852e-01" purity="8.5035854578018188e-01" nType="-99"/>
          </Node>
        </Node>
      </Node>
    </BinaryTree>
    <BinaryTree type="DecisionTree" boostWeight="1.0000000000000000e+00" itree="20">
      <Node pos="s" depth="0" NCoef="0" IVar="0" Cut="7.1420353651046753e-01" cType="1" res="2.0365063101053238e-02" rms="4.8045963048934937e-01" purity="4.9937218427658081e-01" nType="0">
        <Node pos="l" depth="1" NCoef="0" IVar="7" Cut="2.0126184082031250e+02" cType="1" res="-2.8838789463043213e-01" rms="3.6950632929801941e-01" purity="1.7393141984939575e-01" nType="0">
          <Node pos="l" depth="2" NCoef="0" IVar="10" Cut="8.7891181945800781e+01" cType="1" res="-3.6526229977607727e-01" rms="2.8314629197120667e-01" purity="8.9978620409965515e-02" nType="0">
            <Node pos="l" depth="3" NCoef="0" IVar="-1" Cut="0.0000000000000000e+00" cType="1" res="-5.2646705880761147e-03" rms="2.3629556596279144e-01" purity="6.0376316308975220e-02" nType="-99"/>
            <Node pos="r" depth="3" NCoef="0" IVar="-1" Cut="0.0000000000000000e+00" cType="1" res="-6.6698715090751648e-04" rms="4.2742261290550232e-01" purity="2.5017943978309631e-01" nType="-99"/>
          </Node>
          <Node pos="r" depth="2" NCoef="0" IVar="9" Cut="1.7177664184570312e+02" cType="1" res="-4.2286954820156097e-02" rms="4.8732709884643555e-01" purity="4.4269272685050964e-01" nType="0">
            <Node pos="l" depth="3" NCoef="0" IVar="-1" Cut="0.0000000000000000e+00" cType="1" res="1.3232418859843165e-04" rms="4.9679243564605713e-01" purity="5.4370832443237305e-01" nType="-99"/>
            <Node pos="r" depth="3" NCoef="0" IVar="-1" Cut="0.0000000000000000e+00" cType="1" res="-9.6815899014472961e-03" rms="1.6042494773864746e-01" purity="2.6305256411433220e-02" nType="-99"/>
          </Node>
        </Node>
        <Node pos="r" depth="1" NCoef="0" IVar="17" Cut="3.0543258666992188e+02" cType="1" res="1.7920146882534027e-01" rms="4.5286503434181213e-01" purity="6.6679358482360840e-01" nType="0">
          <Node pos="l" depth="2" NCoef="0" IVar="8" Cut="1.2366694641113281e+02" cType="1" res="-2.6493275165557861e-01" rms="3.4141752123832703e-01" purity="1.5583732724189758e-01" nType="0">
            <Node pos="l" depth="3" NCoef="0" IVar="-1" Cut="0.0000000000000000e+00" cType="1" res="-1.7137981558335014e-05" rms="4.9623519182205200e-01" purity="4.7219869494438171e-01" nType="-99"/>
            <Node pos="r" depth="3" NCoef="0" IVar="-1" Cut="0.0000000000000000e+00" cType="1" res="-8.9871408417820930e-03" rms="2.2642014920711517e-01" purity="5.7980958372354507e-02" nType="-99"/>
          </Node>
          <Node pos="r" depth="2" NCoef="0" IVar="9" Cut="8.9647048950195312e+01" cType="1" res="2.6719427108764648e-01" rms="4.1928669810295105e-01" purity="7.6802527904510498e-01" nType="0">
            <Node pos="l" depth="3" NCoef="0" IVar="-1" Cut="0.0000000000000000e+00" cType="1" res="-1.9172074971720576e-03" rms="4.4956862926483154e-01" purity="2.8192523121833801e-01" nType="-99"/>
            <Node pos="r" depth="3" NCoef="0" IVar="-1" Cut="0.0000000000000000e+00" cType="1" res="2.9659408028237522e-04" rms="3.6317211389541626e-01" purity="8.4311372041702271e-01" nType="-99"/>
          </Node>
        </Node>
      </Node>
    </BinaryTree>
    <BinaryTree type="DecisionTree" boostWeight="1.0000000000000000e+00" itree="21">
      <Node pos="s" depth="0" NCoef="0" IVar="0" Cut="7.3616069555282593e-01" cType="1" res="1.9460398703813553e-02" rms="4.7977739572525024e-01" purity="4.9709379673004150e-01" nType="0">
        <Node pos="l" depth="1" NCoef="0" IVar="7" Cut="1.8504931640625000e+02" cType="1" res="-2.7613326907157898e-01" rms="3.7748670578002930e-01" purity="1.8504557013511658e-01" nType="0">
          <Node pos="l" depth="2" NCoef="0" IVar="7" Cut="1.6325447082519531e+02" cType="1" res="-3.7754923105239868e-01" rms="2.5772410631179810e-01" purity="7.3153607547283173e-02" nType="0">
            <Node pos="l" depth="3" NCoef="0" IVar="-1" Cut="0.0000000000000000e+00" cType="1" res="-4.8838993534445763e-03" rms="1.9358202815055847e-01" purity="3.9548978209495544e-02" nType="-99"/>
            <Node pos="r" depth="3" NCoef="0" IVar="-1" Cut="0.0000000000000000e+00" cType="1" res="-1.7872171010822058e-03" rms="3.7935504317283630e-01" purity="1.7719425261020660e-01" nType="-99"/>
          </Node>
          <Node pos="r" depth="2" NCoef="0" IVar="9" Cut="1.6271450805664062e+02" cType="1" res="-7.4305780231952667e-02" rms="4.8237836360931396e-01" purity="4.0772122144699097e-01" nType="0">
            <Node pos="l" depth="3" NCoef="0" IVar="-1" Cut="0.0000000000000000e+00" cType="1" res="-2.5975474272854626e-05" rms="4.9612316489219666e-01" purity="4.8221370577812195e-01" nType="-99"/>
            <Node pos="r" depth="3" NCoef="0" IVar="-1" Cut="0.0000000000000000e+00" cType="1" res="-5.4540750570595264e-03" rms="2.4566268920898438e-01" purity="6.6805183887481689e-02" nType="-99"/>
          </Node>
        </Node>
        <Node pos="r" depth="1" NCoef="0" IVar="17" Cut="3.0300012207031250e+02" cType="1" res="1.7968164384365082e-01" rms="4.5242235064506531e-01" purity="6.6623395681381226e-01" nType="0">
          <Node pos="l" depth="2" NCoef="0" IVar="12" Cut="4.5850093841552734e+01" cType="1" res="-2.4351724982261658e-01" rms="3.5483583807945251e-01" purity="1.7195041477680206e-01" nType="0">
            <Node pos="l" depth="3" NCoef="0" IVar="-1" Cut="0.0000000000000000e+00" cType="1" res="-8.2518075942061841e-05" rms="4.6965613961219788e-01" purity="3.9618575572967529e-01" nType="-99"/>
            <Node pos="r" depth="3" NCoef="0" IVar="-1" Cut="0.0000000000000000e+00" cType="1" res="-7.7486289665102959e-03" rms="2.1519136428833008e-01" purity="5.2363973110914230e-02" nType="-99"/>
          </Node>
          <Node pos="r" depth="2" NCoef="0" IVar="9" Cut="9.0608489990234375e+01" cType="1" res="2.6316750049591064e-01" rms="4.2181238532066345e-01" purity="7.6374292373657227e-01" nType="0">
            <Node pos="l" depth="3" NCoef="0" IVar="-1" Cut="0.0000000000000000e+00" cType="1" res="-1.0918751358985901e-03" rms="4.7028002142906189e-01" purity="3.3224096894264221e-01" nType="-99"/>
            <Node pos="r" depth="3" NCoef="0" IVar="-1" Cut="0.0000000000000000e+00" cType="1" res="3.1117512844502926e-04" rms="3.6538776755332947e-01" purity="8.4059953689575195e-01" nType="-99"/>
          </Node>
        </Node>
      </Node>
    </BinaryTree>
    <BinaryTree type="DecisionTree" boostWeight="1.0000000000000000e+00" itree="22">
      <Node pos="s" depth="0" NCoef="0" IVar="0" Cut="7.3616069555282593e-01" cType="1" res="2.1190736442804337e-02" rms="4.7911080718040466e-01" purity="4.9789983034133911e-01" nType="0">
        <Node pos="l" depth="1" NCoef="0" IVar="7" Cut="1.8769136047363281e+02" cType="1" res="-2.7000734210014343e-01" rms="3.8079378008842468e-01" purity="1.8949717283248901e-01" nType="0">
          <Node pos="l" depth="2" NCoef="0" IVar="7" Cut="1.7457801818847656e+02" cType="1" res="-3.6880436539649963e-01" rms="2.6926800608634949e-01" purity="8.0221749842166901e-02" nType="0">
            <Node pos="l" depth="3" NCoef="0" IVar="-1" Cut="0.0000000000000000e+00" cType="1" res="-4.4463146477937698e-03" rms="2.2162294387817383e-01" purity="5.2331980317831039e-02" nType="-99"/>
            <Node pos="r" depth="3" NCoef="0" IVar="-1" Cut="0.0000000000000000e+00" cType="1" res="-8.7765930220484734e-04" rms="4.3063557147979736e-01" purity="2.4844935536384583e-01" nType="-99"/>
          </Node>
          <Node pos="r" depth="2" NCoef="0" IVar="9" Cut="1.6899510192871094e+02" cType="1" res="-5.2890479564666748e-02" rms="4.8552763462066650e-01" purity="4.2964151501655579e-01" nType="0">
            <Node pos="l" depth="3" NCoef="0" IVar="-1" Cut="0.0000000000000000e+00" cType="1" res="4.6708955778740346e-05" rms="4.9698412418365479e-01" purity="5.0803411006927490e-01" nType="-99"/>
            <Node pos="r" depth="3" NCoef="0" IVar="-1" Cut="0.0000000000000000e+00" cType="1" res="-5.3449650295078754e-03" rms="2.2942815721035004e-01" purity="5.6508228182792664e-02" nType="-99"/>
          </Node>
        </Node>
        <Node pos="r" depth="1" NCoef="0" IVar="17" Cut="3.0406094360351562e+02" cType="1" res="1.8146343529224396e-01" rms="4.5135411620140076e-01" purity="6.6764169931411743e-01" nType="0">
          <Node pos="l" depth="2" NCoef="0" IVar="14" Cut="1.2780645751953125e+02" cType="1" res="-2.4349285662174225e-01" rms="3.5471397638320923e-01" purity="1.6900274157524109e-01" nType="0">
            <Node pos="l" depth="3" NCoef="0" IVar="-1" Cut="0.0000000000000000e+00" cType="1" res="-4.7122276737354696e-04" rms="4.6359190344810486e-01" purity="3.3796715736389160e-01" nType="-99"/>
            <Node pos="r" depth="3" NCoef="0" IVar="-1" Cut="0.0000000000000000e+00" cType="1" res="-8.1636765971779823e-03" rms="2.1233682334423065e-01" purity="4.9675557762384415e-02" nType="-99"/>
          </Node>
          <Node pos="r" depth="2" NCoef="0" IVar="9" Cut="8.9619087219238281e+01" cType="1" res="2.6653495430946350e-01" rms="4.1943547129631042e-01" purity="7.6746368408203125e-01" nType="0">
            <Node pos="l" depth="3" NCoef="0" IVar="-1" Cut="0.0000000000000000e+00" cType="1" res="-2.0001649390906096e-03" rms="4.4869342446327209e-01" purity="2.8000867366790771e-01" nType="-99"/>
            <Node pos="r" depth="3" NCoef="0" IVar="-1" Cut="0.0000000000000000e+00" cType="1" res="2.9246995109133422e-04" rms="3.6351162195205688e-01" purity="8.4274899959564209e-01" nType="-99"/>
          </Node>
        </Node>
      </Node>
    </BinaryTree>
    <BinaryTree type="DecisionTree" boostWeight="1.0000000000000000e+00" itree="23">
      <Node pos="s" depth="0" NCoef="0" IVar="0" Cut="7.1419060230255127e-01" cType="1" res="1.5466919168829918e-02" rms="4.7826498746871948e-01" purity="4.9156641960144043e-01" nType="0">
        <Node pos="l" depth="1" NCoef="0" IVar="7" Cut="1.9121762084960938e+02" cType="1" res="-2.7686810493469238e-01" rms="3.7339878082275391e-01" purity="1.8124148249626160e-01" nType="0">
          <Node pos="l" depth="2" NCoef="0" IVar="1" Cut="6.0085463523864746e-01" cType="1" res="-3.7687742710113525e-01" rms="2.5296065211296082e-01" purity="7.0402495563030243e-02" nType="0">
            <Node pos="l" depth="3" NCoef="0" IVar="-1" Cut="0.0000000000000000e+00" cType="1" res="-4.2512863874435425e-03" rms="2.4184823036193848e-01" purity="6.3642583787441254e-02" nType="-99"/>
            <Node pos="r" depth="3" NCoef="0" IVar="-1" Cut="0.0000000000000000e+00" cType="1" res="2.7113500982522964e-04" rms="4.7807759046554565e-01" purity="6.3270080089569092e-01" nType="-99"/>
          </Node>
          <Node pos="r" depth="2" NCoef="0" IVar="9" Cut="1.6899510192871094e+02" cType="1" res="-4.6421207487583160e-02" rms="4.8693051934242249e-01" purity="4.3664264678955078e-01" nType="0">
            <Node pos="l" depth="3" NCoef="0" IVar="-1" Cut="0.0000000000000000e+00" cType="1" res="5.9841029724339023e-05" rms="4.9784290790557861e-01" purity="5.1429736614227295e-01" nType="-99"/>
            <Node pos="r" depth="3" NCoef="0" IVar="-1" Cut="0.0000000000000000e+00" cType="1" res="-4.3561412021517754e-03" rms="2.3466534912586212e-01" purity="5.9907734394073486e-02" nType="-99"/>
          </Node>
        </Node>
        <Node pos="r" depth="1" NCoef="0" IVar="17" Cut="3.0543258666992188e+02" cType="1" res="1.7207002639770508e-01" rms="4.5417597889900208e-01" purity="6.5780663490295410e-01" nType="0">
          <Node pos="l" depth="2" NCoef="0" IVar="12" Cut="2.8287038803100586e+01" cType="1" res="-2.4658575654029846e-01" rms="3.4974697232246399e-01" purity="1.6675588488578796e-01" nType="0">
            <Node pos="l" depth="3" NCoef="0" IVar="-1" Cut="0.0000000000000000e+00" cType="1" res="-1.3559796570916660e-05" rms="4.7239604592323303e-01" purity="4.4510009884834290e-01" nType="-99"/>
            <Node pos="r" depth="3" NCoef="0" IVar="-1" Cut="0.0000000000000000e+00" cType="1" res="-6.3459565863013268e-03" rms="2.6684743165969849e-01" purity="8.3667777478694916e-02" nType="-99"/>
          </Node>
          <Node pos="r" depth="2" NCoef="0" IVar="9" Cut="9.0428169250488281e+01" cType="1" res="2.5874739885330200e-01" rms="4.2409461736679077e-01" purity="7.5947248935699463e-01" nType="0">
            <Node pos="l" depth="3" NCoef="0" IVar="-1" Cut="0.0000000000000000e+00" cType="1" res="-1.9996734336018562e-03" rms="4.5009604096412659e-01" purity="2.8409418463706970e-01" nType="-99"/>
            <Node pos="r" depth="3" NCoef="0" IVar="-1" Cut="0.0000000000000000e+00" cType="1" res="5.9759552823379636e-04" rms="3.6742311716079712e-01" purity="8.3856898546218872e-01" nType="-99"/>
          </Node>
        </Node>
      </Node>
    </BinaryTree>
    <BinaryTree type="DecisionTree" boostWeight="1.0000000000000000e+00" itree="24">
      <Node pos="s" depth="0" NCoef="0" IVar="0" Cut="7.5811421871185303e-01" cType="1" res="3.3278848975896835e-02" rms="4.7743591666221619e-01" purity="5.0963628292083740e-01" nType="0">
        <Node pos="l" depth="1" NCoef="0" IVar="7" Cut="1.9121762084960938e+02" cType="1" res="-2.6430642604827881e-01" rms="3.8272884488105774e-01" purity="1.9343000650405884e-01" nType="0">
          <Node pos="l" depth="2" NCoef="0" IVar="10" Cut="8.1559196472167969e+01" cType="1" res="-3.5703507065773010e-01" rms="2.8193923830986023e-01" purity="8.9231275022029877e-02" nType="0">
            <Node pos="l" depth="3" NCoef="0" IVar="-1" Cut="0.0000000000000000e+00" cType="1" res="-5.1401285454630852e-03" rms="2.4141401052474976e-01" purity="6.3599675893783569e-02" nType="-99"/>
            <Node pos="r" depth="3" NCoef="0" IVar="-1" Cut="0.0000000000000000e+00" cType="1" res="-9.7481766715645790e-04" rms="3.8764518499374390e-01" purity="1.8914005160331726e-01" nType="-99"/>
          </Node>
          <Node pos="r" depth="2" NCoef="0" IVar="0" Cut="5.6485271453857422e-01" cType="1" res="-5.4805878549814224e-02" rms="4.8427003622055054e-01" purity="4.2884477972984314e-01" nType="0">
            <Node pos="l" depth="3" NCoef="0" IVar="-1" Cut="0.0000000000000000e+00" cType="1" res="-8.0628023715689778e-04" rms="4.5291289687156677e-01" purity="3.0838677287101746e-01" nType="-99"/>
            <Node pos="r" depth="3" NCoef="0" IVar="-1" Cut="0.0000000000000000e+00" cType="1" res="1.9399849406909198e-04" rms="4.6537080407142639e-01" purity="6.4551085233688354e-01" nType="-99"/>
          </Node>
        </Node>
        <Node pos="r" depth="1" NCoef="0" IVar="17" Cut="3.1067095947265625e+02" cType="1" res="1.9658923149108887e-01" rms="4.4427704811096191e-01" purity="6.8316566944122314e-01" nType="0">
          <Node pos="l" depth="2" NCoef="0" IVar="8" Cut="1.3554934692382812e+02" cType="1" res="-2.3964148759841919e-01" rms="3.5628005862236023e-01" purity="1.7538635432720184e-01" nType="0">
            <Node pos="l" depth="3" NCoef="0" IVar="-1" Cut="0.0000000000000000e+00" cType="1" res="-5.3257666877470911e-05" rms="4.9170196056365967e-01" purity="4.4353213906288147e-01" nType="-99"/>
            <Node pos="r" depth="3" NCoef="0" IVar="-1" Cut="0.0000000000000000e+00" cType="1" res="-9.0375626459717751e-03" rms="2.3892959952354431e-01" purity="6.5854690968990326e-02" nType="-99"/>
          </Node>
          <Node pos="r" depth="2" NCoef="0" IVar="9" Cut="9.0608489990234375e+01" cType="1" res="2.8704720735549927e-01" rms="4.0539717674255371e-01" purity="7.8846007585525513e-01" nType="0">
            <Node pos="l" depth="3" NCoef="0" IVar="-1" Cut="0.0000000000000000e+00" cType="1" res="-2.8225191636011004e-04" rms="4.7556200623512268e-01" purity="3.4996503591537476e-01" nType="-99"/>
            <Node pos="r" depth="3" NCoef="0" IVar="-1" Cut="0.0000000000000000e+00" cType="1" res="1.7476329230703413e-04" rms="3.4689834713935852e-01" purity="8.6002713441848755e-01" nType="-99"/>
          </Node>
        </Node>
      </Node>
    </BinaryTree>
    <BinaryTree type="DecisionTree" boostWeight="1.0000000000000000e+00" itree="25">
      <Node pos="s" depth="0" NCoef="0" IVar="0" Cut="7.3615884780883789e-01" cType="1" res="9.4227343797683716e-03" rms="4.7697353363037109e-01" purity="4.8342323303222656e-01" nType="0">
        <Node pos="l" depth="1" NCoef="0" IVar="7" Cut="1.8653536987304688e+02" cType="1" res="-2.7524054050445557e-01" rms="3.7203761935234070e-01" purity="1.8022042512893677e-01" nType="0">
          <Node pos="l" depth="2" NCoef="0" IVar="7" Cut="1.7573527526855469e+02" cType="1" res="-3.7414622306823730e-01" rms="2.5011709332466125e-01" purity="6.8595483899116516e-02" nType="0">
            <Node pos="l" depth="3" NCoef="0" IVar="-1" Cut="0.0000000000000000e+00" cType="1" res="-4.5165033079683781e-03" rms="2.1803647279739380e-01" purity="5.0690393894910812e-02" nType="-99"/>
            <Node pos="r" depth="3" NCoef="0" IVar="-1" Cut="0.0000000000000000e+00" cType="1" res="-1.1822520755231380e-03" rms="4.0255478024482727e-01" purity="2.0787245035171509e-01" nType="-99"/>
          </Node>
          <Node pos="r" depth="2" NCoef="0" IVar="0" Cut="5.4328417778015137e-01" cType="1" res="-7.3586866259574890e-02" rms="4.8213768005371094e-01" purity="4.0780681371688843e-01" nType="0">
            <Node pos="l" depth="3" NCoef="0" IVar="-1" Cut="0.0000000000000000e+00" cType="1" res="-1.2315473286435008e-03" rms="4.3655005097389221e-01" purity="2.7156966924667358e-01" nType="-99"/>
            <Node pos="r" depth="3" NCoef="0" IVar="-1" Cut="0.0000000000000000e+00" cType="1" res="1.7912767361849546e-04" rms="4.7417068481445312e-01" purity="6.2502098083496094e-01" nType="-99"/>
          </Node>
        </Node>
        <Node pos="r" depth="1" NCoef="0" IVar="17" Cut="2.9745092773437500e+02" cType="1" res="1.6911420226097107e-01" rms="4.5444813370704651e-01" purity="6.5351510047912598e-01" nType="0">
          <Node pos="l" depth="2" NCoef="0" IVar="8" Cut="1.2695097351074219e+02" cType="1" res="-2.8563880920410156e-01" rms="2.9777926206588745e-01" purity="1.1246688663959503e-01" nType="0">
            <Node pos="l" depth="3" NCoef="0" IVar="-1" Cut="0.0000000000000000e+00" cType="1" res="-5.4276280570775270e-04" rms="4.7914403676986694e-01" purity="3.6688479781150818e-01" nType="-99"/>
            <Node pos="r" depth="3" NCoef="0" IVar="-1" Cut="0.0000000000000000e+00" cType="1" res="-8.4989797323942184e-03" rms="2.0807771384716034e-01" purity="4.7472435981035233e-02" nType="-99"/>
          </Node>
          <Node pos="r" depth="2" NCoef="0" IVar="9" Cut="9.0717071533203125e+01" cType="1" res="2.4968789517879486e-01" rms="4.2926773428916931e-01" purity="7.4937862157821655e-01" nType="0">
            <Node pos="l" depth="3" NCoef="0" IVar="-1" Cut="0.0000000000000000e+00" cType="1" res="-5.9709488414227962e-04" rms="4.6655833721160889e-01" purity="3.2427692413330078e-01" nType="-99"/>
            <Node pos="r" depth="3" NCoef="0" IVar="-1" Cut="0.0000000000000000e+00" cType="1" res="5.9931800933554769e-04" rms="3.7745201587677002e-01" purity="8.2599484920501709e-01" nType="-99"/>
          </Node>
        </Node>
      </Node>
    </BinaryTree>
    <BinaryTree type="DecisionTree" boostWeight="1.0000000000000000e+00" itree="26">
      <Node pos="s" depth="0" NCoef="0" IVar="0" Cut="7.3616069555282593e-01" cType="1" res="3.9837289601564407e-02" rms="4.7598105669021606e-01" purity="5.1473474502563477e-01" nType="0">
        <Node pos="l" depth="1" NCoef="0" IVar="7" Cut="1.8859309387207031e+02" cType="1" res="-2.5911819934844971e-01" rms="3.8358047604560852e-01" purity="1.9452260434627533e-01" nType="0">
          <Node pos="l" depth="2" NCoef="0" IVar="1" Cut="3.8692486286163330e-01" cType="1" res="-3.4357380867004395e-01" rms="2.9317480325698853e-01" purity="9.7699493169784546e-02" nType="0">
            <Node pos="l" depth="3" NCoef="0" IVar="-1" Cut="0.0000000000000000e+00" cType="1" res="-4.2666275985538960e-03" rms="2.3323313891887665e-01" purity="5.9194471687078476e-02" nType="-99"/>
            <Node pos="r" depth="3" NCoef="0" IVar="-1" Cut="0.0000000000000000e+00" cType="1" res="-5.2674999460577965e-04" rms="4.4930830597877502e-01" purity="2.8624939918518066e-01" nType="-99"/>
          </Node>
          <Node pos="r" depth="2" NCoef="0" IVar="9" Cut="1.6899510192871094e+02" cType="1" res="-6.9245658814907074e-02" rms="4.8228275775909424e-01" purity="4.1219958662986755e-01" nType="0">
            <Node pos="l" depth="3" NCoef="0" IVar="-1" Cut="0.0000000000000000e+00" cType="1" res="-4.2711003516160417e-06" rms="4.9707379937171936e-01" purity="4.8976263403892517e-01" nType="-99"/>
            <Node pos="r" depth="3" NCoef="0" IVar="-1" Cut="0.0000000000000000e+00" cType="1" res="-8.7831346318125725e-03" rms="1.0735800117254257e-01" purity="1.1616770178079605e-02" nType="-99"/>
          </Node>
        </Node>
        <Node pos="r" depth="1" NCoef="0" IVar="17" Cut="3.0300012207031250e+02" cType="1" res="1.9510012865066528e-01" rms="4.4416624307632446e-01" purity="6.8103724718093872e-01" nType="0">
          <Node pos="l" depth="2" NCoef="0" IVar="8" Cut="1.3669677734375000e+02" cType="1" res="-2.5491136312484741e-01" rms="3.2993033528327942e-01" purity="1.4700634777545929e-01" nType="0">
            <Node pos="l" depth="3" NCoef="0" IVar="-1" Cut="0.0000000000000000e+00" cType="1" res="-2.6468664873391390e-04" rms="4.8973605036735535e-01" purity="4.1864091157913208e-01" nType="-99"/>
            <Node pos="r" depth="3" NCoef="0" IVar="-1" Cut="0.0000000000000000e+00" cType="1" res="-1.0410378687083721e-02" rms="1.9953826069831848e-01" purity="4.4746354222297668e-02" nType="-99"/>
          </Node>
          <Node pos="r" depth="2" NCoef="0" IVar="9" Cut="8.9446266174316406e+01" cType="1" res="2.7626368403434753e-01" rms="4.1245687007904053e-01" purity="7.7735441923141479e-01" nType="0">
            <Node pos="l" depth="3" NCoef="0" IVar="-1" Cut="0.0000000000000000e+00" cType="1" res="-1.6234947834163904e-03" rms="4.5886948704719543e-01" purity="3.0242639780044556e-01" nType="-99"/>
            <Node pos="r" depth="3" NCoef="0" IVar="-1" Cut="0.0000000000000000e+00" cType="1" res="1.3625869178213179e-04" rms="3.5773277282714844e-01" purity="8.4853816032409668e-01" nType="-99"/>
          </Node>
        </Node>
      </Node>
    </BinaryTree>
    <BinaryTree type="DecisionTree" boostWeight="1.0000000000000000e+00" itree="27">
      <Node pos="s" depth="0" NCoef="0" IVar="0" Cut="7.1420353651046753e-01" cType="1" res="3.5793136805295944e-02" rms="4.7569739818572998e-01" purity="5.0931262969970703e-01" nType="0">
        <Node pos="l" depth="1" NCoef="0" IVar="7" Cut="1.9738592529296875e+02" cType="1" res="-2.7666181325912476e-01" rms="3.6727687716484070e-01" purity="1.7477340996265411e-01" nType="0">
          <Node pos="l" depth="2" NCoef="0" IVar="0" Cut="6.0725480318069458e-01" cType="1" res="-3.5471734404563904e-01" rms="2.7684411406517029e-01" purity="8.6248062551021576e-02" nType="0">
            <Node pos="l" depth="3" NCoef="0" IVar="-1" Cut="0.0000000000000000e+00" cType="1" res="-4.4982065446674824e-03" rms="2.3890472948551178e-01" purity="6.2022820115089417e-02" nType="-99"/>
            <Node pos="r" depth="3" NCoef="0" IVar="-1" Cut="0.0000000000000000e+00" cType="1" res="-7.9072202788665891e-04" rms="4.3676766753196716e-01" purity="2.6516038179397583e-01" nType="-99"/>
          </Node>
          <Node pos="r" depth="2" NCoef="0" IVar="9" Cut="1.6334866333007812e+02" cType="1" res="-5.6365538388490677e-02" rms="4.8328518867492676e-01" purity="4.2461869120597839e-01" nType="0">
            <Node pos="l" depth="3" NCoef="0" IVar="-1" Cut="0.0000000000000000e+00" cType="1" res="7.3260911449324340e-05" rms="4.9826106429100037e-01" purity="5.2008587121963501e-01" nType="-99"/>
            <Node pos="r" depth="3" NCoef="0" IVar="-1" Cut="0.0000000000000000e+00" cType="1" res="-4.4043781235814095e-03" rms="2.4554048478603363e-01" purity="6.7182414233684540e-02" nType="-99"/>
          </Node>
        </Node>
        <Node pos="r" depth="1" NCoef="0" IVar="17" Cut="2.9931204223632812e+02" cType="1" res="1.8813450634479523e-01" rms="4.4725990295410156e-01" purity="6.7242151498794556e-01" nType="0">
          <Node pos="l" depth="2" NCoef="0" IVar="8" Cut="1.5337992858886719e+02" cType="1" res="-2.0521281659603119e-01" rms="3.6851069331169128e-01" purity="1.9469755887985229e-01" nType="0">
            <Node pos="l" depth="3" NCoef="0" IVar="-1" Cut="0.0000000000000000e+00" cType="1" res="-3.0683349905302748e-05" rms="4.8836898803710938e-01" purity="4.4265231490135193e-01" nType="-99"/>
            <Node pos="r" depth="3" NCoef="0" IVar="-1" Cut="0.0000000000000000e+00" cType="1" res="-7.4632703326642513e-03" rms="2.2010096907615662e-01" purity="5.4072741419076920e-02" nType="-99"/>
          </Node>
          <Node pos="r" depth="2" NCoef="0" IVar="9" Cut="9.0428169250488281e+01" cType="1" res="2.6149871945381165e-01" rms="4.2164358496665955e-01" purity="7.6152300834655762e-01" nType="0">
            <Node pos="l" depth="3" NCoef="0" IVar="-1" Cut="0.0000000000000000e+00" cType="1" res="-6.0836749617010355e-04" rms="4.6173816919326782e-01" purity="3.1216150522232056e-01" nType="-99"/>
            <Node pos="r" depth="3" NCoef="0" IVar="-1" Cut="0.0000000000000000e+00" cType="1" res="3.1031260732561350e-04" rms="3.6692082881927490e-01" purity="8.3787918090820312e-01" nType="-99"/>
          </Node>
        </Node>
      </Node>
    </BinaryTree>
    <BinaryTree type="DecisionTree" boostWeight="1.0000000000000000e+00" itree="28">
      <Node pos="s" depth="0" NCoef="0" IVar="0" Cut="6.7029285430908203e-01" cType="1" res="1.8064541742205620e-02" rms="4.7471791505813599e-01" purity="4.9005576968193054e-01" nType="0">
        <Node pos="l" depth="1" NCoef="0" IVar="7" Cut="1.9738592529296875e+02" cType="1" res="-3.0195432901382446e-01" rms="3.4213063120841980e-01" purity="1.4639371633529663e-01" nType="0">
          <Node pos="l" depth="2" NCoef="0" IVar="10" Cut="8.1735504150390625e+01" cType="1" res="-3.6501449346542358e-01" rms="2.5715294480323792e-01" purity="7.2927117347717285e-02" nType="0">
            <Node pos="l" depth="3" NCoef="0" IVar="-1" Cut="0.0000000000000000e+00" cType="1" res="-6.5844813361763954e-03" rms="2.0836336910724640e-01" purity="4.6362318098545074e-02" nType="-99"/>
            <Node pos="r" depth="3" NCoef="0" IVar="-1" Cut="0.0000000000000000e+00" cType="1" res="-1.1062949197366834e-03" rms="3.7378680706024170e-01" purity="1.7204777896404266e-01" nType="-99"/>
          </Node>
          <Node pos="r" depth="2" NCoef="0" IVar="1" Cut="2.1984180808067322e-01" cType="1" res="-1.1302141100168228e-01" rms="4.7119092941284180e-01" purity="3.6650505661964417e-01" nType="0">
            <Node pos="l" depth="3" NCoef="0" IVar="-1" Cut="0.0000000000000000e+00" cType="1" res="-1.5398355899378657e-03" rms="4.1381636261940002e-01" purity="2.2995647788047791e-01" nType="-99"/>
            <Node pos="r" depth="3" NCoef="0" IVar="-1" Cut="0.0000000000000000e+00" cType="1" res="1.3871172268409282e-04" rms="4.8647946119308472e-01" purity="5.3505450487136841e-01" nType="-99"/>
          </Node>
        </Node>
        <Node pos="r" depth="1" NCoef="0" IVar="17" Cut="3.1067095947265625e+02" cType="1" res="1.7153418064117432e-01" rms="4.5236003398895264e-01" purity="6.5486383438110352e-01" nType="0">
          <Node pos="l" depth="2" NCoef="0" IVar="8" Cut="1.3259889221191406e+02" cType="1" res="-2.1272198855876923e-01" rms="3.6874338984489441e-01" purity="1.9551317393779755e-01" nType="0">
            <Node pos="l" depth="3" NCoef="0" IVar="-1" Cut="0.0000000000000000e+00" cType="1" res="-1.5006647117843386e-05" rms="4.9400341510772705e-01" purity="4.7782763838768005e-01" nType="-99"/>
            <Node pos="r" depth="3" NCoef="0" IVar="-1" Cut="0.0000000000000000e+00" cType="1" res="-5.5855079554021358e-03" rms="2.4735337495803833e-01" purity="7.1495696902275085e-02" nType="-99"/>
          </Node>
          <Node pos="r" depth="2" NCoef="0" IVar="9" Cut="8.9173698425292969e+01" cType="1" res="2.5872710347175598e-01" rms="4.2320439219474792e-01" purity="7.5909668207168579e-01" nType="0">
            <Node pos="l" depth="3" NCoef="0" IVar="-1" Cut="0.0000000000000000e+00" cType="1" res="-1.6024035867303610e-03" rms="4.5207336544990540e-01" purity="2.8748604655265808e-01" nType="-99"/>
            <Node pos="r" depth="3" NCoef="0" IVar="-1" Cut="0.0000000000000000e+00" cType="1" res="2.4965198826976120e-04" rms="3.6802312731742859e-01" purity="8.3739244937896729e-01" nType="-99"/>
          </Node>
        </Node>
      </Node>
    </BinaryTree>
    <BinaryTree type="DecisionTree" boostWeight="1.0000000000000000e+00" itree="29">
      <Node pos="s" depth="0" NCoef="0" IVar="0" Cut="7.1420538425445557e-01" cType="1" res="3.7862010300159454e-02" rms="4.7359108924865723e-01" purity="5.0989174842834473e-01" nType="0">
